{"learner":{"attributes":{"scikit_learn":"{\"_estimator_type\": \"regressor\"}"},"feature_names":["Month","DayOfYear","Hour_sin","Hour_cos"],"feature_types":["int","int","float","float"],"gradient_booster":{"model":{"cats":{"enc":[],"feature_segments":[],"sorted_idx":[]},"gbtree_model_param":{"num_parallel_tree":"1","num_trees":"120"},"iteration_indptr":[0,1,2,3,4,5,6,7,8,9,10,11,12,13,14,15,16,17,18,19,20,21,22,23,24,25,26,27,28,29,30,31,32,33,34,35,36,37,38,39,40,41,42,43,44,45,46,47,48,49,50,51,52,53,54,55,56,57,58,59,60,61,62,63,64,65,66,67,68,69,70,71,72,73,74,75,76,77,78,79,80,81,82,83,84,85,86,87,88,89,90,91,92,93,94,95,96,97,98,99,100,101,102,103,104,105,106,107,108,109,110,111,112,113,114,115,116,117,118,119,120],"tree_info":[0,0,0,0,0,0,0,0,0,0,0,0,0,0,0,0,0,0,0,0,0,0,0,0,0,0,0,0,0,0,0,0,0,0,0,0,0,0,0,0,0,0,0,0,0,0,0,0,0,0,0,0,0,0,0,0,0,0,0,0,0,0,0,0,0,0,0,0,0,0,0,0,0,0,0,0,0,0,0,0,0,0,0,0,0,0,0,0,0,0,0,0,0,0,0,0,0,0,0,0,0,0,0,0,0,0,0,0,0,0,0,0,0,0,0,0,0,0,0,0],"trees":[{"base_weights":[9.0152955E-1,-1.3616774E2,1.3068864E2,-1.9803732E2,-5.350248E1,2.0609375E2,2.73722E1,-2.1751598E2,-1.4975659E2,-1.1923479E1,-2.2351936E1,4.1067953E2,1.7045396E2,7.8114334E1,-6.7654085E0,-2.2381058E1,-2.0791645E1,-1.8358694E2,-1.4085939E2,-2.4944923E1,2.3514471E2,3.4681888E2,4.636808E1,5.3541576E1,1.526078E2,4.0547253E1,6.1916245E1,5.444837E1,-1.8776657E1,-1.9958624E1,-1.658928E1,-1.4237857E1,-6.6015825E0,-6.7940097E0,1.8310388E0,1.5115839E1,3.1134735E1,4.7258675E1,2.600094E1,1.6685751E1,1.245167E1,7.8594127E0,5.7609653E0,9.0019455E0,2.6445985E0,-6.055249E-1,-4.2475977E0],"categories":[],"categories_nodes":[],"categories_segments":[],"categories_sizes":[],"default_left":[0,0,0,0,0,0,0,0,0,0,0,0,0,0,0,0,0,0,0,0,0,0,0,0,0,0,0,0,0,0,0,0,0,0,0,0,0,0,0,0,0,0,0,0,0,0,0],"id":0,"left_children":[1,3,5,7,9,11,13,15,17,19,-1,21,23,25,27,-1,-1,29,31,33,35,37,-1,-1,39,-1,41,43,45,-1,-1,-1,-1,-1,-1,-1,-1,-1,-1,-1,-1,-1,-1,-1,-1,-1,-1],"loss_changes":[1.6950147E8,2.3689832E7,3.8121496E7,2.459608E6,1.4029563E7,2.0557368E7,3.5792845E6,6.7424E4,2.04402E5,5.1404925E6,0E0,1.257368E6,1.5621536E7,4.3813365E6,9.097964E5,0E0,0E0,1.10525E4,5.9958E4,2.8225142E6,4.649355E5,1.995184E6,0E0,0E0,8.99888E5,0E0,5.2429E4,1.9982256E5,3.1148216E5,0E0,0E0,0E0,0E0,0E0,0E0,0E0,0E0,0E0,0E0,0E0,0E0,0E0,0E0,0E0,0E0,0E0,0E0],"parents":[2147483647,0,0,1,1,2,2,3,3,4,4,5,5,6,6,7,7,8,8,9,9,11,11,12,12,13,13,14,14,17,17,18,18,19,19,20,20,21,21,24,24,26,26,27,27,28,28],"right_children":[2,4,6,8,10,12,14,16,18,20,-1,22,24,26,28,-1,-1,30,32,34,36,38,-1,-1,40,-1,42,44,46,-1,-1,-1,-1,-1,-1,-1,-1,-1,-1,-1,-1,-1,-1,-1,-1,-1,-1],"split_conditions":[1.2246469E-16,-5E-1,8.660254E-1,-7.0710677E-1,0E0,2.5881904E-1,9.659258E-1,-8.660254E-1,8.2E1,9E1,-2.2351936E1,8.5E1,8.1E1,8.1E1,8.2E1,-2.2381058E1,-2.0791645E1,8.1E1,9E1,-2.5881904E-1,-2.5881904E-1,8.2E1,4.636808E1,5.3541576E1,7.0710677E-1,4.0547253E1,8.3E1,8.1E1,1E0,-1.9958624E1,-1.658928E1,-1.4237857E1,-6.6015825E0,-6.7940097E0,1.8310388E0,1.5115839E1,3.1134735E1,4.7258675E1,2.600094E1,1.6685751E1,1.245167E1,7.8594127E0,5.7609653E0,9.0019455E0,2.6445985E0,-6.055249E-1,-4.2475977E0],"split_indices":[2,2,2,2,2,2,2,2,1,1,0,1,1,1,1,0,0,1,1,2,2,1,0,0,2,0,1,1,2,0,0,0,0,0,0,0,0,0,0,0,0,0,0,0,0,0,0],"split_type":[0,0,0,0,0,0,0,0,0,0,0,0,0,0,0,0,0,0,0,0,0,0,0,0,0,0,0,0,0,0,0,0,0,0,0,0,0,0,0,0,0,0,0,0,0,0,0],"sum_hessian":[9.526E3,4.633E3,4.893E3,2.649E3,1.984E3,2.828E3,2.065E3,1.885E3,7.64E2,1.595E3,3.89E2,4.18E2,2.41E3,8.3E2,1.235E3,1.125E3,7.6E2,1.55E2,6.09E2,1.516E3,7.9E1,1.93E2,2.25E2,1.11E2,2.299E3,3.8E1,7.92E2,2.02E2,1.033E3,7.6E1,7.9E1,5.96E2,1.3E1,7.6E2,7.56E2,3.9E1,4E1,7.7E1,1.16E2,1.522E3,7.77E2,1.59E2,6.33E2,8.8E1,1.14E2,6.73E2,3.6E2],"tree_param":{"num_deleted":"0","num_feature":"4","num_nodes":"47","size_leaf_vector":"1"}},{"base_weights":[1.3127074E-1,2.7055045E2,-1.7281715E2,-3.9770264E1,4.1493787E2,-2.1756738E2,-4.355007E0,-1.1480444E2,9.5419846E1,3.1037344E2,4.6691592E2,-2.0775713E2,-2.3687742E1,1.81984E2,-9.820093E1,-1.6933934E2,-6.3817715E1,1.856811E1,1.2480276E2,2.5184625E2,3.6872116E2,5.049377E2,3.537918E1,-2.018854E1,-2.1354701E2,1.9916531E2,-3.4748662E-1,-1.792082E2,-2.3224178E1,-1.7608925E1,-1.5814593E1,-1.5267589E1,-5.2057676E0,-4.014246E0,4.7691293E0,1.0104545E1,1.5047152E1,1.8461264E1,3.0111105E1,3.0755817E1,4.1686337E1,5.3360622E1,4.5001484E1,-2.1723291E1,-2.0119083E1,2.2805975E1,1.9138159E1,-1.3636836E1,-1.8077826E1,2.4573793E0,-3.2987638E0],"categories":[],"categories_nodes":[],"categories_segments":[],"categories_sizes":[],"default_left":[0,0,0,0,0,0,0,0,0,0,0,0,0,0,0,0,0,0,0,0,0,0,0,0,0,0,0,0,0,0,0,0,0,0,0,0,0,0,0,0,0,0,0,0,0,0,0,0,0,0,0],"id":1,"left_children":[1,3,5,7,9,11,13,15,17,19,21,23,-1,25,27,29,31,33,35,37,39,41,-1,-1,43,45,-1,47,49,-1,-1,-1,-1,-1,-1,-1,-1,-1,-1,-1,-1,-1,-1,-1,-1,-1,-1,-1,-1,-1,-1],"loss_changes":[4.4972656E8,1.6808531E8,4.421363E7,1.2102459E7,1.3768832E7,8.28624E5,2.1562046E7,2.12188E6,9.596445E5,2.82008E6,7.167776E6,6.1632E4,0E0,1.316687E6,4.976241E6,1.07E2,4.0795225E5,2.0538525E5,1.726205E5,1.365366E6,1.123208E6,1.769024E6,0E0,0E0,2.616E4,4.1368E4,0E0,1.849E3,2.0008022E5,0E0,0E0,0E0,0E0,0E0,0E0,0E0,0E0,0E0,0E0,0E0,0E0,0E0,0E0,0E0,0E0,0E0,0E0,0E0,0E0,0E0,0E0],"parents":[2147483647,0,0,1,1,2,2,3,3,4,4,5,5,6,6,7,7,8,8,9,9,10,10,11,11,13,13,14,14,15,15,16,16,17,17,18,18,19,19,20,20,21,21,24,24,25,25,27,27,28,28],"right_children":[2,4,6,8,10,12,14,16,18,20,22,24,-1,26,28,30,32,34,36,38,40,42,-1,-1,44,46,-1,48,50,-1,-1,-1,-1,-1,-1,-1,-1,-1,-1,-1,-1,-1,-1,-1,-1,-1,-1,-1,-1,-1,-1],"split_conditions":[-2.5881904E-1,-2.5881904E-1,9.659258E-1,-5E-1,2.5881904E-1,1.2246469E-16,-1.8369701E-16,-7.0710677E-1,8.3E1,0E0,8.660254E-1,-7.0710677E-1,-2.3687742E1,9E1,1E0,8.6E1,8.1E1,8.1E1,8.7E1,8.5E1,8.5E1,7.0710677E-1,3.537918E1,-2.018854E1,0E0,8.2E1,-3.4748662E-1,8.1E1,8.2E1,-1.7608925E1,-1.5814593E1,-1.5267589E1,-5.2057676E0,-4.014246E0,4.7691293E0,1.0104545E1,1.5047152E1,1.8461264E1,3.0111105E1,3.0755817E1,4.1686337E1,5.3360622E1,4.5001484E1,-2.1723291E1,-2.0119083E1,2.2805975E1,1.9138159E1,-1.3636836E1,-1.8077826E1,2.4573793E0,-3.2987638E0],"split_indices":[3,2,2,2,2,2,3,2,1,2,2,2,0,1,2,1,1,1,1,1,1,2,0,0,2,1,0,1,1,0,0,0,0,0,0,0,0,0,0,0,0,0,0,0,0,0,0,0,0,0,0],"split_type":[0,0,0,0,0,0,0,0,0,0,0,0,0,0,0,0,0,0,0,0,0,0,0,0,0,0,0,0,0,0,0,0,0,0,0,0,0,0,0,0,0,0,0,0,0,0,0,0,0,0,0],"sum_hessian":[9.614E3,3.75E3,5.864E3,1.191E3,2.559E3,4.633E3,1.231E3,7.66E2,4.25E2,8.52E2,1.707E3,3.08E3,1.553E3,4.12E2,8.19E2,3.69E2,3.97E2,1.18E2,3.07E2,4.28E2,4.24E2,1.275E3,4.32E2,1.547E3,1.533E3,3.77E2,3.5E1,3.93E2,4.26E2,2.21E2,1.48E2,4.5E1,3.52E2,3.9E1,7.9E1,1.62E2,1.45E2,1.83E2,2.45E2,1.9E2,2.34E2,8.32E2,4.43E2,1.168E3,3.65E2,7.4E1,3.03E2,1.7E1,3.76E2,7.2E1,3.54E2],"tree_param":{"num_deleted":"0","num_feature":"4","num_nodes":"51","size_leaf_vector":"1"}},{"base_weights":[3.0994925E-1,-1.11160736E2,1.06417015E2,-1.615543E2,-4.3566753E1,1.6670576E2,2.389578E1,-1.7628069E2,-1.24787056E2,-1.15562E1,-1.8113863E1,3.282745E2,1.3800125E2,6.850996E1,-5.4126363E0,-1.8128492E1,-1.6821566E1,-1.3661621E2,-9.702173E1,-2.1455816E1,1.8353824E2,2.6928528E2,3.7902485E1,4.3418896E1,1.2302771E2,3.3014687E1,5.6393173E1,6.6615585E1,-1.1145263E1,-1.6273514E1,-1.3151778E1,-9.908001E0,-5.4726114E0,-5.5508533E0,1.1620287E0,1.0933937E1,2.512937E1,3.882693E1,1.7977728E1,1.34361105E1,1.0048114E1,4.957351E0,8.243205E0,9.041802E0,3.6126542E0,-6.0142946E-1,-5.8873706E0],"categories":[],"categories_nodes":[],"categories_segments":[],"categories_sizes":[],"default_left":[0,0,0,0,0,0,0,0,0,0,0,0,0,0,0,0,0,0,0,0,0,0,0,0,0,0,0,0,0,0,0,0,0,0,0,0,0,0,0,0,0,0,0,0,0,0,0],"id":2,"left_children":[1,3,5,7,9,11,13,15,17,19,-1,21,23,25,27,-1,-1,29,31,33,35,37,-1,-1,39,-1,41,43,45,-1,-1,-1,-1,-1,-1,-1,-1,-1,-1,-1,-1,-1,-1,-1,-1,-1,-1],"loss_changes":[1.1275468E8,1.582886E7,2.429442E7,1.41988E6,8.748161E6,1.3042432E7,2.6978892E6,4.6148E4,2.38002E5,3.1192218E6,0E0,1.170264E6,1.0581664E7,2.5746025E6,5.152294E5,0E0,0E0,4.9707E4,1.47745E4,1.7306895E6,3.6465925E5,2.060201E6,0E0,0E0,5.70128E5,0E0,1.3495575E5,6.3499156E4,2.824975E5,0E0,0E0,0E0,0E0,0E0,0E0,0E0,0E0,0E0,0E0,0E0,0E0,0E0,0E0,0E0,0E0,0E0,0E0],"parents":[2147483647,0,0,1,1,2,2,3,3,4,4,5,5,6,6,7,7,8,8,9,9,11,11,12,12,13,13,14,14,17,17,18,18,19,19,20,20,21,21,24,24,26,26,27,27,28,28],"right_children":[2,4,6,8,10,12,14,16,18,20,-1,22,24,26,28,-1,-1,30,32,34,36,38,-1,-1,40,-1,42,44,46,-1,-1,-1,-1,-1,-1,-1,-1,-1,-1,-1,-1,-1,-1,-1,-1,-1,-1],"split_conditions":[1.2246469E-16,-5E-1,8.660254E-1,-7.0710677E-1,0E0,2.5881904E-1,9.659258E-1,-8.660254E-1,8.7E1,9E1,-1.8113863E1,8.5E1,8.1E1,8.1E1,8.1E1,-1.8128492E1,-1.6821566E1,8.1E1,9E1,-2.5881904E-1,-2.5881904E-1,8.2E1,3.7902485E1,4.3418896E1,7.0710677E-1,3.3014687E1,8.9E1,1E0,9E1,-1.6273514E1,-1.3151778E1,-9.908001E0,-5.4726114E0,-5.5508533E0,1.1620287E0,1.0933937E1,2.512937E1,3.882693E1,1.7977728E1,1.34361105E1,1.0048114E1,4.957351E0,8.243205E0,9.041802E0,3.6126542E0,-6.0142946E-1,-5.8873706E0],"split_indices":[2,2,2,2,2,2,2,2,1,1,0,1,1,1,1,0,0,1,1,2,2,1,0,0,2,0,1,2,1,0,0,0,0,0,0,0,0,0,0,0,0,0,0,0,0,0,0],"split_type":[0,0,0,0,0,0,0,0,0,0,0,0,0,0,0,0,0,0,0,0,0,0,0,0,0,0,0,0,0,0,0,0,0,0,0,0,0,0,0,0,0,0,0,0,0,0,0],"sum_hessian":[9.531E3,4.648E3,4.883E3,2.662E3,1.986E3,2.821E3,2.062E3,1.898E3,7.64E2,1.612E3,3.74E2,4.24E2,2.397E3,8.17E2,1.245E3,1.158E3,7.4E2,5.33E2,2.31E2,1.535E3,7.7E1,1.99E2,2.25E2,1.14E2,2.283E3,3.5E1,7.82E2,9.1E1,1.154E3,8.2E1,4.51E2,2.19E2,1.2E1,7.56E2,7.79E2,3.8E1,3.9E1,8.4E1,1.15E2,1.516E3,7.67E2,6.22E2,1.6E2,5E1,4.1E1,1.043E3,1.11E2],"tree_param":{"num_deleted":"0","num_feature":"4","num_nodes":"47","size_leaf_vector":"1"}},{"base_weights":[-1.8279319E0,2.3463371E2,-1.5124817E2,-2.7815884E1,3.5806473E2,-1.9045537E2,-6.5429792E0,-9.0195946E1,8.974418E0,2.6288077E2,4.0451755E2,-1.7370059E2,-2.2381947E2,1.6166368E1,-9.16493E1,-1.3756566E1,-4.415688E0,2.2104198E1,3.0458954E1,4.651198E1,3.4583194E2,-1.6606375E2,-1.862542E2,-2.2774757E1,-2.1161127E1,-1.6047766E1,-2.342355E0,3.882417E1,3.0272146E1,-1.639262E1,-1.7423063E1,-1.9756783E1,-1.630844E1],"categories":[],"categories_nodes":[],"categories_segments":[],"categories_sizes":[],"default_left":[0,0,0,0,0,0,0,0,0,0,0,0,0,0,0,0,0,0,0,0,0,0,0,0,0,0,0,0,0,0,0,0,0],"id":3,"left_children":[1,3,5,7,9,11,13,15,-1,17,19,21,23,-1,25,-1,-1,-1,-1,-1,27,29,31,-1,-1,-1,-1,-1,-1,-1,-1,-1,-1],"loss_changes":[3.3834086E8,1.201285E8,3.3290768E7,8.712844E6,1.1044832E7,2.542064E6,1.7937762E7,1.686271E6,0E0,1.381056E6,5.860288E6,2.6416E5,2.5656E4,0E0,3.903202E6,0E0,0E0,0E0,0E0,0E0,1.46212E6,5.012E3,2.70808E5,0E0,0E0,0E0,0E0,0E0,0E0,0E0,0E0,0E0,0E0],"parents":[2147483647,0,0,1,1,2,2,3,3,4,4,5,5,6,6,7,7,9,9,10,10,11,11,12,12,14,14,20,20,21,21,22,22],"right_children":[2,4,6,8,10,12,14,16,-1,18,20,22,24,-1,26,-1,-1,-1,-1,-1,28,30,32,-1,-1,-1,-1,-1,-1,-1,-1,-1,-1],"split_conditions":[-2.5881904E-1,-2.5881904E-1,9.659258E-1,-5E-1,2.5881904E-1,1.2246469E-16,-1.8369701E-16,-7.0710677E-1,8.974418E0,0E0,7.0710677E-1,-5E-1,8.660254E-1,1.6166368E1,1E0,-1.3756566E1,-4.415688E0,2.2104198E1,3.0458954E1,4.651198E1,8.660254E-1,-7.0710677E-1,0E0,-2.2774757E1,-2.1161127E1,-1.6047766E1,-2.342355E0,3.882417E1,3.0272146E1,-1.639262E1,-1.7423063E1,-1.9756783E1,-1.630844E1],"split_indices":[3,2,2,2,2,2,3,2,0,2,2,2,2,0,2,0,0,0,0,0,2,2,2,0,0,0,0,0,0,0,0,0,0],"split_type":[0,0,0,0,0,0,0,0,0,0,0,0,0,0,0,0,0,0,0,0,0,0,0,0,0,0,0,0,0,0,0,0,0],"sum_hessian":[9.574E3,3.707E3,5.867E3,1.186E3,2.521E3,4.616E3,1.251E3,7.75E2,4.11E2,8.29E2,1.692E3,3.077E3,1.539E3,4.2E2,8.31E2,3.81E2,3.94E2,4.17E2,4.12E2,8.29E2,8.63E2,1.922E3,1.155E3,1.151E3,3.88E2,4.13E2,4.18E2,4.31E2,4.32E2,1.54E3,3.82E2,7.71E2,3.84E2],"tree_param":{"num_deleted":"0","num_feature":"4","num_nodes":"33","size_leaf_vector":"1"}},{"base_weights":[-7.684309E-2,2.1060382E2,-1.3589322E2,-2.4476799E1,3.2185532E2,-1.7140689E2,-5.8239675E0,-8.168568E1,8.184582E1,2.332858E2,3.6522244E2,-1.5634581E2,-2.014162E2,1.4453535E2,-8.145004E1,-1.23620865E2,-3.986276E1,1.1347682E1,1.0830313E2,1.8002264E2,2.7654706E2,3.954676E2,2.7483337E2,-1.4946814E2,-1.677295E2,-2.0497566E1,-1.904373E1,1.6198853E2,-3.343937E-1,-1.4488846E2,-2.080531E1,-1.2955632E1,-1.1427893E1,-1.1575955E1,-3.0934622E0,-4.0322175E0,3.6057897E0,8.843669E0,1.286427E1,2.8430983E1,1.0464982E1,2.4488474E1,3.0582E1,4.1762207E1,3.505957E1,3.0019922E1,2.6517576E1,-1.475239E1,-1.5687221E1,-1.7768534E1,-1.4680495E1,1.9159443E1,1.5414578E1,-1.4882629E1,-1.2806857E1,2.1692588E0,-2.953489E0],"categories":[],"categories_nodes":[],"categories_segments":[],"categories_sizes":[],"default_left":[0,0,0,0,0,0,0,0,0,0,0,0,0,0,0,0,0,0,0,0,0,0,0,0,0,0,0,0,0,0,0,0,0,0,0,0,0,0,0,0,0,0,0,0,0,0,0,0,0,0,0,0,0,0,0,0,0],"id":4,"left_children":[1,3,5,7,9,11,13,15,17,19,21,23,25,27,29,31,33,35,37,39,41,43,45,47,49,-1,-1,51,-1,53,55,-1,-1,-1,-1,-1,-1,-1,-1,-1,-1,-1,-1,-1,-1,-1,-1,-1,-1,-1,-1,-1,-1,-1,-1,-1,-1],"loss_changes":[2.7294784E8,9.779419E7,2.6790576E7,7.3179685E6,9.663264E6,2.027704E6,1.4168773E7,1.3665845E6,7.840165E5,1.878856E6,4.544304E6,2.12776E5,2.0324E4,1.076802E6,3.18632E6,6.8195E3,2.6272244E5,1.4955961E5,1.1227E5,2.941485E6,3.5146E5,1.119088E6,2.5734E4,4.252E3,2.10568E5,0E0,0E0,5.7074E4,0E0,7.764E3,1.5831092E5,0E0,0E0,0E0,0E0,0E0,0E0,0E0,0E0,0E0,0E0,0E0,0E0,0E0,0E0,0E0,0E0,0E0,0E0,0E0,0E0,0E0,0E0,0E0,0E0,0E0,0E0],"parents":[2147483647,0,0,1,1,2,2,3,3,4,4,5,5,6,6,7,7,8,8,9,9,10,10,11,11,12,12,13,13,14,14,15,15,16,16,17,17,18,18,19,19,20,20,21,21,22,22,23,23,24,24,27,27,29,29,30,30],"right_children":[2,4,6,8,10,12,14,16,18,20,22,24,26,28,30,32,34,36,38,40,42,44,46,48,50,-1,-1,52,-1,54,56,-1,-1,-1,-1,-1,-1,-1,-1,-1,-1,-1,-1,-1,-1,-1,-1,-1,-1,-1,-1,-1,-1,-1,-1,-1,-1],"split_conditions":[-2.5881904E-1,-2.5881904E-1,9.659258E-1,-5E-1,2.5881904E-1,1.2246469E-16,-1.8369701E-16,-7.0710677E-1,8.3E1,8.5E1,8.660254E-1,-5E-1,8.660254E-1,9E1,1E0,8.6E1,8.1E1,8.1E1,8.7E1,8.2E1,0E0,7.0710677E-1,8.3E1,-7.0710677E-1,0E0,-2.0497566E1,-1.904373E1,8.2E1,-3.343937E-1,8.9E1,8.2E1,-1.2955632E1,-1.1427893E1,-1.1575955E1,-3.0934622E0,-4.0322175E0,3.6057897E0,8.843669E0,1.286427E1,2.8430983E1,1.0464982E1,2.4488474E1,3.0582E1,4.1762207E1,3.505957E1,3.0019922E1,2.6517576E1,-1.475239E1,-1.5687221E1,-1.7768534E1,-1.4680495E1,1.9159443E1,1.5414578E1,-1.4882629E1,-1.2806857E1,2.1692588E0,-2.953489E0],"split_indices":[3,2,2,2,2,2,3,2,1,1,2,2,2,1,2,1,1,1,1,1,2,2,1,2,2,0,0,1,0,1,1,0,0,0,0,0,0,0,0,0,0,0,0,0,0,0,0,0,0,0,0,0,0,0,0,0,0],"split_type":[0,0,0,0,0,0,0,0,0,0,0,0,0,0,0,0,0,0,0,0,0,0,0,0,0,0,0,0,0,0,0,0,0,0,0,0,0,0,0,0,0,0,0,0,0,0,0,0,0,0,0,0,0,0,0,0,0],"sum_hessian":[9.537E3,3.738E3,5.799E3,1.201E3,2.537E3,4.555E3,1.244E3,7.81E2,4.2E2,8.36E2,1.701E3,3.037E3,1.518E3,4.16E2,8.28E2,3.89E2,3.92E2,1.15E2,3.05E2,3.77E2,4.59E2,1.272E3,4.29E2,1.902E3,1.135E3,1.133E3,3.85E2,3.72E2,4.4E1,4.04E2,4.24E2,2.3E2,1.59E2,4E1,3.52E2,3.7E1,7.8E1,1.57E2,1.48E2,1.57E2,2.2E2,2.25E2,2.34E2,8.46E2,4.26E2,1.1E2,3.19E2,1.523E3,3.79E2,7.64E2,3.71E2,7.3E1,2.99E2,3.21E2,8.3E1,7.2E1,3.52E2],"tree_param":{"num_deleted":"0","num_feature":"4","num_nodes":"57","size_leaf_vector":"1"}},{"base_weights":[-5.324465E-1,1.8907578E2,-1.2277122E2,2.4626997E2,1.1553473E2,-3.6078842E1,-1.5584402E2,2.0480574E2,2.62383E2,1.4954149E2,8.0040016E1,4.3103576E0,-7.538705E1,-1.3047162E2,-1.6143077E2,2.5844662E2,9.703635E1,2.816029E2,2.3289812E2,1.4269144E2,2.3955708E1,7.004771E1,2.5641357E1,4.1715865E0,4.241565E-1,-1.3192187E1,-2.0705065E1,-1.315109E1,-1.0704577E1,-1.6502933E2,-1.3217505E1,2.925304E1,2.0195608E1,-6.5495768E0,1.3433196E1,3.397194E1,2.7308455E1,2.9090607E1,2.2352255E1,8.871605E0,1.4886988E1,5.842396E0,8.681174E0,4.497508E-1,-6.632797E-1,1.6626099E0,-2.8807492E0,-1.5667032E1,-1.7353313E1],"categories":[],"categories_nodes":[],"categories_segments":[],"categories_sizes":[],"default_left":[0,0,0,0,0,0,0,0,0,0,0,0,0,0,0,0,0,0,0,0,0,0,0,0,0,0,0,0,0,0,0,0,0,0,0,0,0,0,0,0,0,0,0,0,0,0,0,0,0],"id":5,"left_children":[1,3,5,7,9,11,13,15,17,19,21,23,25,27,29,31,33,35,37,39,-1,41,-1,-1,43,-1,45,-1,-1,47,-1,-1,-1,-1,-1,-1,-1,-1,-1,-1,-1,-1,-1,-1,-1,-1,-1,-1,-1],"loss_changes":[2.2261971E8,1.5807584E7,1.6738592E7,1.360664E6,1.978474E6,2.562755E6,5.78112E5,3.426086E6,7.9636E5,4.84388E5,1.407804E6,1.15838445E5,2.5260635E6,4.619E3,3.42456E5,7.07236E5,1.2211452E6,3.60704E5,2.64556E5,2.48244E5,0E0,1.4438625E5,0E0,0E0,2.0812793E4,0E0,1.2661019E5,0E0,0E0,1.91544E5,0E0,0E0,0E0,0E0,0E0,0E0,0E0,0E0,0E0,0E0,0E0,0E0,0E0,0E0,0E0,0E0,0E0,0E0,0E0],"parents":[2147483647,0,0,1,1,2,2,3,3,4,4,5,5,6,6,7,7,8,8,9,9,10,10,11,11,12,12,13,13,14,14,15,15,16,16,17,17,18,18,19,19,21,21,24,24,26,26,29,29],"right_children":[2,4,6,8,10,12,14,16,18,20,22,24,26,28,30,32,34,36,38,40,-1,42,-1,-1,44,-1,46,-1,-1,48,-1,-1,-1,-1,-1,-1,-1,-1,-1,-1,-1,-1,-1,-1,-1,-1,-1,-1,-1],"split_conditions":[-2.5881904E-1,-7.0710677E-1,2.5881904E-1,8.3E1,-5E-1,-1.8369701E-16,5E-1,8.2E1,-8.660254E-1,9E1,9E1,8.1E1,6.123234E-17,9E1,1E0,-8.660254E-1,-9.659258E-1,8.4E1,8.4E1,8.1E1,2.3955708E1,8.6E1,2.5641357E1,4.1715865E0,8.7E1,-1.3192187E1,8.2E1,-1.315109E1,-1.0704577E1,8.660254E-1,-1.3217505E1,2.925304E1,2.0195608E1,-6.5495768E0,1.3433196E1,3.397194E1,2.7308455E1,2.9090607E1,2.2352255E1,8.871605E0,1.4886988E1,5.842396E0,8.681174E0,4.497508E-1,-6.632797E-1,1.6626099E0,-2.8807492E0,-1.5667032E1,-1.7353313E1],"split_indices":[3,3,3,1,3,3,3,1,3,1,1,1,3,1,3,3,3,1,1,1,0,1,0,0,1,0,1,0,0,3,0,0,0,0,0,0,0,0,0,0,0,0,0,0,0,0,0,0,0],"split_type":[0,0,0,0,0,0,0,0,0,0,0,0,0,0,0,0,0,0,0,0,0,0,0,0,0,0,0,0,0,0,0,0,0,0,0,0,0,0,0,0,0,0,0,0,0,0,0,0,0],"sum_hessian":[9.603E3,3.764E3,5.839E3,2.116E3,1.648E3,1.613E3,4.226E3,5.96E2,1.52E3,8.4E2,8.08E2,7.96E2,8.17E2,7.67E2,3.459E3,3.97E2,1.99E2,9.15E2,6.05E2,7.83E2,5.7E1,7.66E2,4.2E1,7.4E1,7.22E2,4.01E2,4.16E2,7.3E2,3.7E1,3.076E3,3.83E2,2.45E2,1.52E2,3.7E1,1.62E2,1.12E2,8.03E2,8E1,5.25E2,8.2E1,7.01E2,4.55E2,3.11E2,4.58E2,2.64E2,7.4E1,3.42E2,1.561E3,1.515E3],"tree_param":{"num_deleted":"0","num_feature":"4","num_nodes":"49","size_leaf_vector":"1"}},{"base_weights":[1.449489E-1,1.7256749E2,-1.100871E2,-3.3263424E1,2.700795E2,-1.4019116E2,2.059059E-1,-8.367754E1,5.896348E0,1.8391983E2,3.1121155E2,-1.2738289E2,-1.6482416E2,1.2855145E1,-6.4662125E1,-1.1722E1,-5.077567E0,1.4968918E1,2.1940224E1,3.3534067E2,2.391092E1,-1.2307284E2,-1.3468991E2,-1.677371E1,-1.5591315E1,-1.1682686E1,-1.5978324E0,3.529201E1,2.9972794E1,-1.3212085E1,-1.2078814E1,-1.4240439E1,-1.18981085E1],"categories":[],"categories_nodes":[],"categories_segments":[],"categories_sizes":[],"default_left":[0,0,0,0,0,0,0,0,0,0,0,0,0,0,0,0,0,0,0,0,0,0,0,0,0,0,0,0,0,0,0,0,0],"id":6,"left_children":[1,3,5,7,9,11,13,15,-1,17,19,21,23,-1,25,-1,-1,-1,-1,27,-1,29,31,-1,-1,-1,-1,-1,-1,-1,-1,-1,-1],"loss_changes":[1.8149294E8,7.475334E7,1.9340584E7,5.5750805E6,8.898256E6,1.422768E6,1.0415217E7,8.493455E5,0E0,9.61904E5,2.893072E6,7.8372E4,1.4392E4,0E0,2.1085222E6,0E0,0E0,0E0,0E0,6.94336E5,0E0,2.3484E4,1.1733E5,0E0,0E0,0E0,0E0,0E0,0E0,0E0,0E0,0E0,0E0],"parents":[2147483647,0,0,1,1,2,2,3,3,4,4,5,5,6,6,7,7,9,9,10,10,11,11,12,12,14,14,19,19,21,21,22,22],"right_children":[2,4,6,8,10,12,14,16,-1,18,20,22,24,-1,26,-1,-1,-1,-1,28,-1,30,32,-1,-1,-1,-1,-1,-1,-1,-1,-1,-1],"split_conditions":[-2.5881904E-1,-2.5881904E-1,9.659258E-1,-5E-1,2.5881904E-1,1.2246469E-16,-1.8369701E-16,-7.0710677E-1,5.896348E0,0E0,8.660254E-1,-5E-1,8.660254E-1,1.2855145E1,1E0,-1.1722E1,-5.077567E0,1.4968918E1,2.1940224E1,7.0710677E-1,2.391092E1,-1.8369701E-16,0E0,-1.677371E1,-1.5591315E1,-1.1682686E1,-1.5978324E0,3.529201E1,2.9972794E1,-1.3212085E1,-1.2078814E1,-1.4240439E1,-1.18981085E1],"split_indices":[3,2,2,2,2,2,3,2,0,2,2,2,2,0,2,0,0,0,0,2,0,3,2,0,0,0,0,0,0,0,0,0,0],"split_type":[0,0,0,0,0,0,0,0,0,0,0,0,0,0,0,0,0,0,0,0,0,0,0,0,0,0,0,0,0,0,0,0,0],"sum_hessian":[9.547E3,3.723E3,5.824E3,1.197E3,2.526E3,4.575E3,1.249E3,7.74E2,4.23E2,8.18E2,1.708E3,3.014E3,1.561E3,4.19E2,8.3E2,3.82E2,3.92E2,4.19E2,3.99E2,1.277E3,4.31E2,1.907E3,1.107E3,1.163E3,3.98E2,4E2,4.3E2,8.49E2,4.28E2,3.73E2,1.534E3,7.37E2,3.7E2],"tree_param":{"num_deleted":"0","num_feature":"4","num_nodes":"33","size_leaf_vector":"1"}},{"base_weights":[3.193423E-1,1.5345479E2,-9.859382E1,-3.0864506E1,2.409013E2,-1.2629704E2,1.7247477E0,-7.410682E1,4.748353E0,1.6289667E2,2.803135E2,-1.1481902E2,-1.4832718E2,1.178387E1,-5.9419468E1,-1.0526642E1,-4.439061E0,1.333538E1,1.9240408E1,3.0188443E2,2.1278738E1,-1.10870575E2,-1.21323524E2,-1.5100069E1,-1.4034299E1,-1.0666705E1,-1.4583334E0,3.1759495E1,2.703105E1,-1.1887854E1,-1.0872775E1,-1.2841362E1,-1.0712264E1],"categories":[],"categories_nodes":[],"categories_segments":[],"categories_sizes":[],"default_left":[0,0,0,0,0,0,0,0,0,0,0,0,0,0,0,0,0,0,0,0,0,0,0,0,0,0,0,0,0,0,0,0,0],"id":7,"left_children":[1,3,5,7,9,11,13,15,-1,17,19,21,23,-1,25,-1,-1,-1,-1,27,-1,29,31,-1,-1,-1,-1,-1,-1,-1,-1,-1,-1],"loss_changes":[1.453971E8,6.0724224E7,1.6208216E7,4.113102E6,7.80928E6,1.138552E6,8.973919E6,7.19416E5,0E0,7.24034E5,2.40616E6,6.3828E4,1.2148E4,0E0,1.7524782E6,0E0,0E0,0E0,0E0,5.50568E5,0E0,1.9406E4,9.9616E4,0E0,0E0,0E0,0E0,0E0,0E0,0E0,0E0,0E0,0E0],"parents":[2147483647,0,0,1,1,2,2,3,3,4,4,5,5,6,6,7,7,9,9,10,10,11,11,12,12,14,14,19,19,21,21,22,22],"right_children":[2,4,6,8,10,12,14,16,-1,18,20,22,24,-1,26,-1,-1,-1,-1,28,-1,30,32,-1,-1,-1,-1,-1,-1,-1,-1,-1,-1],"split_conditions":[-2.5881904E-1,-2.5881904E-1,9.659258E-1,-5E-1,2.5881904E-1,1.2246469E-16,-1.8369701E-16,-7.0710677E-1,4.748353E0,0E0,8.660254E-1,-5E-1,8.660254E-1,1.178387E1,1E0,-1.0526642E1,-4.439061E0,1.333538E1,1.9240408E1,7.0710677E-1,2.1278738E1,-1.8369701E-16,0E0,-1.5100069E1,-1.4034299E1,-1.0666705E1,-1.4583334E0,3.1759495E1,2.703105E1,-1.1887854E1,-1.0872775E1,-1.2841362E1,-1.0712264E1],"split_indices":[3,2,2,2,2,2,3,2,0,2,2,2,2,0,2,0,0,0,0,2,0,3,2,0,0,0,0,0,0,0,0,0,0],"split_type":[0,0,0,0,0,0,0,0,0,0,0,0,0,0,0,0,0,0,0,0,0,0,0,0,0,0,0,0,0,0,0,0,0],"sum_hessian":[9.597E3,3.766E3,5.831E3,1.212E3,2.554E3,4.569E3,1.262E3,7.81E2,4.31E2,8.59E2,1.695E3,3.008E3,1.561E3,4.35E2,8.27E2,3.8E2,4.01E2,4.32E2,4.27E2,1.282E3,4.13E2,1.883E3,1.125E3,1.156E3,4.05E2,4.02E2,4.25E2,8.5E2,4.32E2,3.86E2,1.497E3,7.45E2,3.8E2],"tree_param":{"num_deleted":"0","num_feature":"4","num_nodes":"33","size_leaf_vector":"1"}},{"base_weights":[7.8369266E-1,1.408887E2,-8.911456E1,-2.8609726E1,2.1796245E2,-1.1365328E2,-1.08227E0,-6.790065E1,4.079451E1,1.4954846E2,2.5172606E2,-1.0338831E2,-1.33516E2,1.0648185E2,-5.3983456E1,-9.5925545E1,-4.0066822E1,-1.5556372E1,6.1500484E1,1.04406815E2,1.8700703E2,2.8599973E2,2.1775365E2,-9.979291E1,-1.0934738E2,-1.3784848E1,-1.2914615E1,1.19290306E2,-2.2034068E0,-9.492E1,-1.3960086E1,-1.161283E1,-9.335522E0,-1.0527307E1,-3.331599E0,-6.1042547E0,7.6841116E-1,4.427386E0,8.117113E0,1.9906088E1,3.908612E0,1.6604132E1,2.0708397E1,2.296686E1,2.9033834E1,2.3940224E1,1.9560562E1,-1.0714748E1,-9.786521E0,-1.1559101E1,-9.643305E0,1.2365733E1,7.984698E0,-1.0154952E1,-8.672381E0,-1.13441005E-1,-3.5700924E0],"categories":[],"categories_nodes":[],"categories_segments":[],"categories_sizes":[],"default_left":[0,0,0,0,0,0,0,0,0,0,0,0,0,0,0,0,0,0,0,0,0,0,0,0,0,0,0,0,0,0,0,0,0,0,0,0,0,0,0,0,0,0,0,0,0,0,0,0,0,0,0,0,0,0,0,0,0],"id":8,"left_children":[1,3,5,7,9,11,13,15,17,19,21,23,25,27,29,31,33,35,37,39,41,43,45,47,49,-1,-1,51,-1,53,55,-1,-1,-1,-1,-1,-1,-1,-1,-1,-1,-1,-1,-1,-1,-1,-1,-1,-1,-1,-1,-1,-1,-1,-1,-1,-1],"loss_changes":[1.2093903E8,4.903497E7,1.2634884E7,3.204217E6,5.92192E6,9.18788E5,7.266532E6,5.81187E5,4.9684656E5,1.42623E6,1.9474E6,5.3794E4,1.1636E4,6.956325E5,1.4011612E6,8.52775E3,1.6288688E5,1.2203794E5,1.017915E5,2.403538E6,1.61768E5,1.4252E5,3.70792E5,1.638E4,7.9646E4,0E0,0E0,5.6098E4,0E0,1.41775E4,1.2097648E5,0E0,0E0,0E0,0E0,0E0,0E0,0E0,0E0,0E0,0E0,0E0,0E0,0E0,0E0,0E0,0E0,0E0,0E0,0E0,0E0,0E0,0E0,0E0,0E0,0E0,0E0],"parents":[2147483647,0,0,1,1,2,2,3,3,4,4,5,5,6,6,7,7,8,8,9,9,10,10,11,11,12,12,13,13,14,14,15,15,16,16,17,17,18,18,19,19,20,20,21,21,22,22,23,23,24,24,27,27,29,29,30,30],"right_children":[2,4,6,8,10,12,14,16,18,20,22,24,26,28,30,32,34,36,38,40,42,44,46,48,50,-1,-1,52,-1,54,56,-1,-1,-1,-1,-1,-1,-1,-1,-1,-1,-1,-1,-1,-1,-1,-1,-1,-1,-1,-1,-1,-1,-1,-1,-1,-1],"split_conditions":[-2.5881904E-1,-2.5881904E-1,9.659258E-1,-5E-1,2.5881904E-1,1.2246469E-16,-1.8369701E-16,-7.0710677E-1,8.3E1,8.5E1,7.0710677E-1,-5E-1,7.0710677E-1,9E1,1E0,8.1E1,8.1E1,8.1E1,8.7E1,8.2E1,0E0,8.1E1,8.660254E-1,-1.8369701E-16,0E0,-1.3784848E1,-1.2914615E1,8.9E1,-2.2034068E0,8.6E1,8.7E1,-1.161283E1,-9.335522E0,-1.0527307E1,-3.331599E0,-6.1042547E0,7.6841116E-1,4.427386E0,8.117113E0,1.9906088E1,3.908612E0,1.6604132E1,2.0708397E1,2.296686E1,2.9033834E1,2.3940224E1,1.9560562E1,-1.0714748E1,-9.786521E0,-1.1559101E1,-9.643305E0,1.2365733E1,7.984698E0,-1.0154952E1,-8.672381E0,-1.13441005E-1,-3.5700924E0],"split_indices":[3,2,2,2,2,2,3,2,1,1,2,2,2,1,2,1,1,1,1,1,2,1,2,3,2,0,0,1,0,1,1,0,0,0,0,0,0,0,0,0,0,0,0,0,0,0,0,0,0,0,0,0,0,0,0,0,0],"split_type":[0,0,0,0,0,0,0,0,0,0,0,0,0,0,0,0,0,0,0,0,0,0,0,0,0,0,0,0,0,0,0,0,0,0,0,0,0,0,0,0,0,0,0,0,0,0,0,0,0,0,0,0,0,0,0,0,0],"sum_hessian":[9.6E3,3.752E3,5.848E3,1.173E3,2.579E3,4.573E3,1.275E3,7.49E2,4.24E2,8.54E2,1.725E3,3.019E3,1.554E3,4.2E2,8.55E2,3.72E2,3.77E2,1.14E2,3.1E2,3.89E2,4.65E2,8.55E2,8.7E2,1.894E3,1.125E3,7.65E2,7.89E2,3.82E2,3.8E1,4.22E2,4.33E2,3.7E1,3.35E2,3.4E1,3.43E2,3.8E1,7.6E1,1.67E2,1.43E2,1.58E2,2.31E2,2.32E2,2.33E2,6.5E1,7.9E2,4.35E2,4.35E2,3.82E2,1.512E3,7.53E2,3.72E2,3.42E2,4E1,2.27E2,1.95E2,2.73E2,1.6E2],"tree_param":{"num_deleted":"0","num_feature":"4","num_nodes":"57","size_leaf_vector":"1"}},{"base_weights":[4.9127787E-1,1.2737203E2,-8.095504E1,-2.5025856E1,1.9727052E2,-1.0216921E2,-2.3268347E0,-6.2953213E1,4.3556566E0,1.339701E2,2.279429E2,-9.306228E1,-1.20197754E2,9.37882E0,-4.8883366E1,-8.673598E0,-3.9502835E0,1.0816182E1,1.5844027E1,2.4435548E2,1.7878479E1,-8.973612E1,-9.8406E1,-1.2241558E1,-1.1342435E1,-8.572886E0,-1.4890075E0,2.5530766E1,2.2256815E1,-9.639198E0,-8.803603E0,-1.0401134E1,-8.682228E0],"categories":[],"categories_nodes":[],"categories_segments":[],"categories_sizes":[],"default_left":[0,0,0,0,0,0,0,0,0,0,0,0,0,0,0,0,0,0,0,0,0,0,0,0,0,0,0,0,0,0,0,0,0],"id":9,"left_children":[1,3,5,7,9,11,13,15,-1,17,19,21,23,-1,25,-1,-1,-1,-1,27,-1,29,31,-1,-1,-1,-1,-1,-1,-1,-1,-1,-1],"loss_changes":[9.869973E7,3.9780932E7,9.702708E6,3.059093E6,4.939904E6,7.40944E5,5.539891E6,4.18764E5,0E0,5.12087E5,1.34644E6,4.5346E4,9.16E3,0E0,1.04330825E6,0E0,0E0,0E0,0E0,2.5076E5,0E0,1.29E4,6.6224E4,0E0,0E0,0E0,0E0,0E0,0E0,0E0,0E0,0E0,0E0],"parents":[2147483647,0,0,1,1,2,2,3,3,4,4,5,5,6,6,7,7,9,9,10,10,11,11,12,12,14,14,19,19,21,21,22,22],"right_children":[2,4,6,8,10,12,14,16,-1,18,20,22,24,-1,26,-1,-1,-1,-1,28,-1,30,32,-1,-1,-1,-1,-1,-1,-1,-1,-1,-1],"split_conditions":[-2.5881904E-1,-2.5881904E-1,9.659258E-1,-5E-1,2.5881904E-1,1.2246469E-16,-1.8369701E-16,-7.0710677E-1,4.3556566E0,0E0,8.660254E-1,-5E-1,8.660254E-1,9.37882E0,1E0,-8.673598E0,-3.9502835E0,1.0816182E1,1.5844027E1,7.0710677E-1,1.7878479E1,-1.8369701E-16,0E0,-1.2241558E1,-1.1342435E1,-8.572886E0,-1.4890075E0,2.5530766E1,2.2256815E1,-9.639198E0,-8.803603E0,-1.0401134E1,-8.682228E0],"split_indices":[3,2,2,2,2,2,3,2,0,2,2,2,2,0,2,0,0,0,0,2,0,3,2,0,0,0,0,0,0,0,0,0,0],"split_type":[0,0,0,0,0,0,0,0,0,0,0,0,0,0,0,0,0,0,0,0,0,0,0,0,0,0,0,0,0,0,0,0,0],"sum_hessian":[9.549E3,3.733E3,5.816E3,1.174E3,2.559E3,4.58E3,1.236E3,7.56E2,4.18E2,8.37E2,1.722E3,3.047E3,1.533E3,4.03E2,8.33E2,3.74E2,3.82E2,4.1E2,4.27E2,1.288E3,4.34E2,1.889E3,1.158E3,1.142E3,3.91E2,3.99E2,4.34E2,8.5E2,4.38E2,3.73E2,1.516E3,7.75E2,3.83E2],"tree_param":{"num_deleted":"0","num_feature":"4","num_nodes":"33","size_leaf_vector":"1"}},{"base_weights":[1.1105933E0,1.13566574E2,-7.264243E1,-2.2937344E1,1.7867659E2,-9.212781E1,1.071208E-1,-5.6369984E1,3.7094982E1,1.2639329E2,2.0428696E2,-8.376932E1,-1.0829248E2,8.822365E1,-4.3142372E1,-7.783132E1,-3.448896E1,-5.5164638E0,4.6529613E1,7.1058044E1,1.4753842E2,2.3178094E2,1.7703357E2,-7.987998E1,-8.7639E1,-1.1185885E1,-1.0450501E1,9.990193E1,-2.9365432E0,-7.662418E1,-9.718662E0,-9.671767E0,-7.512674E0,-9.53327E0,-2.6674516E0,3.1682186E0,6.975198E0,1.7444647E1,-1.7513536E1,2.4245667E1,1.3293277E1,1.840211E1,2.3583117E1,1.965065E1,1.5812677E1,-8.671599E0,-7.7601204E0,-9.06967E0,-7.8155518E0,1.3455253E1,9.605247E0,-7.8661613E0,-5.7500353E0,2.446322E0,-1.7569818E0],"categories":[],"categories_nodes":[],"categories_segments":[],"categories_sizes":[],"default_left":[0,0,0,0,0,0,0,0,0,0,0,0,0,0,0,0,0,0,0,0,0,0,0,0,0,0,0,0,0,0,0,0,0,0,0,0,0,0,0,0,0,0,0,0,0,0,0,0,0,0,0,0,0,0,0],"id":10,"left_children":[1,3,5,7,9,11,13,15,17,19,21,23,25,27,29,31,33,-1,35,37,39,41,43,45,47,-1,-1,49,-1,51,53,-1,-1,-1,-1,-1,-1,-1,-1,-1,-1,-1,-1,-1,-1,-1,-1,-1,-1,-1,-1,-1,-1,-1,-1],"loss_changes":[7.9049784E7,3.355545E7,8.159436E6,2.4506788E6,3.396648E6,6.0434E5,4.641787E6,3.65479E5,3.8294712E5,9.75887E5,1.243272E6,3.8106E4,9.164E3,5.5360225E5,9.135489E5,1.29105E4,1.828865E5,0E0,1.3467262E5,6.012136E6,8.12052E5,1.21024E5,2.87394E5,1.6731E4,3.6176E4,0E0,0E0,3.5762E4,0E0,1.1374E4,1.1046041E5,0E0,0E0,0E0,0E0,0E0,0E0,0E0,0E0,0E0,0E0,0E0,0E0,0E0,0E0,0E0,0E0,0E0,0E0,0E0,0E0,0E0,0E0,0E0,0E0],"parents":[2147483647,0,0,1,1,2,2,3,3,4,4,5,5,6,6,7,7,8,8,9,9,10,10,11,11,12,12,13,13,14,14,15,15,16,16,18,18,19,19,20,20,21,21,22,22,23,23,24,24,27,27,29,29,30,30],"right_children":[2,4,6,8,10,12,14,16,18,20,22,24,26,28,30,32,34,-1,36,38,40,42,44,46,48,-1,-1,50,-1,52,54,-1,-1,-1,-1,-1,-1,-1,-1,-1,-1,-1,-1,-1,-1,-1,-1,-1,-1,-1,-1,-1,-1,-1,-1],"split_conditions":[-2.5881904E-1,-2.5881904E-1,9.659258E-1,-5E-1,2.5881904E-1,1.2246469E-16,-1.8369701E-16,-7.0710677E-1,8.1E1,8.3E1,7.0710677E-1,-7.0710677E-1,7.0710677E-1,9E1,1E0,8.1E1,8.1E1,-5.5164638E0,8.7E1,8.2E1,8.4E1,8.1E1,8.660254E-1,-1.8369701E-16,0E0,-1.1185885E1,-1.0450501E1,8.1E1,-2.9365432E0,9E1,8.2E1,-9.671767E0,-7.512674E0,-9.53327E0,-2.6674516E0,3.1682186E0,6.975198E0,1.7444647E1,-1.7513536E1,2.4245667E1,1.3293277E1,1.840211E1,2.3583117E1,1.965065E1,1.5812677E1,-8.671599E0,-7.7601204E0,-9.06967E0,-7.8155518E0,1.3455253E1,9.605247E0,-7.8661613E0,-5.7500353E0,2.446322E0,-1.7569818E0],"split_indices":[3,2,2,2,2,2,3,2,1,1,2,2,2,1,2,1,1,0,1,1,1,1,2,3,2,0,0,1,0,1,1,0,0,0,0,0,0,0,0,0,0,0,0,0,0,0,0,0,0,0,0,0,0,0,0],"split_type":[0,0,0,0,0,0,0,0,0,0,0,0,0,0,0,0,0,0,0,0,0,0,0,0,0,0,0,0,0,0,0,0,0,0,0,0,0,0,0,0,0,0,0,0,0,0,0,0,0,0,0,0,0,0,0],"sum_hessian":[9.529E3,3.774E3,5.755E3,1.219E3,2.555E3,4.539E3,1.216E3,7.83E2,4.36E2,8.42E2,1.713E3,2.996E3,1.543E3,4E2,8.16E2,3.94E2,3.89E2,4E1,3.96E2,2.34E2,6.08E2,8.49E2,8.64E2,1.505E3,1.491E3,7.8E2,7.63E2,3.64E2,3.6E1,4.07E2,4.09E2,4.5E1,3.49E2,4.3E1,3.46E2,2.43E2,1.53E2,1.65E2,6.9E1,7.9E1,5.29E2,7E1,7.79E2,4.21E2,4.43E2,3.67E2,1.138E3,1.121E3,3.7E2,3.3E1,3.31E2,3.65E2,4.2E1,7.6E1,3.33E2],"tree_param":{"num_deleted":"0","num_feature":"4","num_nodes":"55","size_leaf_vector":"1"}},{"base_weights":[4.424559E-1,1.033927E2,-6.538263E1,-2.0189632E1,1.6030397E2,-8.284988E1,-2.2549106E-1,-4.791642E1,2.805551E1,1.12764984E2,1.8400688E2,-7.5451614E1,-9.73766E1,7.445822E1,-3.6394505E1,-6.836803E1,-2.7933203E1,-6.5231304E0,5.4659435E1,7.744364E1,1.4114313E2,1.9865996E2,1.4060667E2,-7.2703476E1,-7.994813E1,-1.0068302E1,-9.4072485E0,8.773329E1,-4.754264E0,-6.83358E1,-5.94585E0,-8.737532E0,-6.584163E0,-4.1428237E0,-9.357134E-2,4.797452E-1,-4.342406E0,3.6693897E0,6.4506583E0,1.5111847E1,1.6441185E0,1.2542301E1,1.5666141E1,2.076034E1,1.5643845E1,1.644178E1,1.3089045E1,-7.81146E0,-7.124576E0,-8.452424E0,-7.036306E0,9.586254E0,6.920771E0,-7.4241843E0,-6.149426E0,3.6713974E0,-1.04734E0],"categories":[],"categories_nodes":[],"categories_segments":[],"categories_sizes":[],"default_left":[0,0,0,0,0,0,0,0,0,0,0,0,0,0,0,0,0,0,0,0,0,0,0,0,0,0,0,0,0,0,0,0,0,0,0,0,0,0,0,0,0,0,0,0,0,0,0,0,0,0,0,0,0,0,0,0,0],"id":11,"left_children":[1,3,5,7,9,11,13,15,17,19,21,23,25,27,29,31,33,35,37,39,41,43,45,47,49,-1,-1,51,-1,53,55,-1,-1,-1,-1,-1,-1,-1,-1,-1,-1,-1,-1,-1,-1,-1,-1,-1,-1,-1,-1,-1,-1,-1,-1,-1,-1],"loss_changes":[6.448037E7,2.6103544E7,6.605602E6,1.5677709E6,2.842476E6,4.84554E5,3.3198275E6,3.02155E5,3.9408556E5,8.39065E5,1.049364E6,3.1716E4,7.365E3,6.536185E5,8.048811E5,1.187025E4,1.3767872E5,7.83257E4,4.0445E4,1.705367E6,9.4763E4,4.44816E5,7.8194E4,9.391E3,4.41435E4,0E0,0E0,4.78825E4,0E0,1.1758875E4,8.247094E4,0E0,0E0,0E0,0E0,0E0,0E0,0E0,0E0,0E0,0E0,0E0,0E0,0E0,0E0,0E0,0E0,0E0,0E0,0E0,0E0,0E0,0E0,0E0,0E0,0E0,0E0],"parents":[2147483647,0,0,1,1,2,2,3,3,4,4,5,5,6,6,7,7,8,8,9,9,10,10,11,11,12,12,13,13,14,14,15,15,16,16,17,17,18,18,19,19,20,20,21,21,22,22,23,23,24,24,27,27,29,29,30,30],"right_children":[2,4,6,8,10,12,14,16,18,20,22,24,26,28,30,32,34,36,38,40,42,44,46,48,50,-1,-1,52,-1,54,56,-1,-1,-1,-1,-1,-1,-1,-1,-1,-1,-1,-1,-1,-1,-1,-1,-1,-1,-1,-1,-1,-1,-1,-1,-1,-1],"split_conditions":[-2.5881904E-1,-2.5881904E-1,9.659258E-1,-5E-1,2.5881904E-1,1.2246469E-16,-1.8369701E-16,-7.0710677E-1,8.5E1,8.5E1,8.660254E-1,-5E-1,7.0710677E-1,9E1,1E0,8.1E1,8.7E1,8.4E1,8.7E1,8.2E1,0E0,8.9E1,8.3E1,-1.8369701E-16,0E0,-1.0068302E1,-9.4072485E0,8.7E1,-4.754264E0,8.6E1,8.1E1,-8.737532E0,-6.584163E0,-4.1428237E0,-9.357134E-2,4.797452E-1,-4.342406E0,3.6693897E0,6.4506583E0,1.5111847E1,1.6441185E0,1.2542301E1,1.5666141E1,2.076034E1,1.5643845E1,1.644178E1,1.3089045E1,-7.81146E0,-7.124576E0,-8.452424E0,-7.036306E0,9.586254E0,6.920771E0,-7.4241843E0,-6.149426E0,3.6713974E0,-1.04734E0],"split_indices":[3,2,2,2,2,2,3,2,1,1,2,2,2,1,2,1,1,1,1,1,2,1,1,3,2,0,0,1,0,1,1,0,0,0,0,0,0,0,0,0,0,0,0,0,0,0,0,0,0,0,0,0,0,0,0,0,0],"split_type":[0,0,0,0,0,0,0,0,0,0,0,0,0,0,0,0,0,0,0,0,0,0,0,0,0,0,0,0,0,0,0,0,0,0,0,0,0,0,0,0,0,0,0,0,0,0,0,0,0,0,0,0,0,0,0,0,0],"sum_hessian":[9.513E3,3.71E3,5.803E3,1.17E3,2.54E3,4.576E3,1.227E3,7.43E2,4.27E2,8.47E2,1.693E3,3.036E3,1.54E3,4E2,8.27E2,3.66E2,3.77E2,1.86E2,2.41E2,3.79E2,4.68E2,1.263E3,4.3E2,1.895E3,1.141E3,7.55E2,7.85E2,3.61E2,3.9E1,4.03E2,4.24E2,3.9E1,3.27E2,2.51E2,1.26E2,1.43E2,4.3E1,8.7E1,1.54E2,1.71E2,2.08E2,2.37E2,2.31E2,1.039E3,2.24E2,1.2E2,3.1E2,3.91E2,1.504E3,7.67E2,3.74E2,2.48E2,1.13E2,2.11E2,1.92E2,4E1,3.84E2],"tree_param":{"num_deleted":"0","num_feature":"4","num_nodes":"57","size_leaf_vector":"1"}},{"base_weights":[4.1420117E-1,9.303312E1,-5.864054E1,-1.8676723E1,1.4519814E2,-7.4531815E1,-6.545913E-1,-4.5266823E1,2.904171E1,1.0158787E2,1.6678911E2,-6.786532E1,-8.766057E1,6.7180695E1,-3.4409943E1,-6.296841E1,-2.8919218E1,-1.95821E1,4.757602E1,4.075723E1,1.2353505E2,1.795991E2,1.2793549E2,-6.591945E1,-7.351646E1,-8.944678E0,-8.229259E0,8.028275E1,-6.5952554E0,-6.2438267E1,-8.419433E0,-7.8681216E0,-6.0847306E0,-6.6445513E0,-1.9564543E0,1.7168193E-1,-5.816388E0,1.0342086E1,3.9569821E0,1.3670796E1,-1.7815613E1,2.1383764E1,1.1088141E1,1.8958946E1,1.52499485E1,1.0777205E1,1.3903697E1,-7.030685E0,-6.498239E0,-8.37013E0,-6.335203E0,8.95875E0,6.0275445E0,-6.5219607E0,-4.8933578E0,2.6042206E0,-1.1766762E0],"categories":[],"categories_nodes":[],"categories_segments":[],"categories_sizes":[],"default_left":[0,0,0,0,0,0,0,0,0,0,0,0,0,0,0,0,0,0,0,0,0,0,0,0,0,0,0,0,0,0,0,0,0,0,0,0,0,0,0,0,0,0,0,0,0,0,0,0,0,0,0,0,0,0,0,0,0],"id":12,"left_children":[1,3,5,7,9,11,13,15,17,19,21,23,25,27,29,31,33,35,37,39,41,43,45,47,49,-1,-1,51,-1,53,55,-1,-1,-1,-1,-1,-1,-1,-1,-1,-1,-1,-1,-1,-1,-1,-1,-1,-1,-1,-1,-1,-1,-1,-1,-1,-1],"loss_changes":[5.230017E7,2.1697926E7,5.380416E6,1.5061564E6,2.372804E6,3.95168E5,2.8805955E6,2.186855E5,3.8394538E5,1.120421E6,8.21148E5,2.8627E4,7.407E3,7.3442025E5,6.113895E5,7.3775E3,1.3841647E5,9.7066375E4,1.3361594E5,4.750457E6,6.83593E5,3.15732E5,7.9925E4,4.78E3,7.451325E4,0E0,0E0,6.5528E4,0E0,1.198325E4,5.071633E4,0E0,0E0,0E0,0E0,0E0,0E0,0E0,0E0,0E0,0E0,0E0,0E0,0E0,0E0,0E0,0E0,0E0,0E0,0E0,0E0,0E0,0E0,0E0,0E0,0E0,0E0],"parents":[2147483647,0,0,1,1,2,2,3,3,4,4,5,5,6,6,7,7,8,8,9,9,10,10,11,11,12,12,13,13,14,14,15,15,16,16,17,17,18,18,19,19,20,20,21,21,22,22,23,23,24,24,27,27,29,29,30,30],"right_children":[2,4,6,8,10,12,14,16,18,20,22,24,26,28,30,32,34,36,38,40,42,44,46,48,50,-1,-1,52,-1,54,56,-1,-1,-1,-1,-1,-1,-1,-1,-1,-1,-1,-1,-1,-1,-1,-1,-1,-1,-1,-1,-1,-1,-1,-1,-1,-1],"split_conditions":[-2.5881904E-1,-2.5881904E-1,9.659258E-1,-5E-1,2.5881904E-1,1.2246469E-16,-1.8369701E-16,-7.0710677E-1,8.3E1,8.3E1,8.660254E-1,-2.5881904E-1,8.660254E-1,9E1,1E0,8.1E1,8.2E1,8.2E1,8.4E1,8.2E1,8.4E1,8.8E1,8.4E1,-1.8369701E-16,0E0,-8.944678E0,-8.229259E0,8.7E1,-6.5952554E0,8.9E1,8.1E1,-7.8681216E0,-6.0847306E0,-6.6445513E0,-1.9564543E0,1.7168193E-1,-5.816388E0,1.0342086E1,3.9569821E0,1.3670796E1,-1.7815613E1,2.1383764E1,1.1088141E1,1.8958946E1,1.52499485E1,1.0777205E1,1.3903697E1,-7.030685E0,-6.498239E0,-8.37013E0,-6.335203E0,8.95875E0,6.0275445E0,-6.5219607E0,-4.8933578E0,2.6042206E0,-1.1766762E0],"split_indices":[3,2,2,2,2,2,3,2,1,1,2,2,2,1,2,1,1,1,1,1,1,1,1,3,2,0,0,1,0,1,1,0,0,0,0,0,0,0,0,0,0,0,0,0,0,0,0,0,0,0,0,0,0,0,0,0,0],"split_type":[0,0,0,0,0,0,0,0,0,0,0,0,0,0,0,0,0,0,0,0,0,0,0,0,0,0,0,0,0,0,0,0,0,0,0,0,0,0,0,0,0,0,0,0,0,0,0,0,0,0,0,0,0,0,0,0,0],"sum_hessian":[9.56E3,3.722E3,5.838E3,1.185E3,2.537E3,4.582E3,1.256E3,7.61E2,4.24E2,8.42E2,1.695E3,3.043E3,1.539E3,4.17E2,8.39E2,3.64E2,3.97E2,1.17E2,3.07E2,2.24E2,6.18E2,1.272E3,4.23E2,2.273E3,7.7E2,1.143E3,3.96E2,3.8E2,3.7E1,4.03E2,4.36E2,3.9E1,3.25E2,7.8E1,3.19E2,7.6E1,4.1E1,3.7E1,2.7E2,1.56E2,6.8E1,7.4E1,5.44E2,9.25E2,3.47E2,1.54E2,2.69E2,3.87E2,1.886E3,3.81E2,3.89E2,2.57E2,1.23E2,3.31E2,7.2E1,3.8E1,3.98E2],"tree_param":{"num_deleted":"0","num_feature":"4","num_nodes":"57","size_leaf_vector":"1"}},{"base_weights":[1.3578655E0,8.423814E1,-5.2689117E1,6.0697527E0,1.4300664E2,-6.720056E1,4.1799927E-1,-4.144953E1,4.7910526E1,1.1517795E2,1.4973274E2,-6.1196434E1,-7.8938354E1,6.207898E1,-3.2347023E1,-5.6703506E1,-2.7060444E1,-2.7673285E0,6.687878E1,9.293388E1,1.3318625E1,1.701972E2,1.2851872E2,-5.9372112E1,-6.651947E1,-8.169646E0,-7.6102996E0,7.082237E1,-2.5376842E0,-5.682461E1,-9.644695E0,-7.08098E0,-5.481611E0,-3.8350937E0,-2.2580762E-1,5.399337E0,-1.1625369E1,4.0077033E0,9.19024E0,1.1869484E1,-8.569132E-1,1.2521214E1,1.7393484E1,1.4006937E1,1.1666779E1,-6.324883E0,-5.8519454E0,-7.535763E0,-5.7025566E0,8.668967E0,6.4269333E0,-2.8923042E0,-5.8093524E0,1.5360459E0,-1.5521584E0],"categories":[],"categories_nodes":[],"categories_segments":[],"categories_sizes":[],"default_left":[0,0,0,0,0,0,0,0,0,0,0,0,0,0,0,0,0,0,0,0,0,0,0,0,0,0,0,0,0,0,0,0,0,0,0,0,0,0,0,0,0,0,0,0,0,0,0,0,0,0,0,0,0,0,0],"id":13,"left_children":[1,3,5,7,9,11,13,15,17,19,21,23,25,27,29,31,33,35,37,39,-1,41,43,45,47,-1,-1,49,-1,51,53,-1,-1,-1,-1,-1,-1,-1,-1,-1,-1,-1,-1,-1,-1,-1,-1,-1,-1,-1,-1,-1,-1,-1,-1],"loss_changes":[4.2863616E7,1.7350056E7,4.463698E6,3.226917E6,3.86312E5,3.1576E5,2.5152905E6,1.6527862E5,8.297614E5,1.574675E5,7.30484E5,2.5319E4,5.795E3,3.3213062E5,4.5123462E5,5.916125E3,1.0996556E5,1.526486E6,4.17502E5,5.056765E5,0E0,1.26014E5,1.00696E5,3.7495E3,5.955725E4,0E0,0E0,3.529225E4,0E0,1.2162875E4,6.2399332E4,0E0,0E0,0E0,0E0,0E0,0E0,0E0,0E0,0E0,0E0,0E0,0E0,0E0,0E0,0E0,0E0,0E0,0E0,0E0,0E0,0E0,0E0,0E0,0E0],"parents":[2147483647,0,0,1,1,2,2,3,3,4,4,5,5,6,6,7,7,8,8,9,9,10,10,11,11,12,12,13,13,14,14,15,15,16,16,17,17,18,18,19,19,21,21,22,22,23,23,24,24,27,27,29,29,30,30],"right_children":[2,4,6,8,10,12,14,16,18,20,22,24,26,28,30,32,34,36,38,40,-1,42,44,46,48,-1,-1,50,-1,52,54,-1,-1,-1,-1,-1,-1,-1,-1,-1,-1,-1,-1,-1,-1,-1,-1,-1,-1,-1,-1,-1,-1,-1,-1],"split_conditions":[-2.5881904E-1,0E0,9.659258E-1,-5E-1,2.5881904E-1,1.2246469E-16,-1.8369701E-16,-7.0710677E-1,8.3E1,8.5E1,7.0710677E-1,-2.5881904E-1,7.0710677E-1,9E1,1E0,8.1E1,8.7E1,8.2E1,-2.5881904E-1,8.4E1,1.3318625E1,8.1E1,8.660254E-1,-1.8369701E-16,0E0,-8.169646E0,-7.6102996E0,8.3E1,-2.5376842E0,8.1E1,8.2E1,-7.08098E0,-5.481611E0,-3.8350937E0,-2.2580762E-1,5.399337E0,-1.1625369E1,4.0077033E0,9.19024E0,1.1869484E1,-8.569132E-1,1.2521214E1,1.7393484E1,1.4006937E1,1.1666779E1,-6.324883E0,-5.8519454E0,-7.535763E0,-5.7025566E0,8.668967E0,6.4269333E0,-2.8923042E0,-5.8093524E0,1.5360459E0,-1.5521584E0],"split_indices":[3,2,2,2,2,2,3,2,1,1,2,2,2,1,2,1,1,1,2,1,0,1,2,3,2,0,0,1,0,1,1,0,0,0,0,0,0,0,0,0,0,0,0,0,0,0,0,0,0,0,0,0,0,0,0],"split_type":[0,0,0,0,0,0,0,0,0,0,0,0,0,0,0,0,0,0,0,0,0,0,0,0,0,0,0,0,0,0,0,0,0,0,0,0,0,0,0,0,0,0,0,0,0,0,0,0,0,0,0,0,0,0,0],"sum_hessian":[9.567E3,3.776E3,5.791E3,1.621E3,2.155E3,4.548E3,1.243E3,7.59E2,8.62E2,4.23E2,1.732E3,3.013E3,1.535E3,4.31E2,8.12E2,3.67E2,3.92E2,2.35E2,6.27E2,1.92E2,2.31E2,8.78E2,8.54E2,2.253E3,7.6E2,7.64E2,7.71E2,3.92E2,3.9E1,3.9E2,4.22E2,3.9E1,3.28E2,2.69E2,1.23E2,1.57E2,7.8E1,3.04E2,3.23E2,1.53E2,3.9E1,7E1,8.08E2,4.27E2,4.27E2,3.93E2,1.86E3,3.9E2,3.7E2,1.11E2,2.81E2,1.8E1,3.72E2,8E1,3.42E2],"tree_param":{"num_deleted":"0","num_feature":"4","num_nodes":"55","size_leaf_vector":"1"}},{"base_weights":[-5.2681994E-2,7.475628E1,-4.7360775E1,4.114813E0,1.2751946E2,-6.04945E1,5.291126E-1,-3.6025738E1,4.031321E1,1.0274582E1,1.3348618E2,-5.503251E1,-7.106268E1,5.5092287E0,-2.7833893E1,-5.078589E0,-2.2045684E0,2.3766522E0,5.7122235E0,1.5246251E2,1.1507491E2,-5.204908E1,-5.7937225E1,-7.255376E0,-6.6485596E0,-5.0605216E0,-6.6811603E-1,1.4708564E1,1.5765251E1,1.2486304E1,1.0458175E1,-5.689977E0,-5.039202E0,-6.000713E0,-5.1339126E0],"categories":[],"categories_nodes":[],"categories_segments":[],"categories_sizes":[],"default_left":[0,0,0,0,0,0,0,0,0,0,0,0,0,0,0,0,0,0,0,0,0,0,0,0,0,0,0,0,0,0,0,0,0,0,0],"id":14,"left_children":[1,3,5,7,9,11,13,15,17,-1,19,21,23,-1,25,-1,-1,-1,-1,27,29,31,33,-1,-1,-1,-1,-1,-1,-1,-1,-1,-1,-1,-1],"loss_changes":[3.392906E7,1.384255E7,3.693988E6,2.3103068E6,3.00544E5,2.62136E5,1.9592166E6,1.5446662E5,2.3116225E5,0E0,5.79892E5,2.3355E4,5.871E3,0E0,4.008977E5,0E0,0E0,0E0,0E0,2.26E2,7.6503E4,9.278E3,1.7856E4,0E0,0E0,0E0,0E0,0E0,0E0,0E0,0E0,0E0,0E0,0E0,0E0],"parents":[2147483647,0,0,1,1,2,2,3,3,4,4,5,5,6,6,7,7,8,8,10,10,11,11,12,12,14,14,19,19,20,20,21,21,22,22],"right_children":[2,4,6,8,10,12,14,16,18,-1,20,22,24,-1,26,-1,-1,-1,-1,28,30,32,34,-1,-1,-1,-1,-1,-1,-1,-1,-1,-1,-1,-1],"split_conditions":[-2.5881904E-1,0E0,9.659258E-1,-5E-1,2.5881904E-1,1.2246469E-16,-1.8369701E-16,-7.0710677E-1,-2.5881904E-1,1.0274582E1,7.0710677E-1,-7.0710677E-1,8.660254E-1,5.5092287E0,1E0,-5.078589E0,-2.2045684E0,2.3766522E0,5.7122235E0,5E-1,8.660254E-1,-1.8369701E-16,0E0,-7.255376E0,-6.6485596E0,-5.0605216E0,-6.6811603E-1,1.4708564E1,1.5765251E1,1.2486304E1,1.0458175E1,-5.689977E0,-5.039202E0,-6.000713E0,-5.1339126E0],"split_indices":[3,2,2,2,2,2,3,2,2,0,2,2,2,0,2,0,0,0,0,2,2,3,2,0,0,0,0,0,0,0,0,0,0,0,0],"split_type":[0,0,0,0,0,0,0,0,0,0,0,0,0,0,0,0,0,0,0,0,0,0,0,0,0,0,0,0,0,0,0,0,0,0,0],"sum_hessian":[9.585E3,3.713E3,5.872E3,1.588E3,2.125E3,4.608E3,1.264E3,7.53E2,8.35E2,4.16E2,1.709E3,3.042E3,1.566E3,4.32E2,8.32E2,3.65E2,3.88E2,4.22E2,4.13E2,8.38E2,8.71E2,1.51E3,1.532E3,1.17E3,3.96E2,4E2,4.32E2,4.26E2,4.12E2,4.45E2,4.26E2,3.76E2,1.134E3,1.16E3,3.72E2],"tree_param":{"num_deleted":"0","num_feature":"4","num_nodes":"35","size_leaf_vector":"1"}},{"base_weights":[-7.680156E-2,6.701122E1,-4.300943E1,4.0356593E0,1.1469464E2,-5.4476433E1,-7.196638E-1,-3.258435E1,3.6395794E1,8.717601E0,1.2133324E2,-4.9519733E1,-6.396255E1,5.0661573E0,-2.6316442E1,-4.5877023E0,-1.9346001E0,2.150508E0,5.144688E0,1.3886925E1,1.036961E2,-4.791391E1,-5.431606E1,-6.629295E0,-6.1589546E0,-4.529463E0,-8.169428E-1,1.1483531E1,9.241904E0,-5.135131E0,-4.719036E0,-6.1852884E0,-4.6215906E0],"categories":[],"categories_nodes":[],"categories_segments":[],"categories_sizes":[],"default_left":[0,0,0,0,0,0,0,0,0,0,0,0,0,0,0,0,0,0,0,0,0,0,0,0,0,0,0,0,0,0,0,0,0],"id":15,"left_children":[1,3,5,7,9,11,13,15,17,-1,19,21,23,-1,25,-1,-1,-1,-1,-1,27,29,31,-1,-1,-1,-1,-1,-1,-1,-1,-1,-1],"loss_changes":[2.7457572E7,1.1170289E7,2.818899E6,1.9019714E6,3.76168E5,2.11854E5,1.6334891E6,1.3162019E5,1.8984525E5,0E0,5.1231E5,2.0565E4,4.577E3,0E0,2.8513544E5,0E0,0E0,0E0,0E0,0E0,9.6539E4,3.203E3,4.274525E4,0E0,0E0,0E0,0E0,0E0,0E0,0E0,0E0,0E0,0E0],"parents":[2147483647,0,0,1,1,2,2,3,3,4,4,5,5,6,6,7,7,8,8,10,10,11,11,12,12,14,14,20,20,21,21,22,22],"right_children":[2,4,6,8,10,12,14,16,18,-1,20,22,24,-1,26,-1,-1,-1,-1,-1,28,30,32,-1,-1,-1,-1,-1,-1,-1,-1,-1,-1],"split_conditions":[-2.5881904E-1,0E0,9.659258E-1,-5E-1,2.5881904E-1,1.2246469E-16,-1.8369701E-16,-7.0710677E-1,-2.5881904E-1,8.717601E0,7.0710677E-1,-2.5881904E-1,7.0710677E-1,5.0661573E0,1E0,-4.5877023E0,-1.9346001E0,2.150508E0,5.144688E0,1.3886925E1,8.660254E-1,-1.8369701E-16,0E0,-6.629295E0,-6.1589546E0,-4.529463E0,-8.169428E-1,1.1483531E1,9.241904E0,-5.135131E0,-4.719036E0,-6.1852884E0,-4.6215906E0],"split_indices":[3,2,2,2,2,2,3,2,2,0,2,2,2,0,2,0,0,0,0,0,2,3,2,0,0,0,0,0,0,0,0,0,0],"split_type":[0,0,0,0,0,0,0,0,0,0,0,0,0,0,0,0,0,0,0,0,0,0,0,0,0,0,0,0,0,0,0,0,0],"sum_hessian":[9.531E3,3.719E3,5.812E3,1.603E3,2.116E3,4.572E3,1.24E3,7.52E2,8.51E2,4.14E2,1.702E3,3.007E3,1.565E3,4.12E2,8.28E2,3.74E2,3.78E2,4.29E2,4.22E2,8.5E2,8.52E2,2.261E3,7.46E2,7.76E2,7.89E2,4.04E2,4.24E2,4.24E2,4.28E2,3.81E2,1.88E3,3.83E2,3.63E2],"tree_param":{"num_deleted":"0","num_feature":"4","num_nodes":"33","size_leaf_vector":"1"}},{"base_weights":[-2.7053997E-1,5.9869656E1,-3.885666E1,-1.4354754E1,9.368474E1,-4.8957615E1,-1.4206223E0,-3.0213163E1,1.4927553E1,6.531268E1,1.07932335E2,-4.455985E1,-5.754241E1,4.4245728E1,-2.3976318E1,-4.1624104E1,-1.8931896E1,-6.7751603E0,2.2803942E1,2.362755E1,8.08818E1,1.2302578E2,9.339017E1,-4.2037556E1,-4.7066013E1,-5.879742E0,-5.377156E0,5.371825E1,-4.208616E0,-4.2171528E1,-7.1186147E0,-5.452312E0,-3.979473E0,-4.9684696E0,-1.0776777E0,9.0149176E-1,4.3750877E0,9.7758E0,-1.5613204E1,1.6888885E1,6.820765E0,8.103755E0,1.2695224E1,1.1430277E1,8.607186E0,-4.624312E0,-4.064425E0,-4.8816195E0,-4.1610074E0,8.596043E0,5.0082216E0,-1.8202975E0,-4.3258977E0,1.6273257E0,-1.2333457E0],"categories":[],"categories_nodes":[],"categories_segments":[],"categories_sizes":[],"default_left":[0,0,0,0,0,0,0,0,0,0,0,0,0,0,0,0,0,0,0,0,0,0,0,0,0,0,0,0,0,0,0,0,0,0,0,0,0,0,0,0,0,0,0,0,0,0,0,0,0,0,0,0,0,0,0],"id":16,"left_children":[1,3,5,7,9,11,13,15,17,19,21,23,25,27,29,31,33,-1,35,37,39,41,43,45,47,-1,-1,49,-1,51,53,-1,-1,-1,-1,-1,-1,-1,-1,-1,-1,-1,-1,-1,-1,-1,-1,-1,-1,-1,-1,-1,-1,-1,-1],"loss_changes":[2.2140628E7,9.360779E6,2.197679E6,5.428361E5,1.028596E6,1.70236E5,1.2741856E6,9.678925E4,2.6919356E5,5.5558E5,3.62524E5,1.7181E4,4.1595E3,3.3673312E5,2.5367175E5,6.7028125E3,9.551817E4,0E0,1.0820861E5,3.1467925E6,6.8561475E5,1.27044E5,1.23617E5,7.027E3,1.240675E4,0E0,0E0,3.8954125E4,0E0,9.5863125E3,5.2776207E4,0E0,0E0,0E0,0E0,0E0,0E0,0E0,0E0,0E0,0E0,0E0,0E0,0E0,0E0,0E0,0E0,0E0,0E0,0E0,0E0,0E0,0E0,0E0,0E0],"parents":[2147483647,0,0,1,1,2,2,3,3,4,4,5,5,6,6,7,7,8,8,9,9,10,10,11,11,12,12,13,13,14,14,15,15,16,16,18,18,19,19,20,20,21,21,22,22,23,23,24,24,27,27,29,29,30,30],"right_children":[2,4,6,8,10,12,14,16,18,20,22,24,26,28,30,32,34,-1,36,38,40,42,44,46,48,-1,-1,50,-1,52,54,-1,-1,-1,-1,-1,-1,-1,-1,-1,-1,-1,-1,-1,-1,-1,-1,-1,-1,-1,-1,-1,-1,-1,-1],"split_conditions":[-2.5881904E-1,-2.5881904E-1,9.659258E-1,-5E-1,2.5881904E-1,1.2246469E-16,-1.8369701E-16,-7.0710677E-1,8.1E1,8.3E1,7.0710677E-1,-7.0710677E-1,8.660254E-1,9E1,1E0,8.1E1,8.2E1,-6.7751603E0,8.7E1,8.2E1,8.4E1,8.1E1,8.3E1,-1.8369701E-16,0E0,-5.879742E0,-5.377156E0,8.1E1,-4.208616E0,8.1E1,8.2E1,-5.452312E0,-3.979473E0,-4.9684696E0,-1.0776777E0,9.0149176E-1,4.3750877E0,9.7758E0,-1.5613204E1,1.6888885E1,6.820765E0,8.103755E0,1.2695224E1,1.1430277E1,8.607186E0,-4.624312E0,-4.064425E0,-4.8816195E0,-4.1610074E0,8.596043E0,5.0082216E0,-1.8202975E0,-4.3258977E0,1.6273257E0,-1.2333457E0],"split_indices":[3,2,2,2,2,2,3,2,1,1,2,2,2,1,2,1,1,0,1,1,1,1,1,3,2,0,0,1,0,1,1,0,0,0,0,0,0,0,0,0,0,0,0,0,0,0,0,0,0,0,0,0,0,0,0],"split_type":[0,0,0,0,0,0,0,0,0,0,0,0,0,0,0,0,0,0,0,0,0,0,0,0,0,0,0,0,0,0,0,0,0,0,0,0,0,0,0,0,0,0,0,0,0,0,0,0,0,0,0,0,0,0,0],"sum_hessian":[9.539E3,3.728E3,5.811E3,1.167E3,2.561E3,4.576E3,1.235E3,7.57E2,4.1E2,8.58E2,1.703E3,3.03E3,1.546E3,4.08E2,8.27E2,3.75E2,3.82E2,3.5E1,3.75E2,2.34E2,6.24E2,8.32E2,8.71E2,1.519E3,1.511E3,1.149E3,3.97E2,3.68E2,4E1,3.97E2,4.3E2,4.3E1,3.32E2,7.9E1,3.03E2,2.27E2,1.48E2,1.66E2,6.8E1,7.7E1,5.47E2,7.3E1,7.59E2,2.22E2,6.49E2,3.7E2,1.149E3,1.138E3,3.73E2,3.5E1,3.33E2,1.8E1,3.79E2,7.8E1,3.52E2],"tree_param":{"num_deleted":"0","num_feature":"4","num_nodes":"55","size_leaf_vector":"1"}},{"base_weights":[-7.747635E-1,5.268578E1,-3.4503506E1,7.01367E1,3.081859E1,-8.541212E0,-4.4434937E1,5.405222E1,8.3296776E1,4.1354057E1,2.0076498E1,3.8494484E0,-2.0693636E1,-3.7548817E1,-4.6002155E1,6.6953445E1,5.1612587E0,9.201963E1,6.962934E1,1.7192927E-1,4.566682E1,1.7427805E1,6.7039676E0,7.7160416E0,-3.140102E0,-3.6364956E0,-6.610517E0,-3.9513397E1,-3.4702477E1,-4.7036995E1,-3.7460728E0,4.9419427E0,1.2196459E1,-1.1484338E0,2.7095783E0,8.12335E0,9.710648E0,7.7317843E0,5.351212E0,5.2313895E0,1.2649301E0,9.3363905E-1,2.5206425E0,1.3132762E0,6.7937994E-1,-7.09763E-2,-1.6140145E0,2.3030746E0,-9.8700637E-1,-3.0637565E0,-4.0596604E0,-3.5306394E0,-2.9291058E0,-4.5356E0,-5.2318845E0],"categories":[],"categories_nodes":[],"categories_segments":[],"categories_sizes":[],"default_left":[0,0,0,0,0,0,0,0,0,0,0,0,0,0,0,0,0,0,0,0,0,0,0,0,0,0,0,0,0,0,0,0,0,0,0,0,0,0,0,0,0,0,0,0,0,0,0,0,0,0,0,0,0,0,0],"id":17,"left_children":[1,3,5,7,9,11,13,15,17,19,21,23,25,27,29,31,33,35,37,-1,39,41,-1,43,45,-1,47,49,51,53,-1,-1,-1,-1,-1,-1,-1,-1,-1,-1,-1,-1,-1,-1,-1,-1,-1,-1,-1,-1,-1,-1,-1,-1,-1],"loss_changes":[1.7162464E7,1.4029E6,1.5043905E6,4.28792E5,1.8432075E5,2.434114E5,4.3826E4,5.824705E5,1.275945E5,1.4094312E5,9.9837125E4,2.1671852E4,1.7985169E5,3.035125E3,2.8591E4,6.990705E5,7.114314E4,2.95865E4,5.063425E4,0E0,1.6262388E5,4.8228484E4,0E0,2.4884727E3,9.024576E3,0E0,4.1869273E4,3.169125E3,4.428125E1,2.47875E4,0E0,0E0,0E0,0E0,0E0,0E0,0E0,0E0,0E0,0E0,0E0,0E0,0E0,0E0,0E0,0E0,0E0,0E0,0E0,0E0,0E0,0E0,0E0,0E0,0E0],"parents":[2147483647,0,0,1,1,2,2,3,3,4,4,5,5,6,6,7,7,8,8,9,9,10,10,11,11,12,12,13,13,14,14,15,15,16,16,17,17,18,18,20,20,21,21,23,23,24,24,26,26,27,27,28,28,29,29],"right_children":[2,4,6,8,10,12,14,16,18,20,22,24,26,28,30,32,34,36,38,-1,40,42,-1,44,46,-1,48,50,52,54,-1,-1,-1,-1,-1,-1,-1,-1,-1,-1,-1,-1,-1,-1,-1,-1,-1,-1,-1,-1,-1,-1,-1,-1,-1],"split_conditions":[-2.5881904E-1,-7.0710677E-1,2.5881904E-1,8.5E1,-5E-1,-1.8369701E-16,5E-1,8.4E1,-8.660254E-1,8.1E1,9E1,8.7E1,6.123234E-17,8.6E1,1E0,8.3E1,-8.660254E-1,8.7E1,8.9E1,1.7192927E-1,8.9E1,8.5E1,6.7039676E0,8.1E1,9E1,-3.6364956E0,8.1E1,8.1E1,9E1,9.659258E-1,-3.7460728E0,4.9419427E0,1.2196459E1,-1.1484338E0,2.7095783E0,8.12335E0,9.710648E0,7.7317843E0,5.351212E0,5.2313895E0,1.2649301E0,9.3363905E-1,2.5206425E0,1.3132762E0,6.7937994E-1,-7.09763E-2,-1.6140145E0,2.3030746E0,-9.8700637E-1,-3.0637565E0,-4.0596604E0,-3.5306394E0,-2.9291058E0,-4.5356E0,-5.2318845E0],"split_indices":[3,3,3,1,3,3,3,1,3,1,1,1,3,1,3,1,3,1,1,0,1,1,0,1,1,0,1,1,1,3,0,0,0,0,0,0,0,0,0,0,0,0,0,0,0,0,0,0,0,0,0,0,0,0,0],"split_type":[0,0,0,0,0,0,0,0,0,0,0,0,0,0,0,0,0,0,0,0,0,0,0,0,0,0,0,0,0,0,0,0,0,0,0,0,0,0,0,0,0,0,0,0,0,0,0,0,0,0,0,0,0,0,0],"sum_hessian":[9.516E3,3.681E3,5.835E3,2.046E3,1.635E3,1.615E3,4.22E3,9.23E2,1.123E3,8.24E2,8.11E2,8E2,8.15E2,7.87E2,3.433E3,7.3E2,1.93E2,6.82E2,4.41E2,8.1E1,7.43E2,7.69E2,4.2E1,5.15E2,2.85E2,3.85E2,4.3E2,4.58E2,3.29E2,3.058E3,3.75E2,5.55E2,1.75E2,1.1E2,8.3E1,2.24E2,4.58E2,2.96E2,1.45E2,6.18E2,1.25E2,3.78E2,3.91E2,7.3E1,4.42E2,2.41E2,4.4E1,4.2E1,3.88E2,5.3E1,4.05E2,2.91E2,3.8E1,2.327E3,7.31E2],"tree_param":{"num_deleted":"0","num_feature":"4","num_nodes":"55","size_leaf_vector":"1"}},{"base_weights":[3.019836E-1,4.9111E1,-3.091825E1,-3.9469352E0,8.91351E1,-4.008623E1,2.2805762E0,-3.1543316E1,2.1243088E1,9.370628E1,7.161052E0,-3.645084E1,-4.7136265E1,4.2328787E0,-1.7958992E1,-4.0987988E0,-2.263369E0,8.1143373E-1,3.395605E0,7.1434364E0,1.010161E2,-4.2136908E0,-3.5622124E1,-4.8161483E0,-4.3846536E0,-3.28726E0,-3.5561666E-1,1.0528724E1,9.221602E0,-3.3894582E0,-3.9852872E0],"categories":[],"categories_nodes":[],"categories_segments":[],"categories_sizes":[],"default_left":[0,0,0,0,0,0,0,0,0,0,0,0,0,0,0,0,0,0,0,0,0,0,0,0,0,0,0,0,0,0,0],"id":18,"left_children":[1,3,5,7,9,11,13,15,17,19,-1,21,23,-1,25,-1,-1,-1,-1,-1,27,-1,29,-1,-1,-1,-1,-1,-1,-1,-1],"loss_changes":[1.4698848E7,7.991444E6,1.7906775E6,1.1261235E6,1.65122E5,1.16434E5,1.03341156E6,6.4119062E4,1.4109328E5,2.69224E5,0E0,1.285225E4,3.16625E3,0E0,1.818171E5,0E0,0E0,0E0,0E0,0E0,3.8251E4,0E0,1.8127E4,0E0,0E0,0E0,0E0,0E0,0E0,0E0,0E0],"parents":[2147483647,0,0,1,1,2,2,3,3,4,4,5,5,6,6,7,7,8,8,9,9,11,11,12,12,14,14,20,20,22,22],"right_children":[2,4,6,8,10,12,14,16,18,20,-1,22,24,-1,26,-1,-1,-1,-1,-1,28,-1,30,-1,-1,-1,-1,-1,-1,-1,-1],"split_conditions":[-2.5881904E-1,0E0,9.659258E-1,-5E-1,8.660254E-1,1.2246469E-16,-1.8369701E-16,-7.0710677E-1,-2.5881904E-1,2.5881904E-1,7.161052E0,-1.8369701E-16,8.660254E-1,4.2328787E0,1E0,-4.0987988E0,-2.263369E0,8.1143373E-1,3.395605E0,7.1434364E0,7.0710677E-1,-4.2136908E0,-2.5881904E-1,-4.8161483E0,-4.3846536E0,-3.28726E0,-3.5561666E-1,1.0528724E1,9.221602E0,-3.3894582E0,-3.9852872E0],"split_indices":[3,2,2,2,2,2,3,2,2,2,0,3,2,0,2,0,0,0,0,0,2,0,2,0,0,0,0,0,0,0,0],"split_type":[0,0,0,0,0,0,0,0,0,0,0,0,0,0,0,0,0,0,0,0,0,0,0,0,0,0,0,0,0,0,0],"sum_hessian":[9.644E3,3.762E3,5.882E3,1.618E3,2.144E3,4.609E3,1.273E3,7.72E2,8.46E2,1.697E3,4.47E2,3.045E3,1.564E3,4.27E2,8.46E2,3.73E2,3.99E2,4.17E2,4.29E2,4.22E2,1.275E3,3.81E2,2.664E3,1.182E3,3.82E2,4.15E2,4.31E2,8.51E2,4.24E2,1.898E3,7.66E2],"tree_param":{"num_deleted":"0","num_feature":"4","num_nodes":"31","size_leaf_vector":"1"}},{"base_weights":[4.424631E-1,4.4480263E1,-2.7607742E1,5.7985023E1,2.6856352E1,-6.1899233E0,-3.5818893E1,3.7255764E1,6.583606E1,2.4494537E1,6.7050415E1,2.7138598E0,-1.5230144E1,-2.944967E1,-3.729228E1,6.2857014E1,-1.2836292E1,1.0648071E2,5.979228E1,3.2717636E1,1.6185225E1,7.2544265E0,5.6029644E0,4.50069E0,-8.217173E0,-2.9354122E0,-3.0933633E0,-3.02465E1,-1.4405575E0,-3.820282E1,-2.9749296E0,3.5362618E0,8.745414E0,-6.5589128E0,4.8083673E0,1.5338373E1,9.308454E0,1.2429137E0,6.787688E0,3.9112089E0,-2.671807E0,4.1394565E-1,2.4101744E0,1.3431932E0,3.4109372E-1,-7.0367473E-1,-1.0337058E0,4.2272583E-1,-1.5009447E0,-2.2289493E0,-3.0888069E0,-3.6723716E0,-4.2679863E0],"categories":[],"categories_nodes":[],"categories_segments":[],"categories_sizes":[],"default_left":[0,0,0,0,0,0,0,0,0,0,0,0,0,0,0,0,0,0,0,0,0,0,0,0,0,0,0,0,0,0,0,0,0,0,0,0,0,0,0,0,0,0,0,0,0,0,0,0,0,0,0,0,0],"id":19,"left_children":[1,3,5,7,9,11,13,15,17,19,21,23,25,27,29,31,33,35,37,39,41,-1,-1,43,45,-1,47,49,-1,51,-1,-1,-1,-1,-1,-1,-1,-1,-1,-1,-1,-1,-1,-1,-1,-1,-1,-1,-1,-1,-1,-1,-1],"loss_changes":[1.1796815E7,8.82876E5,1.025775E6,3.39802E5,1.5157612E5,1.3027764E5,3.8475E4,7.4460994E5,3.680005E5,1.03739375E5,1.324E3,1.5975013E4,1.3755917E5,9.1184375E3,2.23595E4,2.5660012E5,6.362528E5,1.08873E5,5.080465E5,2.9216994E5,7.246961E4,0E0,0E0,6.7866406E3,2.1503271E2,0E0,3.78354E4,3.1709375E3,0E0,1.8623E4,0E0,0E0,0E0,0E0,0E0,0E0,0E0,0E0,0E0,0E0,0E0,0E0,0E0,0E0,0E0,0E0,0E0,0E0,0E0,0E0,0E0,0E0,0E0],"parents":[2147483647,0,0,1,1,2,2,3,3,4,4,5,5,6,6,7,7,8,8,9,9,10,10,11,11,12,12,13,13,14,14,15,15,16,16,17,17,18,18,19,19,20,20,23,23,24,24,26,26,27,27,29,29],"right_children":[2,4,6,8,10,12,14,16,18,20,22,24,26,28,30,32,34,36,38,40,42,-1,-1,44,46,-1,48,50,-1,52,-1,-1,-1,-1,-1,-1,-1,-1,-1,-1,-1,-1,-1,-1,-1,-1,-1,-1,-1,-1,-1,-1,-1],"split_conditions":[-2.5881904E-1,-7.0710677E-1,2.5881904E-1,8.3E1,9E1,-1.8369701E-16,5E-1,8.2E1,8.4E1,-5E-1,-5E-1,8.9E1,6.123234E-17,9E1,1E0,8.1E1,-8.660254E-1,-9.659258E-1,8.5E1,8.9E1,8.4E1,7.2544265E0,5.6029644E0,8.1E1,9E1,-2.9354122E0,8.7E1,8.1E1,-1.4405575E0,9.659258E-1,-2.9749296E0,3.5362618E0,8.745414E0,-6.5589128E0,4.8083673E0,1.5338373E1,9.308454E0,1.2429137E0,6.787688E0,3.9112089E0,-2.671807E0,4.1394565E-1,2.4101744E0,1.3431932E0,3.4109372E-1,-7.0367473E-1,-1.0337058E0,4.2272583E-1,-1.5009447E0,-2.2289493E0,-3.0888069E0,-3.6723716E0,-4.2679863E0],"split_indices":[3,3,3,1,1,3,3,1,1,3,3,1,3,1,3,1,3,3,1,1,1,0,0,1,1,0,1,1,0,3,0,0,0,0,0,0,0,0,0,0,0,0,0,0,0,0,0,0,0,0,0,0,0],"split_type":[0,0,0,0,0,0,0,0,0,0,0,0,0,0,0,0,0,0,0,0,0,0,0,0,0,0,0,0,0,0,0,0,0,0,0,0,0,0,0,0,0,0,0,0,0,0,0,0,0,0,0,0,0],"sum_hessian":[9.548E3,3.715E3,5.833E3,2.102E3,1.613E3,1.617E3,4.216E3,5.79E2,1.523E3,1.525E3,8.8E1,8.15E2,8.02E2,7.96E2,3.42E3,3.83E2,1.96E2,1.95E2,1.328E3,7.65E2,7.6E2,5.5E1,3.3E1,7.01E2,1.14E2,3.7E2,4.32E2,7.55E2,4.1E1,3.048E3,3.72E2,1.82E2,2.01E2,1.05E2,9.1E1,4.1E1,1.54E2,1.94E2,1.134E3,6.91E2,7.4E1,3.02E2,4.58E2,7.5E1,6.26E2,7.6E1,3.8E1,2.68E2,1.64E2,5.9E1,6.96E2,2.298E3,7.5E2],"tree_param":{"num_deleted":"0","num_feature":"4","num_nodes":"53","size_leaf_vector":"1"}},{"base_weights":[-6.3523394E-4,4.0161716E1,-2.5483381E1,-5.166962E0,7.419283E1,-3.2803654E1,1.9095426E0,-2.7888395E1,1.4794257E1,5.511465E1,7.897494E1,-2.986022E1,-3.8610226E1,3.5511665E1,-1.4914308E1,-3.4613533E1,-1.4077241E1,-3.0504807E1,3.1256084E1,9.760419E0,4.5037514E1,8.622645E1,5.988718E1,-3.8238533E0,-2.8618032E1,-3.949152E0,-3.576522E0,4.353339E1,-3.794132E0,-2.6465393E1,-3.8765428E0,-5.43552E0,-3.0601134E0,-3.2549627E0,3.6272284E-1,9.4291323E-1,-1.0944586E1,8.478465E0,2.329752E0,-1.3667933E1,6.651175E0,9.4122925E0,6.1670513E0,4.7284393E0,8.455076E0,-2.7158453E0,-3.2213356E0,4.6667557E0,1.6431481E0,-2.8701005E0,-1.6027287E0,-1.7748032E0,1.08683944E-1],"categories":[],"categories_nodes":[],"categories_segments":[],"categories_sizes":[],"default_left":[0,0,0,0,0,0,0,0,0,0,0,0,0,0,0,0,0,0,0,0,0,0,0,0,0,0,0,0,0,0,0,0,0,0,0,0,0,0,0,0,0,0,0,0,0,0,0,0,0,0,0,0,0],"id":20,"left_children":[1,3,5,7,9,11,13,15,17,19,21,23,25,27,29,31,33,35,37,-1,39,41,43,-1,45,-1,-1,47,-1,49,51,-1,-1,-1,-1,-1,-1,-1,-1,-1,-1,-1,-1,-1,-1,-1,-1,-1,-1,-1,-1,-1,-1],"loss_changes":[9.757544E6,5.7094925E6,1.169717E6,7.2064606E5,1.88516E5,7.75185E4,6.9643494E5,6.8524E4,6.318201E5,1.7843388E5,2.28481E5,3.074175E4,2.46125E3,2.438211E5,1.0457341E5,3.7863188E4,8.024378E4,7.1348056E5,2.625773E5,0E0,1.3631645E6,2.30954E5,1.4147038E5,0E0,1.3126E4,0E0,0E0,3.0746625E4,0E0,8.897594E3,2.900493E4,0E0,0E0,0E0,0E0,0E0,0E0,0E0,0E0,0E0,0E0,0E0,0E0,0E0,0E0,0E0,0E0,0E0,0E0,0E0,0E0,0E0,0E0],"parents":[2147483647,0,0,1,1,2,2,3,3,4,4,5,5,6,6,7,7,8,8,9,9,10,10,11,11,12,12,13,13,14,14,15,15,16,16,17,17,18,18,20,20,21,21,22,22,24,24,27,27,29,29,30,30],"right_children":[2,4,6,8,10,12,14,16,18,20,22,24,26,28,30,32,34,36,38,-1,40,42,44,-1,46,-1,-1,48,-1,50,52,-1,-1,-1,-1,-1,-1,-1,-1,-1,-1,-1,-1,-1,-1,-1,-1,-1,-1,-1,-1,-1,-1],"split_conditions":[-2.5881904E-1,0E0,9.659258E-1,-5E-1,2.5881904E-1,1.2246469E-16,-1.8369701E-16,8.7E1,8.3E1,8.2E1,8.8E1,-1.8369701E-16,8.660254E-1,9E1,1E0,8.1E1,-7.0710677E-1,8.2E1,8.4E1,9.760419E0,8.3E1,8.660254E-1,9E1,-3.8238533E0,-2.5881904E-1,-3.949152E0,-3.576522E0,8.9E1,-3.794132E0,8.9E1,8.3E1,-5.43552E0,-3.0601134E0,-3.2549627E0,3.6272284E-1,9.4291323E-1,-1.0944586E1,8.478465E0,2.329752E0,-1.3667933E1,6.651175E0,9.4122925E0,6.1670513E0,4.7284393E0,8.455076E0,-2.7158453E0,-3.2213356E0,4.6667557E0,1.6431481E0,-2.8701005E0,-1.6027287E0,-1.7748032E0,1.08683944E-1],"split_indices":[3,2,2,2,2,2,3,1,1,1,1,3,2,1,2,1,2,1,1,0,1,2,1,0,2,0,0,1,0,1,1,0,0,0,0,0,0,0,0,0,0,0,0,0,0,0,0,0,0,0,0,0,0],"split_type":[0,0,0,0,0,0,0,0,0,0,0,0,0,0,0,0,0,0,0,0,0,0,0,0,0,0,0,0,0,0,0,0,0,0,0,0,0,0,0,0,0,0,0,0,0,0,0,0,0,0,0,0,0],"sum_hessian":[9.532E3,3.7E3,5.832E3,1.587E3,2.113E3,4.602E3,1.23E3,7.42E2,8.45E2,4.26E2,1.687E3,3.058E3,1.544E3,4.1E2,8.2E2,4.98E2,2.44E2,2.25E2,6.2E2,8E1,3.46E2,1.22E3,4.67E2,3.91E2,2.667E3,1.169E3,3.75E2,3.7E2,4E1,4E2,4.2E2,8.2E1,4.16E2,1.19E2,1.25E2,1.5E2,7.5E1,7.9E1,5.41E2,3.6E1,3.1E2,9.21E2,2.99E2,3.11E2,1.56E2,1.903E3,7.64E2,3.31E2,3.9E1,3.28E2,7.2E1,1.1E2,3.1E2],"tree_param":{"num_deleted":"0","num_feature":"4","num_nodes":"53","size_leaf_vector":"1"}},{"base_weights":[-2.0983048E-1,-2.0358587E1,1.9251892E1,-2.659681E1,-1.2012253E1,5.5897892E1,1.5940744E1,-2.7981596E1,-2.3476124E1,-1.9793226E1,2.8699155E0,8.807582E0,4.8392597E1,2.1020678E1,2.737262E0,-2.5579435E1,-3.106477E1,-2.6931288E1,-1.42453375E1,-2.8328045E1,-1.3751554E1,1.0711602E1,-2.3484364E0,-4.9180975E0,5.727891E1,3.838519E1,1.5390139E1,3.174097E1,4.437945E-1,-3.03693E0,-2.0731723E0,-2.822459E0,-3.7841034E0,-2.359041E0,-2.7734895E0,-1.2098215E0,-4.635485E0,-1.1561657E0,-5.877636E0,1.3321965E0,-2.1657023E0,-8.918726E-3,2.1037958E0,1.2883533E1,4.6491113E0,4.9522567E0,3.562805E0,1.8235648E0,6.967024E-1,3.9113877E0,2.0428393E0,-8.424503E-1,2.5110087E-1],"categories":[],"categories_nodes":[],"categories_segments":[],"categories_sizes":[],"default_left":[0,0,0,0,0,0,0,0,0,0,0,0,0,0,0,0,0,0,0,0,0,0,0,0,0,0,0,0,0,0,0,0,0,0,0,0,0,0,0,0,0,0,0,0,0,0,0,0,0,0,0,0,0],"id":21,"left_children":[1,3,5,7,9,11,13,15,17,19,21,-1,23,25,27,29,31,33,35,37,39,41,-1,-1,43,45,47,49,51,-1,-1,-1,-1,-1,-1,-1,-1,-1,-1,-1,-1,-1,-1,-1,-1,-1,-1,-1,-1,-1,-1,-1,-1],"loss_changes":[3.7526798E6,2.44496E5,5.897936E5,1.0968E4,2.3315772E5,9.306425E4,2.9948975E5,1.296625E4,2.6183938E4,6.7778875E4,1.4326167E5,0E0,2.8808288E5,3.1472238E5,8.260259E4,2.375125E4,1.450175E4,9.7E2,1.5227152E4,2.785685E5,1.6637494E5,5.9560387E4,0E0,0E0,2.2713519E5,2.2463625E4,5.8283125E4,6.7909688E3,2.114039E4,0E0,0E0,0E0,0E0,0E0,0E0,0E0,0E0,0E0,0E0,0E0,0E0,0E0,0E0,0E0,0E0,0E0,0E0,0E0,0E0,0E0,0E0,0E0,0E0],"parents":[2147483647,0,0,1,1,2,2,3,3,4,4,5,5,6,6,7,7,8,8,9,9,10,10,12,12,13,13,14,14,15,15,16,16,17,17,18,18,19,19,20,20,21,21,24,24,25,25,26,26,27,27,28,28],"right_children":[2,4,6,8,10,12,14,16,18,20,22,-1,24,26,28,30,32,34,36,38,40,42,-1,-1,44,46,48,50,52,-1,-1,-1,-1,-1,-1,-1,-1,-1,-1,-1,-1,-1,-1,-1,-1,-1,-1,-1,-1,-1,-1,-1,-1],"split_conditions":[1.2246469E-16,-5E-1,2.5881904E-1,8.7E1,8.7E1,8.2E1,9.659258E-1,8.4E1,-7.0710677E-1,8.3E1,0E0,8.807582E0,8.3E1,8.3E1,8.1E1,8.2E1,-7.0710677E-1,-9.659258E-1,9E1,8.2E1,8.4E1,-2.5881904E-1,-2.3484364E0,-4.9180975E0,8.4E1,8.1E1,8.9E1,1E0,8.3E1,-3.03693E0,-2.0731723E0,-2.822459E0,-3.7841034E0,-2.359041E0,-2.7734895E0,-1.2098215E0,-4.635485E0,-1.1561657E0,-5.877636E0,1.3321965E0,-2.1657023E0,-8.918726E-3,2.1037958E0,1.2883533E1,4.6491113E0,4.9522567E0,3.562805E0,1.8235648E0,6.967024E-1,3.9113877E0,2.0428393E0,-8.424503E-1,2.5110087E-1],"split_indices":[2,2,2,1,1,1,2,1,2,1,2,0,1,1,1,1,2,2,1,1,1,2,0,0,1,1,1,2,1,0,0,0,0,0,0,0,0,0,0,0,0,0,0,0,0,0,0,0,0,0,0,0,0],"split_type":[0,0,0,0,0,0,0,0,0,0,0,0,0,0,0,0,0,0,0,0,0,0,0,0,0,0,0,0,0,0,0,0,0,0,0,0,0,0,0,0,0,0,0,0,0,0,0,0,0,0,0,0,0],"sum_hessian":[9.568E3,4.701E3,4.867E3,2.689E3,2.012E3,4.02E2,4.465E3,1.857E3,8.32E2,1.321E3,6.91E2,7.4E1,3.28E2,3.224E3,1.241E3,1.049E3,8.08E2,6.04E2,2.28E2,5.46E2,7.75E2,5.33E2,1.58E2,2.7E1,3.01E2,7.88E2,2.436E3,9E1,1.151E3,5.25E2,5.24E2,5.73E2,2.35E2,1.23E2,4.81E2,2.15E2,1.3E1,3.53E2,1.93E2,1.75E2,6E2,2.61E2,2.72E2,3.8E1,2.63E2,1.53E2,6.35E2,1.82E3,6.16E2,5.3E1,3.7E1,2.17E2,9.34E2],"tree_param":{"num_deleted":"0","num_feature":"4","num_nodes":"53","size_leaf_vector":"1"}},{"base_weights":[1.934681E-1,3.5957687E1,-2.2352379E1,-3.59856E0,6.6294075E1,-2.8697384E1,1.5292085E0,-2.3122585E1,1.4030601E1,4.3824512E1,7.157308E1,-2.4679024E1,-3.6655964E1,3.284871E1,-1.4633846E1,-3.1195038E1,-1.4773946E1,-1.1353044E1,3.5598194E1,1.2901225E1,5.5656982E1,7.704285E1,5.6646923E1,-3.1816359E0,-2.3594528E1,-3.8156583E0,-3.5152626E0,3.882713E1,-2.3216414E0,-2.5810963E1,-3.9320452E0,-3.868441E0,-3.009326E0,-2.398725E0,2.4384291E-1,1.2095437E-1,-5.483061E0,1.9811577E0,5.2003894E0,6.277059E0,-9.412218E0,1.2002771E1,4.513504E0,4.857732E0,8.114731E0,4.7378297E0,7.5870705E0,-2.1320944E0,-2.6581812E0,4.463638E0,2.5599582E0,-2.9887085E0,-2.116694E0,3.9292166E-1,-1.6663325E0],"categories":[],"categories_nodes":[],"categories_segments":[],"categories_sizes":[],"default_left":[0,0,0,0,0,0,0,0,0,0,0,0,0,0,0,0,0,0,0,0,0,0,0,0,0,0,0,0,0,0,0,0,0,0,0,0,0,0,0,0,0,0,0,0,0,0,0,0,0,0,0,0,0,0,0],"id":22,"left_children":[1,3,5,7,9,11,13,15,17,19,21,23,25,27,29,31,33,35,37,39,41,43,45,-1,47,-1,-1,49,-1,51,53,-1,-1,-1,-1,-1,-1,-1,-1,-1,-1,-1,-1,-1,-1,-1,-1,-1,-1,-1,-1,-1,-1,-1,-1],"loss_changes":[7.6972675E6,4.4294145E6,8.8724475E5,5.520645E5,2.44654E5,1.47037E5,6.231299E5,5.0825938E4,4.619164E5,1.456415E5,1.33611E5,2.3066625E4,2.1555E3,1.4134219E5,9.702611E4,2.021E3,5.968564E4,2.1198833E5,1.17069375E5,6.036733E5,1.9032375E5,1.402335E5,7.783275E4,0E0,1.7601375E4,0E0,0E0,2.79805E4,0E0,6.8824375E3,4.1700383E4,0E0,0E0,0E0,0E0,0E0,0E0,0E0,0E0,0E0,0E0,0E0,0E0,0E0,0E0,0E0,0E0,0E0,0E0,0E0,0E0,0E0,0E0,0E0,0E0],"parents":[2147483647,0,0,1,1,2,2,3,3,4,4,5,5,6,6,7,7,8,8,9,9,10,10,11,11,12,12,13,13,14,14,15,15,16,16,17,17,18,18,19,19,20,20,21,21,22,22,24,24,27,27,29,29,30,30],"right_children":[2,4,6,8,10,12,14,16,18,20,22,24,26,28,30,32,34,36,38,40,42,44,46,-1,48,-1,-1,50,-1,52,54,-1,-1,-1,-1,-1,-1,-1,-1,-1,-1,-1,-1,-1,-1,-1,-1,-1,-1,-1,-1,-1,-1,-1,-1],"split_conditions":[-2.5881904E-1,0E0,9.659258E-1,-5E-1,2.5881904E-1,1.2246469E-16,-1.8369701E-16,-7.0710677E-1,8.5E1,8.3E1,8.8E1,-1.8369701E-16,7.0710677E-1,9E1,1E0,8.1E1,8.7E1,8.4E1,-2.5881904E-1,8.2E1,8.4E1,8.1E1,9E1,-3.1816359E0,-5E-1,-3.8156583E0,-3.5152626E0,8.7E1,-2.3216414E0,8.6E1,8.7E1,-3.868441E0,-3.009326E0,-2.398725E0,2.4384291E-1,1.2095437E-1,-5.483061E0,1.9811577E0,5.2003894E0,6.277059E0,-9.412218E0,1.2002771E1,4.513504E0,4.857732E0,8.114731E0,4.7378297E0,7.5870705E0,-2.1320944E0,-2.6581812E0,4.463638E0,2.5599582E0,-2.9887085E0,-2.116694E0,3.9292166E-1,-1.6663325E0],"split_indices":[3,2,2,2,2,2,3,2,1,1,1,3,2,1,2,1,1,1,2,1,1,1,1,0,2,0,0,1,0,1,1,0,0,0,0,0,0,0,0,0,0,0,0,0,0,0,0,0,0,0,0,0,0,0,0],"split_type":[0,0,0,0,0,0,0,0,0,0,0,0,0,0,0,0,0,0,0,0,0,0,0,0,0,0,0,0,0,0,0,0,0,0,0,0,0,0,0,0,0,0,0,0,0,0,0,0,0,0,0,0,0,0,0],"sum_hessian":[9.544E3,3.69E3,5.854E3,1.602E3,2.088E3,4.625E3,1.229E3,7.6E2,8.42E2,3.99E2,1.689E3,3.076E3,1.549E3,4.18E2,8.11E2,3.85E2,3.75E2,3.87E2,4.55E2,1.11E2,2.88E2,1.233E3,4.56E2,4.02E2,2.674E3,7.63E2,7.86E2,3.78E2,4E1,3.96E2,4.15E2,4.5E1,3.4E2,2.44E2,1.31E2,3.01E2,8.6E1,2.33E2,2.22E2,7.6E1,3.5E1,3.9E1,2.49E2,1.57E2,1.076E3,3.1E2,1.46E2,1.523E3,1.151E3,2.61E2,1.17E2,2.08E2,1.88E2,2.57E2,1.58E2],"tree_param":{"num_deleted":"0","num_feature":"4","num_nodes":"55","size_leaf_vector":"1"}},{"base_weights":[1.645282E-2,3.1083584E1,-1.9826975E1,-4.3745384E0,5.781663E1,-2.5859093E1,2.1485357E0,-2.104928E1,1.0742753E1,6.261093E1,3.600555E1,-2.2190744E1,-3.3011425E1,3.26214E1,-1.3345621E1,-3.7077938E1,-1.6809006E1,-2.7348001E1,2.5250778E1,3.978094E1,6.852063E1,1.3198767E1,6.09717E1,-2.8572433E0,-2.1236202E1,-3.3802152E0,-3.0701907E0,3.8169952E1,-2.1737678E0,-2.3123884E1,-3.4177492E0,-4.292403E0,-2.9227512E0,-2.651599E0,-6.9499373E-1,1.1989242E0,-9.993231E0,7.243029E0,1.8814125E0,2.5548823E0,5.653213E0,7.6229973E0,4.5350776E0,-7.4866724E-1,8.015147E0,6.8956733E0,2.9515626E0,-1.8528174E0,-2.3273356E0,4.0503845E0,1.8611132E0,-2.5241332E0,-1.4456788E0,4.2103344E-1,-1.6289622E0],"categories":[],"categories_nodes":[],"categories_segments":[],"categories_sizes":[],"default_left":[0,0,0,0,0,0,0,0,0,0,0,0,0,0,0,0,0,0,0,0,0,0,0,0,0,0,0,0,0,0,0,0,0,0,0,0,0,0,0,0,0,0,0,0,0,0,0,0,0,0,0,0,0,0,0],"id":23,"left_children":[1,3,5,7,9,11,13,15,17,19,21,23,25,27,29,31,33,35,37,39,41,43,45,-1,47,-1,-1,49,-1,51,53,-1,-1,-1,-1,-1,-1,-1,-1,-1,-1,-1,-1,-1,-1,-1,-1,-1,-1,-1,-1,-1,-1,-1,-1],"loss_changes":[5.9058625E6,3.5397258E6,7.749945E5,4.050617E5,2.20373E5,1.1961775E5,5.9534594E5,5.130272E4,4.6655062E5,2.32572E5,2.1898272E5,1.7881125E4,1.7985E3,1.2901581E5,8.1077625E4,6.042625E3,5.7811016E4,6.664751E5,1.841846E5,8.4619875E4,2.43759E5,2.8174412E5,4.4181375E4,0E0,1.4154875E4,0E0,0E0,1.6866312E4,0E0,7.361328E3,4.0914676E4,0E0,0E0,0E0,0E0,0E0,0E0,0E0,0E0,0E0,0E0,0E0,0E0,0E0,0E0,0E0,0E0,0E0,0E0,0E0,0E0,0E0,0E0,0E0,0E0],"parents":[2147483647,0,0,1,1,2,2,3,3,4,4,5,5,6,6,7,7,8,8,9,9,10,10,11,11,12,12,13,13,14,14,15,15,16,16,17,17,18,18,19,19,20,20,21,21,22,22,24,24,27,27,29,29,30,30],"right_children":[2,4,6,8,10,12,14,16,18,20,22,24,26,28,30,32,34,36,38,40,42,44,46,-1,48,-1,-1,50,-1,52,54,-1,-1,-1,-1,-1,-1,-1,-1,-1,-1,-1,-1,-1,-1,-1,-1,-1,-1,-1,-1,-1,-1,-1,-1],"split_conditions":[-2.5881904E-1,0E0,9.659258E-1,-5E-1,8.9E1,1.2246469E-16,-1.8369701E-16,8.2E1,8.3E1,2.5881904E-1,9E1,-1.8369701E-16,8.660254E-1,9E1,1E0,8.1E1,-7.0710677E-1,8.2E1,8.4E1,8.5E1,8.660254E-1,8.660254E-1,8.660254E-1,-2.8572433E0,-7.0710677E-1,-3.3802152E0,-3.0701907E0,8.9E1,-2.1737678E0,8.9E1,8.7E1,-4.292403E0,-2.9227512E0,-2.651599E0,-6.9499373E-1,1.1989242E0,-9.993231E0,7.243029E0,1.8814125E0,2.5548823E0,5.653213E0,7.6229973E0,4.5350776E0,-7.4866724E-1,8.015147E0,6.8956733E0,2.9515626E0,-1.8528174E0,-2.3273356E0,4.0503845E0,1.8611132E0,-2.5241332E0,-1.4456788E0,4.2103344E-1,-1.6289622E0],"split_indices":[3,2,2,2,1,2,3,1,1,2,1,3,2,1,2,1,2,1,1,1,2,2,2,0,2,0,0,1,0,1,1,0,0,0,0,0,0,0,0,0,0,0,0,0,0,0,0,0,0,0,0,0,0,0,0],"split_type":[0,0,0,0,0,0,0,0,0,0,0,0,0,0,0,0,0,0,0,0,0,0,0,0,0,0,0,0,0,0,0,0,0,0,0,0,0,0,0,0,0,0,0,0,0,0,0,0,0,0,0,0,0,0,0],"sum_hessian":[9.578E3,3.733E3,5.845E3,1.605E3,2.128E3,4.586E3,1.259E3,7.63E2,8.42E2,1.743E3,3.85E2,3.034E3,1.552E3,4.24E2,8.35E2,1.58E2,6.05E2,2.32E2,6.1E2,3.6E2,1.383E3,2.02E2,1.83E2,3.91E2,2.643E3,1.146E3,4.06E2,3.85E2,3.9E1,4.2E2,4.15E2,8.8E1,7E1,3.04E2,3.01E2,1.51E2,8.1E1,7.2E1,5.38E2,1.96E2,1.64E2,1.036E3,3.47E2,1.55E2,4.7E1,1.45E2,3.8E1,1.139E3,1.504E3,3.43E2,4.2E1,3.36E2,8.4E1,2.61E2,1.54E2],"tree_param":{"num_deleted":"0","num_feature":"4","num_nodes":"55","size_leaf_vector":"1"}},{"base_weights":[4.8691478E-1,2.894296E1,-1.7694777E1,-1.1917829E1,4.7728863E1,-2.3228542E1,2.87096E0,-2.0747093E1,3.9234623E-1,3.0210424E1,5.6215572E1,-1.9978935E1,-2.9742336E1,2.943941E0,-1.024046E1,-2.4568365E0,-1.6981401E0,2.3918228E0,3.6896057E0,6.0905945E1,4.1482587E0,-2.575891E0,-1.913993E1,-3.101649E0,-2.847907E0,-1.98687E0,-1.0854142E-1,6.4088297E0,5.4597716E0,-1.7240776E0,-2.1683638E0],"categories":[],"categories_nodes":[],"categories_segments":[],"categories_sizes":[],"default_left":[0,0,0,0,0,0,0,0,0,0,0,0,0,0,0,0,0,0,0,0,0,0,0,0,0,0,0,0,0,0,0],"id":24,"left_children":[1,3,5,7,9,11,13,15,-1,17,19,21,23,-1,25,-1,-1,-1,-1,27,-1,-1,29,-1,-1,-1,-1,-1,-1,-1,-1],"loss_changes":[4.943551E6,2.8599045E6,6.6355525E5,1.642852E5,3.777175E5,9.664825E4,4.3121056E5,1.0432656E4,0E0,3.424375E4,1.161925E5,1.4385E4,1.5745E3,0E0,7.305228E4,0E0,0E0,0E0,0E0,2.2619E4,0E0,0E0,1.25874375E4,0E0,0E0,0E0,0E0,0E0,0E0,0E0,0E0],"parents":[2147483647,0,0,1,1,2,2,3,3,4,4,5,5,6,6,7,7,9,9,10,10,11,11,12,12,14,14,19,19,22,22],"right_children":[2,4,6,8,10,12,14,16,-1,18,20,22,24,-1,26,-1,-1,-1,-1,28,-1,-1,30,-1,-1,-1,-1,-1,-1,-1,-1],"split_conditions":[-2.5881904E-1,-2.5881904E-1,9.659258E-1,-5E-1,2.5881904E-1,1.2246469E-16,-1.8369701E-16,-7.0710677E-1,3.9234623E-1,0E0,8.660254E-1,-1.8369701E-16,7.0710677E-1,2.943941E0,1E0,-2.4568365E0,-1.6981401E0,2.3918228E0,3.6896057E0,7.0710677E-1,4.1482587E0,-2.575891E0,-5E-1,-3.101649E0,-2.847907E0,-1.98687E0,-1.0854142E-1,6.4088297E0,5.4597716E0,-1.7240776E0,-2.1683638E0],"split_indices":[3,2,2,2,2,2,3,2,0,2,2,3,2,0,2,0,0,0,0,2,0,0,2,0,0,0,0,0,0,0,0],"split_type":[0,0,0,0,0,0,0,0,0,0,0,0,0,0,0,0,0,0,0,0,0,0,0,0,0,0,0,0,0,0,0],"sum_hessian":[9.553E3,3.724E3,5.829E3,1.173E3,2.551E3,4.593E3,1.236E3,7.53E2,4.2E2,8.34E2,1.717E3,3.067E3,1.526E3,4.08E2,8.28E2,3.71E2,3.82E2,4.32E2,4.02E2,1.3E3,4.17E2,3.85E2,2.682E3,7.48E2,7.78E2,4.03E2,4.25E2,8.58E2,4.42E2,1.54E3,1.142E3],"tree_param":{"num_deleted":"0","num_feature":"4","num_nodes":"31","size_leaf_vector":"1"}},{"base_weights":[-4.2053938E-1,-1.2358991E1,1.0968346E1,-1.6911436E1,-6.328272E0,1.7526134E1,1.9905521E0,-1.8072538E1,-1.3875026E1,-2.050046E1,-1.0444913E0,1.996818E1,6.4333425E0,3.0115702E1,5.3370193E-2,-1.5464948E0,-1.8725832E1,-1.56959305E1,5.1054716E-1,-4.619744E0,-4.744336E1,2.556779E0,-1.4557556E1,2.79619E1,1.8185946E1,-8.664185E0,2.150574E1,4.160377E0,2.4543806E1,2.369132E0,-9.257936E0,-2.1436474E0,-1.8402237E0,-8.673383E-1,-2.1202314E0,7.0873994E-1,-3.954118E0,-2.157503E0,7.6959354E-1,-1.579972E0,-6.8934855E0,-4.3617222E-1,1.0708238E0,-1.7302421E0,-1.4153805E0,5.885627E0,2.085484E0,1.2098454E0,2.299042E0,1.1290107E0,-5.4345646E0,3.2804177E0,1.9686669E0,2.8508E0,1.7585394E0,-4.141779E-1,5.0496817E-1,-3.188744E0,-4.0395212E-1],"categories":[],"categories_nodes":[],"categories_segments":[],"categories_sizes":[],"default_left":[0,0,0,0,0,0,0,0,0,0,0,0,0,0,0,0,0,0,0,0,0,0,0,0,0,0,0,0,0,0,0,0,0,0,0,0,0,0,0,0,0,0,0,0,0,0,0,0,0,0,0,0,0,0,0,0,0,0,0],"id":25,"left_children":[1,3,5,7,9,11,13,15,17,19,21,23,25,27,29,-1,31,33,35,37,39,41,43,45,47,49,51,-1,53,55,57,-1,-1,-1,-1,-1,-1,-1,-1,-1,-1,-1,-1,-1,-1,-1,-1,-1,-1,-1,-1,-1,-1,-1,-1,-1,-1,-1,-1],"loss_changes":[1.2983356E6,1.27885875E5,2.8768462E5,9.1131875E3,1.5026823E5,7.6371125E4,1.1245241E5,2.9778125E3,1.9365938E4,2.3297138E5,7.123294E4,3.245825E4,1.1646741E5,7.492242E3,4.1681203E4,0E0,9.46625E2,2.5182844E4,2.2407045E4,7.199869E4,1.3628481E5,6.524034E4,9.644531E1,9.099116E4,5.5145312E4,2.339681E5,4.615672E3,0E0,2.0364531E3,2.7037879E4,4.5335887E4,0E0,0E0,0E0,0E0,0E0,0E0,0E0,0E0,0E0,0E0,0E0,0E0,0E0,0E0,0E0,0E0,0E0,0E0,0E0,0E0,0E0,0E0,0E0,0E0,0E0,0E0,0E0,0E0],"parents":[2147483647,0,0,1,1,2,2,3,3,4,4,5,5,6,6,7,7,8,8,9,9,10,10,11,11,12,12,13,13,14,14,16,16,17,17,18,18,19,19,20,20,21,21,22,22,23,23,24,24,25,25,26,26,28,28,29,29,30,30],"right_children":[2,4,6,8,10,12,14,16,18,20,22,24,26,28,30,-1,32,34,36,38,40,42,44,46,48,50,52,-1,54,56,58,-1,-1,-1,-1,-1,-1,-1,-1,-1,-1,-1,-1,-1,-1,-1,-1,-1,-1,-1,-1,-1,-1,-1,-1,-1,-1,-1,-1],"split_conditions":[1.2246469E-16,-5E-1,8.660254E-1,-7.0710677E-1,8.3E1,8.9E1,8.1E1,-9.659258E-1,8.9E1,8.2E1,0E0,8.2E1,9E1,9.659258E-1,1E0,-1.5464948E0,8.1E1,8.4E1,9E1,8.1E1,-2.5881904E-1,8.7E1,8.4E1,2.5881904E-1,8.5E1,7.0710677E-1,2.5881904E-1,4.160377E0,1E0,8.4E1,8.3E1,-2.1436474E0,-1.8402237E0,-8.673383E-1,-2.1202314E0,7.0873994E-1,-3.954118E0,-2.157503E0,7.6959354E-1,-1.579972E0,-6.8934855E0,-4.3617222E-1,1.0708238E0,-1.7302421E0,-1.4153805E0,5.885627E0,2.085484E0,1.2098454E0,2.299042E0,1.1290107E0,-5.4345646E0,3.2804177E0,1.9686669E0,2.8508E0,1.7585394E0,-4.141779E-1,5.0496817E-1,-3.188744E0,-4.0395212E-1],"split_indices":[2,2,2,2,1,1,1,2,1,1,2,1,1,2,2,0,1,1,1,1,2,1,1,2,1,2,2,0,2,1,1,0,0,0,0,0,0,0,0,0,0,0,0,0,0,0,0,0,0,0,0,0,0,0,0,0,0,0,0],"split_type":[0,0,0,0,0,0,0,0,0,0,0,0,0,0,0,0,0,0,0,0,0,0,0,0,0,0,0,0,0,0,0,0,0,0,0,0,0,0,0,0,0,0,0,0,0,0,0,0,0,0,0,0,0,0,0,0,0,0,0],"sum_hessian":[9.547E3,4.661E3,4.886E3,2.655E3,2.006E3,2.823E3,2.063E3,1.917E3,7.38E2,5.44E2,1.462E3,2.313E3,5.1E2,1.32E2,1.931E3,3.89E2,1.528E3,6.55E2,8.3E1,3.43E2,2.01E2,1.155E3,3.07E2,4.19E2,1.894E3,2.55E2,2.55E2,4.1E1,9.1E1,1.547E3,3.84E2,1.56E2,1.372E3,2.89E2,3.66E2,7.2E1,1.1E1,1.44E2,1.99E2,8.2E1,1.19E2,6.25E2,5.3E2,3.4E1,2.73E2,7.7E1,3.42E2,8.37E2,1.057E3,1.78E2,7.7E1,3.3E1,2.22E2,5.6E1,3.5E1,4.51E2,1.096E3,7.1E1,3.13E2],"tree_param":{"num_deleted":"0","num_feature":"4","num_nodes":"59","size_leaf_vector":"1"}},{"base_weights":[4.980331E-1,2.6224445E1,-1.5880613E1,-9.888555E0,4.2893684E1,-2.0484993E1,9.5729023E-1,-1.6341038E1,2.0116375E-1,2.7493418E1,5.057761E1,-1.6636353E1,-2.798335E1,2.3929305E0,-1.0543583E1,-1.9678236E0,-1.2752227E0,2.2269027E0,3.2628744E0,5.406421E1,4.0089183E0,-2.1248624E0,-1.59396925E1,-2.9732597E0,-2.6262823E1,-1.8645983E0,-2.831204E-1,5.601484E0,5.028335E0,-1.3856146E0,-1.8692675E0,-2.7458627E0,-2.5016181E0],"categories":[],"categories_nodes":[],"categories_segments":[],"categories_sizes":[],"default_left":[0,0,0,0,0,0,0,0,0,0,0,0,0,0,0,0,0,0,0,0,0,0,0,0,0,0,0,0,0,0,0,0,0],"id":26,"left_children":[1,3,5,7,9,11,13,15,-1,17,19,21,23,-1,25,-1,-1,-1,-1,27,-1,-1,29,-1,31,-1,-1,-1,-1,-1,-1,-1,-1],"loss_changes":[4.02739E6,2.238572E6,4.5278388E5,9.0256164E4,2.996525E5,1.3187962E5,3.3182106E5,8.875203E3,0E0,2.2051188E4,5.9853E4,9.4069375E3,3.896125E3,0E0,5.225032E4,0E0,0E0,0E0,0E0,6.54975E3,0E0,0E0,1.48781875E4,0E0,4.9375E2,0E0,0E0,0E0,0E0,0E0,0E0,0E0,0E0],"parents":[2147483647,0,0,1,1,2,2,3,3,4,4,5,5,6,6,7,7,9,9,10,10,11,11,12,12,14,14,19,19,22,22,24,24],"right_children":[2,4,6,8,10,12,14,16,-1,18,20,22,24,-1,26,-1,-1,-1,-1,28,-1,-1,30,-1,32,-1,-1,-1,-1,-1,-1,-1,-1],"split_conditions":[-2.5881904E-1,-2.5881904E-1,9.659258E-1,-5E-1,2.5881904E-1,1.2246469E-16,-1.8369701E-16,-7.0710677E-1,2.0116375E-1,0E0,8.660254E-1,-1.8369701E-16,7.0710677E-1,2.3929305E0,1E0,-1.9678236E0,-1.2752227E0,2.2269027E0,3.2628744E0,7.0710677E-1,4.0089183E0,-2.1248624E0,-5E-1,-2.9732597E0,8.660254E-1,-1.8645983E0,-2.831204E-1,5.601484E0,5.028335E0,-1.3856146E0,-1.8692675E0,-2.7458627E0,-2.5016181E0],"split_indices":[3,2,2,2,2,2,3,2,0,2,2,3,2,0,2,0,0,0,0,2,0,0,2,0,2,0,0,0,0,0,0,0,0],"split_type":[0,0,0,0,0,0,0,0,0,0,0,0,0,0,0,0,0,0,0,0,0,0,0,0,0,0,0,0,0,0,0,0,0],"sum_hessian":[9.556E3,3.717E3,5.839E3,1.174E3,2.543E3,4.585E3,1.254E3,7.61E2,4.13E2,8.48E2,1.695E3,3.032E3,1.553E3,4.18E2,8.36E2,3.92E2,3.69E2,4.23E2,4.25E2,1.269E3,4.26E2,3.94E2,2.638E3,7.62E2,7.91E2,4.07E2,4.29E2,8.28E2,4.41E2,1.505E3,1.133E3,3.93E2,3.98E2],"tree_param":{"num_deleted":"0","num_feature":"4","num_nodes":"33","size_leaf_vector":"1"}},{"base_weights":[7.148769E-2,-1.0385389E1,1.0075184E1,-1.3768292E1,-3.1830697E0,2.936019E1,8.252628E0,-1.5262417E1,-1.0067436E1,-1.1775264E1,7.3020744E0,6.9439974E0,3.758116E1,1.642707E1,5.679259E0,-1.2428987E1,-2.6366846E1,-1.4307398E1,-7.343228E0,-1.3998724E1,-6.278723E0,1.2239177E1,-1.0771745E0,5.3220398E1,-9.608534E0,9.529863E0,2.916733E1,1.9103327E1,-6.754511E0,-8.84505E0,7.800251E0,-1.6324538E0,-8.089019E-2,-1.6217288E0,-3.3784502E0,-1.2145143E0,-1.4787443E0,-1.1649694E-1,-1.2933121E0,-1.267465E0,-1.4304184E0,-4.7594848E-1,-3.474762E0,1.5016494E0,-4.6588525E-1,5.997309E0,4.692551E0,-3.3724446E0,3.890389E0,2.4280527E0,1.5648682E0,1.5413704E0,-4.8644085E0,1.0543245E0,-1.9684753E0,1.0426126E0,9.3047105E-2],"categories":[],"categories_nodes":[],"categories_segments":[],"categories_sizes":[],"default_left":[0,0,0,0,0,0,0,0,0,0,0,0,0,0,0,0,0,0,0,0,0,0,0,0,0,0,0,0,0,0,0,0,0,0,0,0,0,0,0,0,0,0,0,0,0,0,0,0,0,0,0,0,0,0,0,0,0],"id":27,"left_children":[1,3,5,7,9,11,13,15,17,19,21,23,25,27,29,31,33,35,37,39,41,43,-1,45,-1,-1,47,49,51,53,55,-1,-1,-1,-1,-1,-1,-1,-1,-1,-1,-1,-1,-1,-1,-1,-1,-1,-1,-1,-1,-1,-1,-1,-1,-1,-1],"loss_changes":[1.0060096E6,1.1451922E5,1.7251006E5,1.7535375E4,1.3558194E5,7.787503E4,9.439981E4,7.1314875E4,1.0556086E4,1.0019156E4,6.0631336E4,5.5341375E5,1.4776416E5,6.682184E4,1.053637E5,8.2191E4,3.423422E4,1.9407812E2,1.9463125E4,5.6515625E1,1.0214865E4,2.5084281E4,0E0,5.8634375E2,0E0,0E0,1.6787106E5,1.6861531E4,1.0475489E5,9.1838766E4,5.380117E4,0E0,0E0,0E0,0E0,0E0,0E0,0E0,0E0,0E0,0E0,0E0,0E0,0E0,0E0,0E0,0E0,0E0,0E0,0E0,0E0,0E0,0E0,0E0,0E0,0E0,0E0],"parents":[2147483647,0,0,1,1,2,2,3,3,4,4,5,5,6,6,7,7,8,8,9,9,10,10,11,11,12,12,13,13,14,14,15,15,16,16,17,17,18,18,19,19,20,20,21,21,23,23,26,26,27,27,28,28,29,29,30,30],"right_children":[2,4,6,8,10,12,14,16,18,20,22,24,26,28,30,32,34,36,38,40,42,44,-1,46,-1,-1,48,50,52,54,56,-1,-1,-1,-1,-1,-1,-1,-1,-1,-1,-1,-1,-1,-1,-1,-1,-1,-1,-1,-1,-1,-1,-1,-1,-1,-1],"split_conditions":[1.2246469E-16,8.7E1,2.5881904E-1,8.5E1,-5E-1,8.3E1,8.3E1,8.4E1,-7.0710677E-1,-7.0710677E-1,0E0,8.2E1,8.4E1,1E0,8.4E1,8.3E1,-7.0710677E-1,-9.659258E-1,8.6E1,-9.659258E-1,9E1,9E1,-1.0771745E0,8.1E1,-9.608534E0,9.529863E0,8.5E1,7.0710677E-1,8.2E1,7.0710677E-1,9.659258E-1,-1.6324538E0,-8.089019E-2,-1.6217288E0,-3.3784502E0,-1.2145143E0,-1.4787443E0,-1.1649694E-1,-1.2933121E0,-1.267465E0,-1.4304184E0,-4.7594848E-1,-3.474762E0,1.5016494E0,-4.6588525E-1,5.997309E0,4.692551E0,-3.3724446E0,3.890389E0,2.4280527E0,1.5648682E0,1.5413704E0,-4.8644085E0,1.0543245E0,-1.9684753E0,1.0426126E0,9.3047105E-2],"split_indices":[2,1,2,1,2,1,1,1,2,2,2,1,1,2,1,1,2,2,1,2,1,1,0,1,0,0,1,2,1,2,2,0,0,0,0,0,0,0,0,0,0,0,0,0,0,0,0,0,0,0,0,0,0,0,0,0,0],"split_type":[0,0,0,0,0,0,0,0,0,0,0,0,0,0,0,0,0,0,0,0,0,0,0,0,0,0,0,0,0,0,0,0,0,0,0,0,0,0,0,0,0,0,0,0,0,0,0,0,0,0,0,0,0,0,0,0,0],"sum_hessian":[9.615E3,4.701E3,4.914E3,3.198E3,1.503E3,4.23E2,4.491E3,2.276E3,9.22E2,8.26E2,6.77E2,1.14E2,3.09E2,1.074E3,3.417E3,1.815E3,4.61E2,3.59E2,5.63E2,5.87E2,2.39E2,5.32E2,1.45E2,7.9E1,3.5E1,3.8E1,2.71E2,9.63E2,1.11E2,4.35E2,2.982E3,1.359E3,4.56E2,1.96E2,2.65E2,7E1,2.89E2,2.68E2,2.95E2,1.18E2,4.69E2,2.28E2,1.1E1,4.57E2,7.5E1,3.4E1,4.5E1,3.6E1,2.35E2,3.83E2,5.8E2,7.3E1,3.8E1,1.56E2,2.79E2,2.157E3,8.25E2],"tree_param":{"num_deleted":"0","num_feature":"4","num_nodes":"57","size_leaf_vector":"1"}},{"base_weights":[2.1457908E-1,1.865812E1,-1.6580214E1,2.54404E1,6.393249E0,-6.4794383E0,-1.852781E1,-1.2164246E0,2.798673E1,1.2817101E1,3.9094596E0,-2.7190711E0,-1.3638703E1,-1.9396732E1,-9.549738E0,3.419166E1,-2.7703997E1,4.5872475E1,2.5855387E1,1.8774925E1,6.3060126E0,-2.7082455E1,8.708888E0,-6.2474976E0,1.6960428E1,-3.2751026E1,-5.751144E0,-1.514138E1,-2.2318644E1,-7.0651994E0,-1.0134658E1,5.1349425E0,2.617146E0,-3.1839743E0,-2.374108E0,5.2003E0,2.7184358E0,1.1292179E-1,2.8928163E0,1.7249048E-1,2.790157E0,9.149386E-1,4.7706348E-1,-5.255453E0,6.4565735E-3,1.5791396E0,1.5811746E-1,-1.1126341E0,-1.3841183E-1,-1.0819409E0,4.1761665E0,-1.1226733E0,-5.2470565E0,8.810464E-2,-1.006941E0,-9.4944686E-1,-1.5498202E0,-1.2726169E0,-2.2836905E0,-1.2291045E0,-2.0002574E-2,-1.3748999E0,-9.585554E-1],"categories":[],"categories_nodes":[],"categories_segments":[],"categories_sizes":[],"default_left":[0,0,0,0,0,0,0,0,0,0,0,0,0,0,0,0,0,0,0,0,0,0,0,0,0,0,0,0,0,0,0,0,0,0,0,0,0,0,0,0,0,0,0,0,0,0,0,0,0,0,0,0,0,0,0,0,0,0,0,0,0,0,0],"id":28,"left_children":[1,3,5,7,9,11,13,15,17,19,21,23,25,27,29,31,33,35,37,39,41,43,45,47,49,51,53,55,57,59,61,-1,-1,-1,-1,-1,-1,-1,-1,-1,-1,-1,-1,-1,-1,-1,-1,-1,-1,-1,-1,-1,-1,-1,-1,-1,-1,-1,-1,-1,-1,-1,-1],"loss_changes":[2.9525888E6,3.7774112E5,9.802475E4,1.9857475E5,2.5781828E4,2.1715457E4,3.24395E4,2.4104306E5,1.00596125E5,1.7376758E4,1.7411698E5,3.6977363E4,4.1720023E4,4.7059625E4,4.675547E2,1.3793078E4,1.6533594E3,3.1009125E4,1.8140288E5,3.652011E4,9.0369824E2,1.0856748E5,5.111339E4,1.0685777E4,5.6258758E4,3.3791305E4,5.6795044E3,2.986125E3,1.093475E4,2.6523909E3,4.5963477E2,0E0,0E0,0E0,0E0,0E0,0E0,0E0,0E0,0E0,0E0,0E0,0E0,0E0,0E0,0E0,0E0,0E0,0E0,0E0,0E0,0E0,0E0,0E0,0E0,0E0,0E0,0E0,0E0,0E0,0E0,0E0,0E0],"parents":[2147483647,0,0,1,1,2,2,3,3,4,4,5,5,6,6,7,7,8,8,9,9,10,10,11,11,12,12,13,13,14,14,15,15,16,16,17,17,18,18,19,19,20,20,21,21,22,22,23,23,24,24,25,25,26,26,27,27,28,28,29,29,30,30],"right_children":[2,4,6,8,10,12,14,16,18,20,22,24,26,28,30,32,34,36,38,40,42,44,46,48,50,52,54,56,58,60,62,-1,-1,-1,-1,-1,-1,-1,-1,-1,-1,-1,-1,-1,-1,-1,-1,-1,-1,-1,-1,-1,-1,-1,-1,-1,-1,-1,-1,-1,-1,-1,-1],"split_conditions":[-1.8369701E-16,-5E-1,2.5881904E-1,8.1E1,8.3E1,8.7E1,1E0,-8.660254E-1,8.2E1,-2.5881904E-1,8.4E1,8.6E1,8.8E1,7.0710677E-1,8.3E1,-9.659258E-1,-7.0710677E-1,-7.0710677E-1,8.3E1,8.1E1,8.1E1,-2.5881904E-1,-2.5881904E-1,6.123234E-17,6.123234E-17,6.123234E-17,8.9E1,8.1E1,8.1E1,8.2E1,8.4E1,5.1349425E0,2.617146E0,-3.1839743E0,-2.374108E0,5.2003E0,2.7184358E0,1.1292179E-1,2.8928163E0,1.7249048E-1,2.790157E0,9.149386E-1,4.7706348E-1,-5.255453E0,6.4565735E-3,1.5791396E0,1.5811746E-1,-1.1126341E0,-1.3841183E-1,-1.0819409E0,4.1761665E0,-1.1226733E0,-5.2470565E0,8.810464E-2,-1.006941E0,-9.4944686E-1,-1.5498202E0,-1.2726169E0,-2.2836905E0,-1.2291045E0,-2.0002574E-2,-1.3748999E0,-9.585554E-1],"split_indices":[3,3,3,1,1,1,3,3,1,3,1,1,1,3,1,3,3,3,1,1,1,3,3,3,3,3,1,1,1,1,1,0,0,0,0,0,0,0,0,0,0,0,0,0,0,0,0,0,0,0,0,0,0,0,0,0,0,0,0,0,0,0,0],"split_type":[0,0,0,0,0,0,0,0,0,0,0,0,0,0,0,0,0,0,0,0,0,0,0,0,0,0,0,0,0,0,0,0,0,0,0,0,0,0,0,0,0,0,0,0,0,0,0,0,0,0,0,0,0,0,0,0,0,0,0,0,0,0,0],"sum_hessian":[9.53E3,4.542E3,4.988E3,2.924E3,1.618E3,8.07E2,4.181E3,2.55E2,2.669E3,4.5E2,1.168E3,5.3E2,2.77E2,3.811E3,3.7E2,1.09E2,1.46E2,2.82E2,2.387E3,2.34E2,2.16E2,1.56E2,1.012E3,4.5E2,8E1,8E1,1.97E2,1.554E3,2.257E3,7.3E1,2.97E2,3.3E1,7.6E1,6.8E1,7.8E1,2.11E2,7.1E1,2.64E2,2.123E3,8.2E1,1.52E2,7.4E1,1.42E2,8E1,7.6E1,5.07E2,5.05E2,2.24E2,2.26E2,3.8E1,4.2E1,3.9E1,4.1E1,7.8E1,1.19E2,9.4E1,1.46E3,1.17E2,2.14E3,4.1E1,3.2E1,3.6E1,2.61E2],"tree_param":{"num_deleted":"0","num_feature":"4","num_nodes":"63","size_leaf_vector":"1"}},{"base_weights":[-9.085832E-2,-9.59852E0,8.794285E0,-1.1980103E1,-4.467406E0,2.0720804E1,6.671093E0,-9.833839E0,-1.4761964E1,-1.0378313E1,2.9008822E0,4.9628735E0,1.726586E1,1.1965814E1,2.948524E0,-1.3270165E1,8.216297E-1,-2.3591442E1,-9.968104E0,-9.939889E0,-3.4658515E0,6.137784E0,-1.2428863E1,8.231879E0,1.9152811E1,1.6595684E1,1.0631639E1,4.9635043E0,-3.9004788E0,-1.0905681E0,-1.8001187E0,-1.4114902E0,1.2141172E0,-1.4219975E0,-2.9661405E0,-6.888179E-1,-1.2984531E0,-1.2202691E0,-3.9665747E-1,1.0147389E0,-8.7336934E-1,-2.191141E0,-7.5877523E-1,1.1879543E0,6.396341E-1,2.1186552E0,1.5589598E0,9.4537544E-1,2.395211E0,1.8805895E0,8.5705966E-1,-3.731985E-1,8.4585476E-1,-1.6807679E0,1.0808142E-1],"categories":[],"categories_nodes":[],"categories_segments":[],"categories_sizes":[],"default_left":[0,0,0,0,0,0,0,0,0,0,0,0,0,0,0,0,0,0,0,0,0,0,0,0,0,0,0,0,0,0,0,0,0,0,0,0,0,0,0,0,0,0,0,0,0,0,0,0,0,0,0,0,0,0,0],"id":29,"left_children":[1,3,5,7,9,11,13,15,17,19,21,-1,23,25,27,29,31,33,35,37,-1,39,41,43,45,47,49,51,53,-1,-1,-1,-1,-1,-1,-1,-1,-1,-1,-1,-1,-1,-1,-1,-1,-1,-1,-1,-1,-1,-1,-1,-1,-1,-1],"loss_changes":[8.061634E5,5.6281438E4,1.24776625E5,1.8650312E4,6.374854E4,7.355016E4,8.252975E4,6.5186797E4,5.7710906E4,8.299258E3,3.2429102E4,0E0,1.1212484E4,1.0503703E4,3.3982656E4,1.4860625E4,7.371886E4,2.6939594E4,8.1696953E3,1.0751227E4,0E0,3.2228521E4,5.0670312E3,7.073794E2,3.662625E3,2.0001102E4,2.2498672E4,5.783546E4,3.6023113E4,0E0,0E0,0E0,0E0,0E0,0E0,0E0,0E0,0E0,0E0,0E0,0E0,0E0,0E0,0E0,0E0,0E0,0E0,0E0,0E0,0E0,0E0,0E0,0E0,0E0,0E0],"parents":[2147483647,0,0,1,1,2,2,3,3,4,4,5,5,6,6,7,7,8,8,9,9,10,10,12,12,13,13,14,14,15,15,16,16,17,17,18,18,19,19,21,21,22,22,23,23,24,24,25,25,26,26,27,27,28,28],"right_children":[2,4,6,8,10,12,14,16,18,20,22,-1,24,26,28,30,32,34,36,38,-1,40,42,44,46,48,50,52,54,-1,-1,-1,-1,-1,-1,-1,-1,-1,-1,-1,-1,-1,-1,-1,-1,-1,-1,-1,-1,-1,-1,-1,-1,-1,-1],"split_conditions":[1.2246469E-16,8.7E1,8.2E1,8.4E1,-5E-1,2.5881904E-1,7.0710677E-1,8.3E1,8.5E1,9E1,9E1,4.9628735E0,5E-1,8.4E1,8.9E1,8.2E1,-7.0710677E-1,-7.0710677E-1,8.6E1,-7.0710677E-1,-3.4658515E0,0E0,-2.5881904E-1,8.1E1,9.659258E-1,8.3E1,2.5881904E-1,8.4E1,8.660254E-1,-1.0905681E0,-1.8001187E0,-1.4114902E0,1.2141172E0,-1.4219975E0,-2.9661405E0,-6.888179E-1,-1.2984531E0,-1.2202691E0,-3.9665747E-1,1.0147389E0,-8.7336934E-1,-2.191141E0,-7.5877523E-1,1.1879543E0,6.396341E-1,2.1186552E0,1.5589598E0,9.4537544E-1,2.395211E0,1.8805895E0,8.5705966E-1,-3.731985E-1,8.4585476E-1,-1.6807679E0,1.0808142E-1],"split_indices":[2,1,1,1,2,2,2,1,1,1,1,0,2,1,1,1,2,2,1,2,0,2,2,1,2,1,2,1,2,0,0,0,0,0,0,0,0,0,0,0,0,0,0,0,0,0,0,0,0,0,0,0,0,0,0],"split_type":[0,0,0,0,0,0,0,0,0,0,0,0,0,0,0,0,0,0,0,0,0,0,0,0,0,0,0,0,0,0,0,0,0,0,0,0,0,0,0,0,0,0,0,0,0,0,0,0,0,0,0,0,0,0,0],"sum_hessian":[9.541E3,4.609E3,4.932E3,3.147E3,1.462E3,7.44E2,4.188E3,1.779E3,1.368E3,8.11E2,6.51E2,7.8E1,6.66E2,1.728E3,2.46E3,1.345E3,4.34E2,4.8E2,8.88E2,7.98E2,1.3E1,5.38E2,1.13E2,1.16E2,5.5E2,3.84E2,1.344E3,1.901E3,5.59E2,8.99E2,4.46E2,1.87E2,2.47E2,1.9E2,2.9E2,4.41E2,4.47E2,5.78E2,2.2E2,4.24E2,1.14E2,3.7E1,7.6E1,3.7E1,7.9E1,3.47E2,2.03E2,1.96E2,1.88E2,2.69E2,1.075E3,5.45E2,1.356E3,1.55E2,4.04E2],"tree_param":{"num_deleted":"0","num_feature":"4","num_nodes":"55","size_leaf_vector":"1"}},{"base_weights":[1.1951839E-1,1.632425E1,-1.4670229E1,-1.0419137E1,3.0218645E1,-4.8228984E0,-1.655156E1,-1.5047029E1,2.8846383E-1,1.6065226E1,3.5873863E1,-9.015579E-1,-1.09895304E-1,-1.0952639E1,-2.297616E1,-1.6884655E0,-1.1160704E0,1.2850505E0,1.931008E0,4.335026E1,2.4415333E1,-8.224367E0,-1.35785055E1,-2.4869719E1,-1.5995023E0,4.5104976E0,4.0033107E0,2.8845413E0,1.979E0,-7.322799E-1,-1.0074781E0,-1.65844E0,-7.254642E-1,-2.6861815E0,-2.2878947E0],"categories":[],"categories_nodes":[],"categories_segments":[],"categories_sizes":[],"default_left":[0,0,0,0,0,0,0,0,0,0,0,0,0,0,0,0,0,0,0,0,0,0,0,0,0,0,0,0,0,0,0,0,0,0,0],"id":30,"left_children":[1,3,5,7,9,11,13,15,-1,17,19,-1,-1,21,23,-1,-1,-1,-1,25,27,29,31,33,-1,-1,-1,-1,-1,-1,-1,-1,-1,-1,-1],"loss_changes":[2.299335E6,1.7014229E6,9.2847E4,9.645958E4,2.4058625E5,1.2574424E4,1.5122138E5,8.1100938E3,0E0,8.743625E3,1.8330025E5,0E0,0E0,1.6021844E4,2.5511812E4,0E0,0E0,0E0,0E0,5.767E3,1.6887188E4,1.7730078E3,2.1663844E4,5.4928125E3,0E0,0E0,0E0,0E0,0E0,0E0,0E0,0E0,0E0,0E0,0E0],"parents":[2147483647,0,0,1,1,2,2,3,3,4,4,5,5,6,6,7,7,9,9,10,10,13,13,14,14,19,19,20,20,21,21,22,22,23,23],"right_children":[2,4,6,8,10,12,14,16,-1,18,20,-1,-1,22,24,-1,-1,-1,-1,26,28,30,32,34,-1,-1,-1,-1,-1,-1,-1,-1,-1,-1,-1],"split_conditions":[-1.8369701E-16,-2.5881904E-1,2.5881904E-1,-5E-1,2.5881904E-1,-9.659258E-1,1.2246469E-16,-7.0710677E-1,2.8846383E-1,0E0,8.660254E-1,-9.015579E-1,-1.09895304E-1,-5E-1,9.659258E-1,-1.6884655E0,-1.1160704E0,1.2850505E0,1.931008E0,7.0710677E-1,9.659258E-1,-7.0710677E-1,0E0,7.0710677E-1,-1.5995023E0,4.5104976E0,4.0033107E0,2.8845413E0,1.979E0,-7.322799E-1,-1.0074781E0,-1.65844E0,-7.254642E-1,-2.6861815E0,-2.2878947E0],"split_indices":[3,2,3,2,2,2,2,2,0,2,2,0,0,2,2,0,0,0,0,2,2,2,2,2,0,0,0,0,0,0,0,0,0,0,0],"split_type":[0,0,0,0,0,0,0,0,0,0,0,0,0,0,0,0,0,0,0,0,0,0,0,0,0,0,0,0,0,0,0,0,0,0,0],"sum_hessian":[9.592E3,4.577E3,5.015E3,1.565E3,3.012E3,8.05E2,4.21E3,1.161E3,4.04E2,8.61E2,2.151E3,3.78E2,4.27E2,2.251E3,1.959E3,7.86E2,3.75E2,4.35E2,4.26E2,1.3E3,8.51E2,1.106E3,1.145E3,1.539E3,4.2E2,8.42E2,4.58E2,4.32E2,4.19E2,7.47E2,3.59E2,7.75E2,3.7E2,7.63E2,7.76E2],"tree_param":{"num_deleted":"0","num_feature":"4","num_nodes":"35","size_leaf_vector":"1"}},{"base_weights":[-2.840602E-1,1.6995445E1,-1.131122E1,2.010549E0,3.4886284E1,-1.4340554E1,-4.456602E-1,-1.1244649E1,9.692265E0,3.972886E1,3.0059526E1,-1.0243233E1,-2.2411398E1,1.4377451E0,-7.99686E0,-1.4849021E0,-7.6391274E-1,2.8498968E-1,1.31101265E1,3.4545693E0,4.4854727E0,3.1768692E0,2.8113892E0,-1.5180515E0,-9.535113E0,-2.4167044E0,-2.0654023E0,-1.391363E0,-2.2674564E-1,1.0199579E0,1.614946E0,-7.61321E-1,-1.2085916E0],"categories":[],"categories_nodes":[],"categories_segments":[],"categories_sizes":[],"default_left":[0,0,0,0,0,0,0,0,0,0,0,0,0,0,0,0,0,0,0,0,0,0,0,0,0,0,0,0,0,0,0,0,0],"id":31,"left_children":[1,3,5,7,9,11,13,15,17,19,21,23,25,-1,27,-1,-1,-1,29,-1,-1,-1,-1,-1,31,-1,-1,-1,-1,-1,-1,-1,-1],"loss_changes":[1.8254121E6,1.0004506E6,1.92483E5,2.0701262E5,3.8564625E4,1.5099412E5,1.4294056E5,9.58132E3,3.0060773E4,2.092725E4,1.953375E3,1.04661875E4,4.2491875E3,0E0,2.8647484E4,0E0,0E0,0E0,7.4252656E3,0E0,0E0,0E0,0E0,0E0,1.2933641E4,0E0,0E0,0E0,0E0,0E0,0E0,0E0,0E0],"parents":[2147483647,0,0,1,1,2,2,3,3,4,4,5,5,6,6,7,7,8,8,9,9,10,10,11,11,12,12,14,14,18,18,24,24],"right_children":[2,4,6,8,10,12,14,16,18,20,22,24,26,-1,28,-1,-1,-1,30,-1,-1,-1,-1,-1,32,-1,-1,-1,-1,-1,-1,-1,-1],"split_conditions":[-2.5881904E-1,2.5881904E-1,9.659258E-1,-5E-1,7.0710677E-1,1.2246469E-16,-1.8369701E-16,-7.0710677E-1,-2.5881904E-1,5E-1,8.660254E-1,-1.8369701E-16,7.0710677E-1,1.4377451E0,1E0,-1.4849021E0,-7.6391274E-1,2.8498968E-1,0E0,3.4545693E0,4.4854727E0,3.1768692E0,2.8113892E0,-1.5180515E0,-5E-1,-2.4167044E0,-2.0654023E0,-1.391363E0,-2.2674564E-1,1.0199579E0,1.614946E0,-7.61321E-1,-1.2085916E0],"split_indices":[3,2,2,2,2,2,3,2,2,2,2,3,2,0,2,0,0,0,2,0,0,0,0,0,2,0,0,0,0,0,0,0,0],"split_type":[0,0,0,0,0,0,0,0,0,0,0,0,0,0,0,0,0,0,0,0,0,0,0,0,0,0,0,0,0,0,0,0,0],"sum_hessian":[9.578E3,3.731E3,5.847E3,2.031E3,1.7E3,4.572E3,1.275E3,7.45E2,1.286E3,8.45E2,8.55E2,3.034E3,1.538E3,4.3E2,8.45E2,3.71E2,3.74E2,4.29E2,8.57E2,4.24E2,4.21E2,4.47E2,4.08E2,3.78E2,2.656E3,7.63E2,7.75E2,4.15E2,4.3E2,4.4E2,4.17E2,1.517E3,1.139E3],"tree_param":{"num_deleted":"0","num_feature":"4","num_nodes":"33","size_leaf_vector":"1"}},{"base_weights":[2.6810268E-1,1.3652726E1,-1.1781575E1,-8.346921E0,2.544749E1,-1.3027699E1,1.6272278E0,-3.3750626E1,-5.695978E0,1.4385344E1,2.988657E1,-8.69597E0,-1.8807726E1,6.530618E0,-7.2287397E0,-2.2465055E1,-6.293054E0,-1.28747E1,1.2539065E0,-5.2645516E0,3.1239681E1,3.408117E1,1.1113026E1,-6.863161E0,-1.1121206E1,-2.0165323E1,-1.35996685E1,7.063563E-1,3.7224312E0,-4.0261474E0,2.910303E0,-1.7659018E0,-3.1720102E0,-1.0366505E0,-1.357565E0,3.4987998E-1,-2.9256823E0,3.7139375E0,-3.4796014E0,3.547934E0,5.713834E-1,4.0148077E0,2.4891198E0,-4.3144447E-1,2.6482916E0,-6.3158727E-1,-8.5661966E-1,-1.3876475E0,-5.4470134E-1,-2.17216E0,-1.861111E0,-1.8585914E0,-8.166992E-1,1.1847143E0,-4.9764085E-1,1.9038849E0,-6.5905815E-1],"categories":[],"categories_nodes":[],"categories_segments":[],"categories_sizes":[],"default_left":[0,0,0,0,0,0,0,0,0,0,0,0,0,0,0,0,0,0,0,0,0,0,0,0,0,0,0,0,0,0,0,0,0,0,0,0,0,0,0,0,0,0,0,0,0,0,0,0,0,0,0,0,0,0,0,0,0],"id":32,"left_children":[1,3,5,7,9,11,13,15,17,19,21,23,25,27,29,31,-1,33,35,37,39,41,43,45,47,49,51,53,-1,-1,55,-1,-1,-1,-1,-1,-1,-1,-1,-1,-1,-1,-1,-1,-1,-1,-1,-1,-1,-1,-1,-1,-1,-1,-1,-1,-1],"loss_changes":[1.539421E6,1.1735838E6,8.395069E4,1.0614355E5,1.441375E5,1.14908875E5,1.8632795E4,4.765375E4,7.141057E4,2.800166E5,1.6499088E5,1.16095625E4,1.36404375E4,4.9313703E4,5.135998E4,4.2881836E3,0E0,1.0969766E3,4.9965504E4,4.9092206E5,4.903772E4,9.4675875E4,9.1404875E4,1.3439766E3,1.759075E4,3.3665625E3,1.09545625E4,1.4810296E4,0E0,0E0,1.8207262E4,0E0,0E0,0E0,0E0,0E0,0E0,0E0,0E0,0E0,0E0,0E0,0E0,0E0,0E0,0E0,0E0,0E0,0E0,0E0,0E0,0E0,0E0,0E0,0E0,0E0,0E0],"parents":[2147483647,0,0,1,1,2,2,3,3,4,4,5,5,6,6,7,7,8,8,9,9,10,10,11,11,12,12,13,13,14,14,15,15,17,17,18,18,19,19,20,20,21,21,22,22,23,23,24,24,25,25,26,26,27,27,30,30],"right_children":[2,4,6,8,10,12,14,16,18,20,22,24,26,28,30,32,-1,34,36,38,40,42,44,46,48,50,52,54,-1,-1,56,-1,-1,-1,-1,-1,-1,-1,-1,-1,-1,-1,-1,-1,-1,-1,-1,-1,-1,-1,-1,-1,-1,-1,-1,-1,-1],"split_conditions":[-1.8369701E-16,-2.5881904E-1,1E0,8.1E1,2.5881904E-1,1.2246469E-16,8.7E1,-5E-1,-7.0710677E-1,8.5E1,8.9E1,-5E-1,9.659258E-1,8.6E1,8.8E1,-7.0710677E-1,-6.293054E0,8.3E1,9E1,8.2E1,9E1,8.660254E-1,9E1,-7.0710677E-1,0E0,7.0710677E-1,8.6E1,8.2E1,3.7224312E0,-4.0261474E0,8.9E1,-1.7659018E0,-3.1720102E0,-1.0366505E0,-1.357565E0,3.4987998E-1,-2.9256823E0,3.7139375E0,-3.4796014E0,3.547934E0,5.713834E-1,4.0148077E0,2.4891198E0,-4.3144447E-1,2.6482916E0,-6.3158727E-1,-8.5661966E-1,-1.3876475E0,-5.4470134E-1,-2.17216E0,-1.861111E0,-1.8585914E0,-8.166992E-1,1.1847143E0,-4.9764085E-1,1.9038849E0,-6.5905815E-1],"split_indices":[3,2,2,1,2,2,1,2,2,1,1,2,2,1,1,2,0,1,1,1,1,2,1,2,2,2,1,1,0,0,1,0,0,0,0,0,0,0,0,0,0,0,0,0,0,0,0,0,0,0,0,0,0,0,0,0,0],"split_type":[0,0,0,0,0,0,0,0,0,0,0,0,0,0,0,0,0,0,0,0,0,0,0,0,0,0,0,0,0,0,0,0,0,0,0,0,0,0,0,0,0,0,0,0,0,0,0,0,0,0,0,0,0,0,0,0,0],"sum_hessian":[9.543E3,4.521E3,5.022E3,1.578E3,2.943E3,4.595E3,4.27E2,1.48E2,1.43E3,8.44E2,2.099E3,2.628E3,1.967E3,2.75E2,1.52E2,1.08E2,4E1,7.03E2,7.27E2,3.9E2,4.54E2,1.715E3,3.84E2,1.499E3,1.129E3,1.558E3,4.09E2,2.32E2,4.3E1,3.5E1,1.17E2,7.3E1,3.5E1,1.57E2,5.46E2,6.78E2,4.9E1,1.6E2,2.3E2,3.89E2,6.5E1,1.031E3,6.84E2,1.92E2,1.92E2,1.138E3,3.61E2,7.59E2,3.7E2,7.72E2,7.86E2,2.12E2,1.97E2,7.8E1,1.54E2,4.3E1,7.4E1],"tree_param":{"num_deleted":"0","num_feature":"4","num_nodes":"57","size_leaf_vector":"1"}},{"base_weights":[-1.3051486E-1,1.1243382E1,-1.0453017E1,-8.628606E0,2.1888649E1,-5.5762777E0,-1.2658048E1,-3.280549E1,-5.9437695E0,1.3821435E1,2.5141172E1,-7.536509E0,-2.1216281E-1,-8.203084E0,-1.823013E1,-1.6466551E0,-4.9352264E1,-9.493819E0,3.6457262E0,-1.6966042E1,2.5456463E1,2.8318317E1,1.1236811E1,-6.2000656E0,-1.0104133E1,1.3509525E1,-3.011093E0,-6.480427E0,-1.2010992E1,-2.1122288E1,-1.7452585E1,-3.6886113E0,-5.9159293E0,-1.0938877E0,5.4024626E-2,-3.0039918E-1,1.401452E0,3.2939928E0,-1.1344678E1,8.177129E0,1.6809775E0,3.4916763E0,1.8301724E0,-2.9528585E-1,2.6725295E0,-6.697271E-1,-5.6943953E-1,9.4705814E-1,-1.096919E0,1.5974516E0,1.0006115E0,-5.8041196E0,2.9382232E-1,-5.229581E-1,-8.561336E-1,-1.4170605E0,-5.451541E-1,-2.1712074E0,-1.8914022E0,-1.8883082E0,-1.6069926E0],"categories":[],"categories_nodes":[],"categories_segments":[],"categories_sizes":[],"default_left":[0,0,0,0,0,0,0,0,0,0,0,0,0,0,0,0,0,0,0,0,0,0,0,0,0,0,0,0,0,0,0,0,0,0,0,0,0,0,0,0,0,0,0,0,0,0,0,0,0,0,0,0,0,0,0,0,0,0,0,0,0],"id":33,"left_children":[1,3,5,7,9,11,13,15,17,19,21,23,25,27,29,-1,31,33,35,37,39,41,43,45,47,49,51,53,55,57,59,-1,-1,-1,-1,-1,-1,-1,-1,-1,-1,-1,-1,-1,-1,-1,-1,-1,-1,-1,-1,-1,-1,-1,-1,-1,-1,-1,-1,-1,-1],"loss_changes":[1.1193594E6,9.59746E5,5.3674688E4,1.0255908E5,7.7162E4,1.6380629E4,8.5267875E4,4.1903688E4,4.85802E4,3.052713E5,9.2628375E4,3.852668E3,1.6094405E4,1.2477484E4,3.0674688E3,0E0,7.353797E3,1.5100211E4,2.6656625E4,1.1304386E6,2.9955238E5,1.12513875E5,8.645106E4,1.511836E2,6.69091E3,4.533047E2,1.1410278E5,3.3910508E3,8.3514375E3,4.796875E0,2.0898125E3,0E0,0E0,0E0,0E0,0E0,0E0,0E0,0E0,0E0,0E0,0E0,0E0,0E0,0E0,0E0,0E0,0E0,0E0,0E0,0E0,0E0,0E0,0E0,0E0,0E0,0E0,0E0,0E0,0E0,0E0],"parents":[2147483647,0,0,1,1,2,2,3,3,4,4,5,5,6,6,7,7,8,8,9,9,10,10,11,11,12,12,13,13,14,14,16,16,17,17,18,18,19,19,20,20,21,21,22,22,23,23,24,24,25,25,26,26,27,27,28,28,29,29,30,30],"right_children":[2,4,6,8,10,12,14,16,18,20,22,24,26,28,30,-1,32,34,36,38,40,42,44,46,48,50,52,54,56,58,60,-1,-1,-1,-1,-1,-1,-1,-1,-1,-1,-1,-1,-1,-1,-1,-1,-1,-1,-1,-1,-1,-1,-1,-1,-1,-1,-1,-1,-1,-1],"split_conditions":[-1.8369701E-16,-2.5881904E-1,5E-1,8.1E1,2.5881904E-1,1E0,1.2246469E-16,-7.0710677E-1,-5E-1,8.3E1,8.9E1,-8.660254E-1,8.2E1,8.7E1,8.3E1,-1.6466551E0,-5E-1,8.9E1,8.7E1,8.2E1,8.4E1,8.660254E-1,9E1,-9.659258E-1,8.1E1,8.1E1,8.3E1,-2.5881904E-1,0E0,8.660254E-1,7.0710677E-1,-3.6886113E0,-5.9159293E0,-1.0938877E0,5.4024626E-2,-3.0039918E-1,1.401452E0,3.2939928E0,-1.1344678E1,8.177129E0,1.6809775E0,3.4916763E0,1.8301724E0,-2.9528585E-1,2.6725295E0,-6.697271E-1,-5.6943953E-1,9.4705814E-1,-1.096919E0,1.5974516E0,1.0006115E0,-5.8041196E0,2.9382232E-1,-5.229581E-1,-8.561336E-1,-1.4170605E0,-5.451541E-1,-2.1712074E0,-1.8914022E0,-1.8883082E0,-1.6069926E0],"split_indices":[3,2,3,1,2,2,2,2,2,1,1,2,1,1,1,0,2,1,1,1,1,2,1,2,1,1,1,2,2,2,2,0,0,0,0,0,0,0,0,0,0,0,0,0,0,0,0,0,0,0,0,0,0,0,0,0,0,0,0,0,0],"split_type":[0,0,0,0,0,0,0,0,0,0,0,0,0,0,0,0,0,0,0,0,0,0,0,0,0,0,0,0,0,0,0,0,0,0,0,0,0,0,0,0,0,0,0,0,0,0,0,0,0,0,0,0,0,0,0,0,0,0,0,0,0],"sum_hessian":[9.532E3,4.535E3,4.997E3,1.582E3,2.953E3,1.557E3,3.44E3,1.57E2,1.425E3,8.5E2,2.103E3,1.14E3,4.17E2,1.913E3,1.527E3,8E1,7.7E1,1.04E3,3.85E2,2.33E2,6.17E2,1.711E3,3.92E2,7.52E2,3.88E2,7E1,3.47E2,1.319E3,5.94E2,3.18E2,1.209E3,3.6E1,4.1E1,9.09E2,1.31E2,2.35E2,1.5E2,1.54E2,7.9E1,8.1E1,5.36E2,1.03E3,6.81E2,2.05E2,1.87E2,3.73E2,3.79E2,1.6E1,3.72E2,3.9E1,3.1E1,3.3E1,3.14E2,8.26E2,4.93E2,4.46E2,1.48E2,2.44E2,7.4E1,5.88E2,6.21E2],"tree_param":{"num_deleted":"0","num_feature":"4","num_nodes":"61","size_leaf_vector":"1"}},{"base_weights":[-1.00099385E-1,1.0650496E1,-9.743206E0,-7.486441E0,2.0158316E1,-5.807023E0,-1.2138708E1,-1.1105418E0,-4.0181313E0,1.0861409E1,2.3870153E1,-5.012706E0,-7.0177884E0,-1.36417465E1,-2.1963762E-1,-6.4670473E-1,-1.8723439E-1,1.1372069E0,1.0302196E0,2.979793E1,1.9952381E1,-5.605429E0,-3.8626763E-1,-6.652655E-1,-7.368023E-1,-1.5186154E1,-4.1854593E-1,2.575567E0,3.3817146E0,2.2012737E0,1.5460067E0,-6.0268676E-1,-5.154194E-1,-1.6145142E0,-1.0490655E0],"categories":[],"categories_nodes":[],"categories_segments":[],"categories_sizes":[],"default_left":[0,0,0,0,0,0,0,0,0,0,0,0,0,0,0,0,0,0,0,0,0,0,0,0,0,0,0,0,0,0,0,0,0,0,0],"id":34,"left_children":[1,3,5,7,9,11,13,-1,15,17,19,21,23,25,-1,-1,-1,-1,-1,27,29,31,-1,-1,-1,33,-1,-1,-1,-1,-1,-1,-1,-1,-1],"loss_changes":[9.850642E5,7.749362E5,4.716003E4,1.9360352E4,1.01472125E5,1.7892266E3,4.6489844E4,0E0,4.1444795E3,1.23578125E2,4.83145E4,7.615625E2,4.6765625E1,3.9426656E4,0E0,0E0,0E0,0E0,0E0,1.27113125E4,1.142375E4,1.12703125E2,0E0,0E0,0E0,1.0295375E4,0E0,0E0,0E0,0E0,0E0,0E0,0E0,0E0,0E0],"parents":[2147483647,0,0,1,1,2,2,3,3,4,4,5,5,6,6,8,8,9,9,10,10,11,11,12,12,13,13,19,19,20,20,21,21,25,25],"right_children":[2,4,6,8,10,12,14,-1,16,18,20,22,24,26,-1,-1,-1,-1,-1,28,30,32,-1,-1,-1,34,-1,-1,-1,-1,-1,-1,-1,-1,-1],"split_conditions":[-1.8369701E-16,-2.5881904E-1,-2.5881904E-1,-7.0710677E-1,2.5881904E-1,-7.0710677E-1,1E0,-1.1105418E0,-5E-1,0E0,7.0710677E-1,-8.660254E-1,-5E-1,1E0,-2.1963762E-1,-6.4670473E-1,-1.8723439E-1,1.1372069E0,1.0302196E0,5E-1,9.659258E-1,-9.659258E-1,-3.8626763E-1,-6.652655E-1,-7.368023E-1,9.659258E-1,-4.1854593E-1,2.575567E0,3.3817146E0,2.2012737E0,1.5460067E0,-6.0268676E-1,-5.154194E-1,-1.6145142E0,-1.0490655E0],"split_indices":[3,2,2,2,2,2,2,0,2,2,2,2,2,3,0,0,0,0,0,2,2,2,0,0,0,2,0,0,0,0,0,0,0,0,0],"split_type":[0,0,0,0,0,0,0,0,0,0,0,0,0,0,0,0,0,0,0,0,0,0,0,0,0,0,0,0,0,0,0,0,0,0,0],"sum_hessian":[9.5E3,4.492E3,5.008E3,1.545E3,2.947E3,1.896E3,3.112E3,7.55E2,7.9E2,8.42E2,2.105E3,1.148E3,7.48E2,2.703E3,4.09E2,3.68E2,4.22E2,4.3E2,4.12E2,8.35E2,1.27E3,7.55E2,3.93E2,3.76E2,3.72E2,2.323E3,3.8E2,4.2E2,4.15E2,8.68E2,4.02E2,3.84E2,3.71E2,1.927E3,3.96E2],"tree_param":{"num_deleted":"0","num_feature":"4","num_nodes":"35","size_leaf_vector":"1"}},