{"learner":{"attributes":{"scikit_learn":"{\"_estimator_type\": \"regressor\"}"},"feature_names":["Month","DayOfYear","Hour_sin","Hour_cos"],"feature_types":["int","int","float","float"],"gradient_booster":{"model":{"cats":{"enc":[],"feature_segments":[],"sorted_idx":[]},"gbtree_model_param":{"num_parallel_tree":"1","num_trees":"120"},"iteration_indptr":[0,1,2,3,4,5,6,7,8,9,10,11,12,13,14,15,16,17,18,19,20,21,22,23,24,25,26,27,28,29,30,31,32,33,34,35,36,37,38,39,40,41,42,43,44,45,46,47,48,49,50,51,52,53,54,55,56,57,58,59,60,61,62,63,64,65,66,67,68,69,70,71,72,73,74,75,76,77,78,79,80,81,82,83,84,85,86,87,88,89,90,91,92,93,94,95,96,97,98,99,100,101,102,103,104,105,106,107,108,109,110,111,112,113,114,115,116,117,118,119,120],"tree_info":[0,0,0,0,0,0,0,0,0,0,0,0,0,0,0,0,0,0,0,0,0,0,0,0,0,0,0,0,0,0,0,0,0,0,0,0,0,0,0,0,0,0,0,0,0,0,0,0,0,0,0,0,0,0,0,0,0,0,0,0,0,0,0,0,0,0,0,0,0,0,0,0,0,0,0,0,0,0,0,0,0,0,0,0,0,0,0,0,0,0,0,0,0,0,0,0,0,0,0,0,0,0,0,0,0,0,0,0,0,0,0,0,0,0,0,0,0,0,0,0],"trees":[{"base_weights":[1.1843096E-3,-1.4376009E0,8.137941E-1,-1.1208286E0,-3.6754267E0,1.0376195E0,-6.441438E-1,-2.1167328E0,-8.68801E-1,-5.4894227E-1,-3.186903E0,2.8511515E-1,1.3754761E0,-1.3270361E0,-3.648997E-1,-2.9694052E0,-1.0460189E-1,-7.7362615E-1,-1.736969E0,-3.4031515E0,-2.7548876E0,6.8854936E-3,6.510935E-1,6.8823826E-1,1.5543003E0,-1.1117904E0,-1.722543E0,-1.8899192E-1,-1.1358124E0,-3.1587705E-1,-2.606022E-1,3.397035E-2,-1.742432E-1,-1.0031159E-1,-3.8830634E-2,-2.3251443E-1,-1.4765054E-1,-3.2047144E-1,-3.769296E-1,-2.490863E-1,-3.1574684E-1,1.7092993E-2,-1.8408635E-1,2.7670315E-1,3.9561506E-2,8.3490245E-2,6.4378805E-2,1.6989766E-1,6.4681254E-2,-1.3711423E-1,-8.702908E-2,-1.8750954E-1,-1.4904511E-1,-4.9877055E-2,9.879886E-3,-1.3268737E-1,-7.539675E-2],"categories":[],"categories_nodes":[],"categories_segments":[],"categories_sizes":[],"default_left":[0,0,0,0,0,0,0,0,0,0,0,0,0,0,0,0,0,0,0,0,0,0,0,0,0,0,0,0,0,0,0,0,0,0,0,0,0,0,0,0,0,0,0,0,0,0,0,0,0,0,0,0,0,0,0,0,0],"id":0,"left_children":[1,3,5,7,9,11,13,15,17,-1,19,21,23,25,27,29,31,33,35,37,39,41,43,45,47,49,51,53,55,-1,-1,-1,-1,-1,-1,-1,-1,-1,-1,-1,-1,-1,-1,-1,-1,-1,-1,-1,-1,-1,-1,-1,-1,-1,-1,-1,-1],"loss_changes":[1.1139861E4,2.4337222E3,1.9876516E3,7.5466064E2,3.6001855E2,1.3417334E3,1.541683E2,1.0428281E3,1.9754114E2,0E0,2.2201416E1,1.666847E2,4.4663525E2,1.8090729E1,7.803205E1,2.1150879E1,1.330327E2,1.9158545E2,3.2874878E1,3.9777832E0,4.67749E0,2.8251282E2,3.8109286E2,4.3779907E0,3.7833496E2,8.514877E0,7.316589E-2,4.2039597E1,6.805847E0,0E0,0E0,0E0,0E0,0E0,0E0,0E0,0E0,0E0,0E0,0E0,0E0,0E0,0E0,0E0,0E0,0E0,0E0,0E0,0E0,0E0,0E0,0E0,0E0,0E0,0E0,0E0,0E0],"parents":[2147483647,0,0,1,1,2,2,3,3,4,4,5,5,6,6,7,7,8,8,10,10,11,11,12,12,13,13,14,14,15,15,16,16,17,17,18,18,19,19,20,20,21,21,22,22,23,23,24,24,25,25,26,26,27,27,28,28],"right_children":[2,4,6,8,10,12,14,16,18,-1,20,22,24,26,28,30,32,34,36,38,40,42,44,46,48,50,52,54,56,-1,-1,-1,-1,-1,-1,-1,-1,-1,-1,-1,-1,-1,-1,-1,-1,-1,-1,-1,-1,-1,-1,-1,-1,-1,-1,-1,-1],"split_conditions":[8.4E1,9.659258E-1,9.659258E-1,8.1E1,8.1E1,8.6E1,8.6E1,0E0,8.660254E-1,-5.4894227E-1,8.3E1,1.2246469E-16,-7.0710677E-1,1E0,9E1,-5E-1,8.660254E-1,1.2246469E-16,8.2E1,1E0,1E0,0E0,2.5881904E-1,8.7E1,8.660254E-1,8.5E1,8.5E1,8.8E1,1E0,-3.1587705E-1,-2.606022E-1,3.397035E-2,-1.742432E-1,-1.0031159E-1,-3.8830634E-2,-2.3251443E-1,-1.4765054E-1,-3.2047144E-1,-3.769296E-1,-2.490863E-1,-3.1574684E-1,1.7092993E-2,-1.8408635E-1,2.7670315E-1,3.9561506E-2,8.3490245E-2,6.4378805E-2,1.6989766E-1,6.4681254E-2,-1.3711423E-1,-8.702908E-2,-1.8750954E-1,-1.4904511E-1,-4.9877055E-2,9.879886E-3,-1.3268737E-1,-7.539675E-2],"split_indices":[1,2,2,1,1,1,1,2,2,0,1,2,2,2,1,2,2,2,1,2,2,2,2,1,2,1,1,1,2,0,0,0,0,0,0,0,0,0,0,0,0,0,0,0,0,0,0,0,0,0,0,0,0,0,0,0,0],"split_type":[0,0,0,0,0,0,0,0,0,0,0,0,0,0,0,0,0,0,0,0,0,0,0,0,0,0,0,0,0,0,0,0,0,0,0,0,0,0,0,0,0,0,0,0,0,0,0,0,0,0,0,0,0,0,0,0,0],"sum_hessian":[9.526E3,3.438E3,6.088E3,3.013E3,4.25E2,5.278E3,8.1E2,6.07E2,2.406E3,8.8E1,3.37E2,1.636E3,3.642E3,2.34E2,5.76E2,4.26E2,1.81E2,2.17E3,2.36E2,2.2E2,1.17E2,9.3E2,7.06E2,7.53E2,2.889E3,1.54E2,8E1,4.7E2,1.06E2,2.75E2,1.51E2,1.43E2,3.8E1,1.359E3,8.11E2,7E1,1.66E2,1.49E2,7.1E1,7.5E1,4.2E1,8.55E2,7.5E1,7.5E1,6.31E2,1.71E2,5.82E2,2.491E3,3.98E2,7.2E1,8.2E1,4.4E1,3.6E1,2.26E2,2.44E2,6.9E1,3.7E1],"tree_param":{"num_deleted":"0","num_feature":"4","num_nodes":"57","size_leaf_vector":"1"}},{"base_weights":[7.143538E-3,2.4360917E0,-1.5463077E0,1.2443776E0,3.4457936E0,-2.8301957E0,-8.4839255E-1,-4.5640734E-1,1.6801412E0,1.8606434E0,3.8264103E0,-1.8528142E0,-3.604717E0,5.9961164E-1,-1.1974708E0,-1.3897137E-1,-1.5339525E-1,9.477565E-1,2.2404778E0,1.3014926E0,2.342076E0,2.966865E0,3.9971507E0,-3.4522212E0,-1.2854419E0,-1.8199676E0,-3.8662553E0,-1.4191675E-1,7.435944E-1,-2.9228696E-1,-1.5993524E0,-1.0513444E-1,2.7209042E-2,9.584959E-3,1.2289762E-1,2.472003E-1,1.20717265E-1,1.5006898E-1,1.1700676E-1,2.0628162E-1,3.156297E-1,2.4655841E-1,3.3224618E-1,4.2343232E-1,3.0819893E-1,-1.6064481E-1,-3.793181E-1,-7.455654E-2,-1.8311332E-1,-3.340129E-1,-1.3061099E-1,-4.6358958E-1,-3.352284E-1,-5.129335E-2,3.412626E-3,8.2411565E-2,-5.832941E-2,-1.02572314E-1,-1.2966101E-2,-2.0769122E-1,-1.3961737E-1],"categories":[],"categories_nodes":[],"categories_segments":[],"categories_sizes":[],"default_left":[0,0,0,0,0,0,0,0,0,0,0,0,0,0,0,0,0,0,0,0,0,0,0,0,0,0,0,0,0,0,0,0,0,0,0,0,0,0,0,0,0,0,0,0,0,0,0,0,0,0,0,0,0,0,0,0,0,0,0,0,0],"id":1,"left_children":[1,3,5,7,9,11,13,15,17,19,21,23,25,27,29,31,-1,33,35,37,39,41,43,45,47,49,51,53,55,57,59,-1,-1,-1,-1,-1,-1,-1,-1,-1,-1,-1,-1,-1,-1,-1,-1,-1,-1,-1,-1,-1,-1,-1,-1,-1,-1,-1,-1,-1,-1],"loss_changes":[3.6283586E4,4.509199E3,5.2529014E3,1.27701E3,1.2176504E3,1.5565332E3,1.9219976E3,1.20188995E2,5.6051E2,1.032832E2,2.2823828E2,8.258877E2,5.302285E2,7.900656E1,1.1137803E3,1.0267243E2,0E0,1.4266766E2,1.8266333E2,3.0873108E0,4.1466187E1,4.082788E1,2.8257227E2,1.4431738E2,1.9808289E2,1.1202832E2,3.8121973E2,7.9206076E0,6.661633E1,1.12344025E2,2.0290137E2,0E0,0E0,0E0,0E0,0E0,0E0,0E0,0E0,0E0,0E0,0E0,0E0,0E0,0E0,0E0,0E0,0E0,0E0,0E0,0E0,0E0,0E0,0E0,0E0,0E0,0E0,0E0,0E0,0E0,0E0],"parents":[2147483647,0,0,1,1,2,2,3,3,4,4,5,5,6,6,7,7,8,8,9,9,10,10,11,11,12,12,13,13,14,14,15,15,17,17,18,18,19,19,20,20,21,21,22,22,23,23,24,24,25,25,26,26,27,27,28,28,29,29,30,30],"right_children":[2,4,6,8,10,12,14,16,18,20,22,24,26,28,30,32,-1,34,36,38,40,42,44,46,48,50,52,54,56,58,60,-1,-1,-1,-1,-1,-1,-1,-1,-1,-1,-1,-1,-1,-1,-1,-1,-1,-1,-1,-1,-1,-1,-1,-1,-1,-1,-1,-1,-1,-1],"split_conditions":[-2.5881904E-1,8.5E1,8.4E1,8.1E1,-5E-1,-2.5881904E-1,6.123234E-17,-5E-1,0E0,-7.0710677E-1,8.6E1,8.1E1,-1.8369701E-16,8.5E1,-2.5881904E-1,-2.5881904E-1,-1.5339525E-1,-7.0710677E-1,8.660254E-1,8.7E1,8.9E1,2.5881904E-1,9E1,-1.8369701E-16,-8.660254E-1,8.1E1,8.2E1,-9.659258E-1,9E1,8.5E1,8.6E1,-1.0513444E-1,2.7209042E-2,9.584959E-3,1.2289762E-1,2.472003E-1,1.20717265E-1,1.5006898E-1,1.1700676E-1,2.0628162E-1,3.156297E-1,2.4655841E-1,3.3224618E-1,4.2343232E-1,3.0819893E-1,-1.6064481E-1,-3.793181E-1,-7.455654E-2,-1.8311332E-1,-3.340129E-1,-1.3061099E-1,-4.6358958E-1,-3.352284E-1,-5.129335E-2,3.412626E-3,8.2411565E-2,-5.832941E-2,-1.02572314E-1,-1.2966101E-2,-2.0769122E-1,-1.3961737E-1],"split_indices":[3,1,1,1,2,2,3,3,2,2,1,1,3,1,2,2,0,2,2,1,1,2,1,3,2,1,1,2,1,1,1,0,0,0,0,0,0,0,0,0,0,0,0,0,0,0,0,0,0,0,0,0,0,0,0,0,0,0,0,0,0],"split_type":[0,0,0,0,0,0,0,0,0,0,0,0,0,0,0,0,0,0,0,0,0,0,0,0,0,0,0,0,0,0,0,0,0,0,0,0,0,0,0,0,0,0,0,0,0,0,0,0,0,0,0,0,0,0,0,0,0,0,0,0,0],"sum_hessian":[9.614E3,3.75E3,5.864E3,1.721E3,2.029E3,2.064E3,3.8E3,3.51E2,1.37E3,3.94E2,1.635E3,9.14E2,1.15E3,7.38E2,3.062E3,2.72E2,7.9E1,5.95E2,7.75E2,1.84E2,2.1E2,2.74E2,1.361E3,2.38E2,6.76E2,1.48E2,1.002E3,1.2E2,6.18E2,9.42E2,2.12E3,8.4E1,1.88E2,1.48E2,4.47E2,6.32E2,1.43E2,6.9E1,1.15E2,1.59E2,5.1E1,1.17E2,1.57E2,1.078E3,2.83E2,3.8E1,2E2,3.41E2,3.35E2,3.6E1,1.12E2,3.98E2,6.04E2,3.8E1,8.2E1,5.83E2,3.5E1,1.7E2,7.72E2,6.3E2,1.49E3],"tree_param":{"num_deleted":"0","num_feature":"4","num_nodes":"61","size_leaf_vector":"1"}},{"base_weights":[-9.3157374E-4,-1.1892321E0,6.81939E-1,-9.1687876E-1,-3.0633652E0,8.6418235E-1,-5.0574964E-1,-1.651687E0,-7.3052704E-1,-4.636384E-1,-2.6411338E0,2.4266845E-1,1.1286228E0,-1.0421705E0,-2.8974453E-1,-2.3426461E0,-3.67458E-2,-6.430291E-1,-1.5435696E0,-2.864042E0,-2.1900258E0,1.3254934E-2,5.3837484E-1,8.315943E-1,1.4688113E0,-8.7819946E-1,-1.3465427E-1,-1.0965794E-1,-1.0348384E0,-2.5070095E-1,-2.0317939E-1,2.958486E-2,-1.4215352E-1,-8.248863E-2,-3.3952072E-2,-1.7824511E-1,-1.408776E-1,-2.639931E-1,-3.067146E-1,-1.9864047E-1,-2.520884E-1,1.2739602E-2,-1.4511684E-1,2.2324267E-1,3.3884697E-2,1.0377169E-1,-1.1140664E-1,4.270428E-1,1.11281596E-1,-9.9342756E-2,-7.546669E-2,-3.8704548E-2,1.8539809E-2,-1.23356916E-1,-5.8102984E-2],"categories":[],"categories_nodes":[],"categories_segments":[],"categories_sizes":[],"default_left":[0,0,0,0,0,0,0,0,0,0,0,0,0,0,0,0,0,0,0,0,0,0,0,0,0,0,0,0,0,0,0,0,0,0,0,0,0,0,0,0,0,0,0,0,0,0,0,0,0,0,0,0,0,0,0],"id":2,"left_children":[1,3,5,7,9,11,13,15,17,-1,19,21,23,25,27,29,31,33,35,37,39,41,43,45,47,49,-1,51,53,-1,-1,-1,-1,-1,-1,-1,-1,-1,-1,-1,-1,-1,-1,-1,-1,-1,-1,-1,-1,-1,-1,-1,-1,-1,-1],"loss_changes":[7.735605E3,1.7729658E3,1.3108152E3,4.149319E2,2.8065723E2,8.6241724E2,9.308899E1,6.850509E2,1.7159204E2,0E0,2.892212E1,1.0636447E2,3.708286E2,1.0346237E1,7.717501E1,1.687622E1,8.562661E1,1.2070776E2,5.055847E0,2.4174805E0,3.0769043E0,1.4794621E2,2.3078079E2,7.90412E2,1.7057244E3,1.4281616E0,0E0,3.8129616E1,9.384071E0,0E0,0E0,0E0,0E0,0E0,0E0,0E0,0E0,0E0,0E0,0E0,0E0,0E0,0E0,0E0,0E0,0E0,0E0,0E0,0E0,0E0,0E0,0E0,0E0,0E0,0E0],"parents":[2147483647,0,0,1,1,2,2,3,3,4,4,5,5,6,6,7,7,8,8,10,10,11,11,12,12,13,13,14,14,15,15,16,16,17,17,18,18,19,19,20,20,21,21,22,22,23,23,24,24,25,25,27,27,28,28],"right_children":[2,4,6,8,10,12,14,16,18,-1,20,22,24,26,28,30,32,34,36,38,40,42,44,46,48,50,-1,52,54,-1,-1,-1,-1,-1,-1,-1,-1,-1,-1,-1,-1,-1,-1,-1,-1,-1,-1,-1,-1,-1,-1,-1,-1,-1,-1],"split_conditions":[8.4E1,9.659258E-1,9.659258E-1,8.1E1,8.1E1,8.6E1,8.6E1,0E0,8.660254E-1,-4.636384E-1,8.3E1,1.2246469E-16,1.2246469E-16,1E0,9E1,-5E-1,8.660254E-1,1.2246469E-16,8.2E1,8.2E1,1E0,0E0,2.5881904E-1,0E0,2.5881904E-1,8.5E1,-1.3465427E-1,8.8E1,1E0,-2.5070095E-1,-2.0317939E-1,2.958486E-2,-1.4215352E-1,-8.248863E-2,-3.3952072E-2,-1.7824511E-1,-1.408776E-1,-2.639931E-1,-3.067146E-1,-1.9864047E-1,-2.520884E-1,1.2739602E-2,-1.4511684E-1,2.2324267E-1,3.3884697E-2,1.0377169E-1,-1.1140664E-1,4.270428E-1,1.11281596E-1,-9.9342756E-2,-7.546669E-2,-3.8704548E-2,1.8539809E-2,-1.23356916E-1,-5.8102984E-2],"split_indices":[1,2,2,1,1,1,1,2,2,0,1,2,2,2,1,2,2,2,1,1,2,2,2,2,2,1,0,1,2,0,0,0,0,0,0,0,0,0,0,0,0,0,0,0,0,0,0,0,0,0,0,0,0,0,0],"split_type":[0,0,0,0,0,0,0,0,0,0,0,0,0,0,0,0,0,0,0,0,0,0,0,0,0,0,0,0,0,0,0,0,0,0,0,0,0,0,0,0,0,0,0,0,0,0,0,0,0,0,0,0,0,0,0],"sum_hessian":[9.531E3,3.478E3,6.053E3,3.038E3,4.4E2,5.248E3,8.05E2,6.13E2,2.425E3,9.1E1,3.49E2,1.567E3,3.681E3,2.3E2,5.75E2,4.29E2,1.84E2,2.191E3,2.34E2,2.3E2,1.19E2,8.83E2,6.84E2,1.967E3,1.714E3,1.52E2,7.8E1,4.64E2,1.11E2,2.76E2,1.53E2,1.49E2,3.5E1,1.369E3,8.22E2,8E1,1.54E2,1.16E2,1.14E2,7.8E1,4.1E1,8.2E2,6.3E1,7.1E1,6.13E2,1.779E3,1.88E2,1.92E2,1.522E3,7.5E1,7.7E1,2.39E2,2.25E2,7.6E1,3.5E1],"tree_param":{"num_deleted":"0","num_feature":"4","num_nodes":"55","size_leaf_vector":"1"}},{"base_weights":[-1.4982711E-2,2.1317198E0,-1.3714855E0,8.9632076E-1,2.4578495E0,-3.5339337E-2,-1.7128041E0,4.6455633E-2,1.311606E-1,2.5961406E0,1.6534059E-1,-3.5602856E-2,1.2106056E-1,-9.703671E-1,-2.0727441E0,2.0072486E0,2.886395E0,5.40802E-3,1.8186672E-2,-7.301661E-1,-1.2108707E0,-1.6397981E-1,-2.2137506E0,1.8661608E-1,2.1415094E-1,2.560691E-1,2.99078E-1,-6.0613424E-2,-8.542347E-2,-1.1265725E-1,-1.2926482E-1,-2.3702459E-1,-1.4790262E-1],"categories":[],"categories_nodes":[],"categories_segments":[],"categories_sizes":[],"default_left":[0,0,0,0,0,0,0,0,0,0,0,0,0,0,0,0,0,0,0,0,0,0,0,0,0,0,0,0,0,0,0,0,0],"id":3,"left_children":[1,3,5,7,9,11,13,-1,-1,15,-1,-1,17,19,21,23,25,-1,-1,27,29,-1,31,-1,-1,-1,-1,-1,-1,-1,-1,-1,-1],"loss_changes":[2.7885402E4,1.491752E3,2.6760498E3,1.3853174E2,3.219961E2,5.9979233E1,1.2470332E3,0E0,0E0,4.2169922E2,0E0,0E0,3.2647104E0,8.738721E1,1.8848926E2,1.1707275E1,4.9220703E1,0E0,0E0,1.1285187E1,3.796753E0,0E0,2.6911426E2,0E0,0E0,0E0,0E0,0E0,0E0,0E0,0E0,0E0,0E0],"parents":[2147483647,0,0,1,1,2,2,3,3,4,4,5,5,6,6,9,9,12,12,13,13,14,14,15,15,16,16,19,19,20,20,22,22],"right_children":[2,4,6,8,10,12,14,-1,-1,16,-1,-1,18,20,22,24,26,-1,-1,28,30,-1,32,-1,-1,-1,-1,-1,-1,-1,-1,-1,-1],"split_conditions":[-2.5881904E-1,-5E-1,6.123234E-17,-7.0710677E-1,8.660254E-1,-9.659258E-1,-2.5881904E-1,4.6455633E-2,1.311606E-1,0E0,1.6534059E-1,-3.5602856E-2,-8.660254E-1,-7.0710677E-1,1.2246469E-16,-2.5881904E-1,2.5881904E-1,5.40802E-3,1.8186672E-2,-8.660254E-1,-5E-1,-1.6397981E-1,1E0,1.8661608E-1,2.1415094E-1,2.560691E-1,2.99078E-1,-6.0613424E-2,-8.542347E-2,-1.1265725E-1,-1.2926482E-1,-2.3702459E-1,-1.4790262E-1],"split_indices":[3,2,3,2,2,2,2,0,0,2,0,0,2,2,2,2,2,0,0,2,2,0,2,0,0,0,0,0,0,0,0,0,0],"split_type":[0,0,0,0,0,0,0,0,0,0,0,0,0,0,0,0,0,0,0,0,0,0,0,0,0,0,0,0,0,0,0,0,0],"sum_hessian":[9.574E3,3.707E3,5.867E3,7.75E2,2.932E3,1.194E3,4.673E3,3.81E2,3.94E2,2.5E3,4.32E2,3.91E2,8.03E2,1.527E3,3.146E3,8.28E2,1.672E3,3.83E2,4.2E2,7.66E2,7.61E2,7.76E2,2.37E3,4.11E2,4.17E2,4.12E2,1.26E3,3.86E2,3.8E2,3.82E2,3.79E2,1.952E3,4.18E2],"tree_param":{"num_deleted":"0","num_feature":"4","num_nodes":"33","size_leaf_vector":"1"}},{"base_weights":[1.2679009E-2,1.9343375E0,-1.2261302E0,9.670806E-1,2.756099E0,-2.2535355E0,-6.609081E-1,-5.174193E-1,1.3241194E0,1.47568E0,3.0770738E0,-1.306914E0,-2.8207867E0,5.05777E-1,-9.3894947E-1,-2.7651164E-1,-1.2788448E-1,7.410207E-1,1.7722262E0,1.0356165E0,1.88357E0,3.2132137E0,2.3026881E0,-2.706922E0,-8.7119764E-1,-1.2870479E0,-3.0100384E0,2.864081E-1,8.60512E-1,-2.3127273E-1,-1.2508512E0,-5.8349606E-2,5.4313987E-2,8.124347E-3,9.62713E-2,1.9476277E-1,1.0000973E-1,1.23028494E-1,9.219545E-2,1.6235788E-1,2.6230988E-1,2.668783E-1,3.4772024E-1,2.4313016E-1,1.582761E-1,-1.2105303E-1,-3.0526194E-1,-3.8252052E-2,-1.1949872E-1,-2.4735658E-1,-8.796247E-2,-3.664367E-1,-2.548319E-1,-2.9956028E-2,4.091625E-2,1.1034109E-1,-4.0549092E-2,-8.558152E-2,-9.473487E-3,-1.3792902E-1,-4.1884895E-2],"categories":[],"categories_nodes":[],"categories_segments":[],"categories_sizes":[],"default_left":[0,0,0,0,0,0,0,0,0,0,0,0,0,0,0,0,0,0,0,0,0,0,0,0,0,0,0,0,0,0,0,0,0,0,0,0,0,0,0,0,0,0,0,0,0,0,0,0,0,0,0,0,0,0,0,0,0,0,0,0,0],"id":4,"left_children":[1,3,5,7,9,11,13,15,17,19,21,23,25,27,29,31,-1,33,35,37,39,41,43,45,47,49,51,53,55,57,59,-1,-1,-1,-1,-1,-1,-1,-1,-1,-1,-1,-1,-1,-1,-1,-1,-1,-1,-1,-1,-1,-1,-1,-1,-1,-1,-1,-1,-1,-1],"loss_changes":[2.2708232E4,2.969295E3,3.3666416E3,9.1179663E2,8.260547E2,1.1014023E3,1.2146543E3,6.091308E1,3.608352E2,7.11048E1,1.6286133E2,4.691765E2,3.6940234E2,5.58602E1,6.669641E2,6.448009E1,0E0,8.8267365E1,1.0409595E2,3.2467651E0,3.6118103E1,1.8776465E2,1.8836914E1,9.0970215E1,9.3056E1,6.6952515E1,3.3628223E2,3.2275368E1,8.501282E1,7.888237E1,2.2361768E2,0E0,0E0,0E0,0E0,0E0,0E0,0E0,0E0,0E0,0E0,0E0,0E0,0E0,0E0,0E0,0E0,0E0,0E0,0E0,0E0,0E0,0E0,0E0,0E0,0E0,0E0,0E0,0E0,0E0,0E0],"parents":[2147483647,0,0,1,1,2,2,3,3,4,4,5,5,6,6,7,7,8,8,9,9,10,10,11,11,12,12,13,13,14,14,15,15,17,17,18,18,19,19,20,20,21,21,22,22,23,23,24,24,25,25,26,26,27,27,28,28,29,29,30,30],"right_children":[2,4,6,8,10,12,14,16,18,20,22,24,26,28,30,32,-1,34,36,38,40,42,44,46,48,50,52,54,56,58,60,-1,-1,-1,-1,-1,-1,-1,-1,-1,-1,-1,-1,-1,-1,-1,-1,-1,-1,-1,-1,-1,-1,-1,-1,-1,-1,-1,-1,-1,-1],"split_conditions":[-2.5881904E-1,8.5E1,8.4E1,8.1E1,-5E-1,-5E-1,6.123234E-17,-5E-1,0E0,-7.0710677E-1,8.660254E-1,8.1E1,-1.8369701E-16,-8.660254E-1,-2.5881904E-1,5E-1,-1.2788448E-1,-7.0710677E-1,8.660254E-1,8.7E1,8.9E1,0E0,9E1,-1.8369701E-16,6.123234E-17,8.1E1,8.2E1,8.5E1,9E1,8.5E1,1E0,-5.8349606E-2,5.4313987E-2,8.124347E-3,9.62713E-2,1.9476277E-1,1.0000973E-1,1.23028494E-1,9.219545E-2,1.6235788E-1,2.6230988E-1,2.668783E-1,3.4772024E-1,2.4313016E-1,1.582761E-1,-1.2105303E-1,-3.0526194E-1,-3.8252052E-2,-1.1949872E-1,-2.4735658E-1,-8.796247E-2,-3.664367E-1,-2.548319E-1,-2.9956028E-2,4.091625E-2,1.1034109E-1,-4.0549092E-2,-8.558152E-2,-9.473487E-3,-1.3792902E-1,-4.1884895E-2],"split_indices":[3,1,1,1,2,2,3,3,2,2,2,1,3,2,2,2,0,2,2,1,1,2,1,3,3,1,1,1,1,1,2,0,0,0,0,0,0,0,0,0,0,0,0,0,0,0,0,0,0,0,0,0,0,0,0,0,0,0,0,0,0],"split_type":[0,0,0,0,0,0,0,0,0,0,0,0,0,0,0,0,0,0,0,0,0,0,0,0,0,0,0,0,0,0,0,0,0,0,0,0,0,0,0,0,0,0,0,0,0,0,0,0,0,0,0,0,0,0,0,0,0,0,0,0,0],"sum_hessian":[9.537E3,3.738E3,5.799E3,1.718E3,2.02E3,2.057E3,3.742E3,3.33E2,1.385E3,4.06E2,1.614E3,7.72E2,1.285E3,7.2E2,3.022E3,2.54E2,7.9E1,6.03E2,7.82E2,1.97E2,2.09E2,1.37E3,2.44E2,1.82E2,5.9E2,1.42E2,1.143E3,4.46E2,2.74E2,9.25E2,2.097E3,1.85E2,6.9E1,1.52E2,4.51E2,6.36E2,1.46E2,6.9E1,1.28E2,1.57E2,5.2E1,4.51E2,9.19E2,2.05E2,3.9E1,3.5E1,1.47E2,2.36E2,3.54E2,3.5E1,1.07E2,4.7E2,6.73E2,7.7E1,3.69E2,2.3E2,4.4E1,1.65E2,7.6E2,1.816E3,2.81E2],"tree_param":{"num_deleted":"0","num_feature":"4","num_nodes":"61","size_leaf_vector":"1"}},{"base_weights":[-2.1630316E-3,1.7126139E0,-1.1076653E0,8.3292717E-1,2.4786468E0,-2.0182936E0,-5.9884644E-1,-4.7132078E-1,1.166562E0,2.909217E0,1.9203472E0,-8.8304913E-1,-2.3574028E0,4.504354E-1,-8.463529E-1,-2.569307E-1,-1.17855385E-1,1.3512479E0,4.8672295E-1,1.9772297E0,3.0911644E0,2.2513022E0,1.5663471E0,-1.9412068E0,-5.239931E-1,-2.9238446E0,-1.9222454E0,-1.2791386E-1,5.613141E-1,-1.1889734E0,-6.9356525E-1,-4.9005594E-2,-2.1992002E-2,1.2356075E-1,1.692835E-1,2.4797194E-2,7.368577E-2,1.6384067E-1,2.038796E-1,3.4868902E-1,2.5145528E-1,1.8876614E-1,2.3267913E-1,1.1645539E-1,1.6470481E-1,-1.758846E-1,-2.1857038E-1,-6.5634325E-2,-2.4123982E-2,-3.3641225E-1,-2.6706448E-1,-2.1186888E-1,-1.71318E-1,1.7687221E-3,-3.9468873E-2,6.285978E-2,-3.7301473E-2,-9.580098E-2,-1.2635034E-1,-3.624663E-2,-8.0426246E-2],"categories":[],"categories_nodes":[],"categories_segments":[],"categories_sizes":[],"default_left":[0,0,0,0,0,0,0,0,0,0,0,0,0,0,0,0,0,0,0,0,0,0,0,0,0,0,0,0,0,0,0,0,0,0,0,0,0,0,0,0,0,0,0,0,0,0,0,0,0,0,0,0,0,0,0,0,0,0,0,0,0],"id":5,"left_children":[1,3,5,7,9,11,13,15,17,19,21,23,25,27,29,31,-1,33,35,37,39,41,43,45,47,49,51,53,55,57,59,-1,-1,-1,-1,-1,-1,-1,-1,-1,-1,-1,-1,-1,-1,-1,-1,-1,-1,-1,-1,-1,-1,-1,-1,-1,-1,-1,-1,-1,-1],"loss_changes":[1.8208102E4,2.5350508E3,2.704725E3,7.637899E2,4.7807227E2,8.0366406E2,9.7375195E2,5.3978485E1,1.74745E2,1.8618457E2,9.945581E1,1.8249283E2,3.9147754E2,4.5986435E1,1.5794751E2,2.27359E0,0E0,4.1280518E1,1.7733253E1,5.812988E-1,2.0731836E2,8.015625E0,1.1959839E1,1.5952759E0,1.3388588E1,6.882764E1,3.3907715E1,4.5127354E0,3.8016403E1,1.48671875E1,7.6677124E1,0E0,0E0,0E0,0E0,0E0,0E0,0E0,0E0,0E0,0E0,0E0,0E0,0E0,0E0,0E0,0E0,0E0,0E0,0E0,0E0,0E0,0E0,0E0,0E0,0E0,0E0,0E0,0E0,0E0,0E0],"parents":[2147483647,0,0,1,1,2,2,3,3,4,4,5,5,6,6,7,7,8,8,9,9,10,10,11,11,12,12,13,13,14,14,15,15,17,17,18,18,19,19,20,20,21,21,22,22,23,23,24,24,25,25,26,26,27,27,28,28,29,29,30,30],"right_children":[2,4,6,8,10,12,14,16,18,20,22,24,26,28,30,32,-1,34,36,38,40,42,44,46,48,50,52,54,56,58,60,-1,-1,-1,-1,-1,-1,-1,-1,-1,-1,-1,-1,-1,-1,-1,-1,-1,-1,-1,-1,-1,-1,-1,-1,-1,-1,-1,-1,-1,-1],"split_conditions":[-2.5881904E-1,8.5E1,8.4E1,8.1E1,-7.0710677E-1,6.123234E-17,6.123234E-17,-5E-1,-5E-1,8.6E1,-5E-1,8.1E1,8.2E1,8.5E1,8.6E1,-9.659258E-1,-1.17855385E-1,8.4E1,8.3E1,-9.659258E-1,8.9E1,8.6E1,8.6E1,-1.8369701E-16,8.3E1,8.1E1,8.3E1,-1.8369701E-16,9E1,5E-1,5E-1,-4.9005594E-2,-2.1992002E-2,1.2356075E-1,1.692835E-1,2.4797194E-2,7.368577E-2,1.6384067E-1,2.038796E-1,3.4868902E-1,2.5145528E-1,1.8876614E-1,2.3267913E-1,1.1645539E-1,1.6470481E-1,-1.758846E-1,-2.1857038E-1,-6.5634325E-2,-2.4123982E-2,-3.3641225E-1,-2.6706448E-1,-2.1186888E-1,-1.71318E-1,1.7687221E-3,-3.9468873E-2,6.285978E-2,-3.7301473E-2,-9.580098E-2,-1.2635034E-1,-3.624663E-2,-8.0426246E-2],"split_indices":[3,1,1,1,3,3,3,3,3,1,3,1,1,1,1,3,0,1,1,3,1,1,1,3,1,1,1,3,1,3,3,0,0,0,0,0,0,0,0,0,0,0,0,0,0,0,0,0,0,0,0,0,0,0,0,0,0,0,0,0,0],"split_type":[0,0,0,0,0,0,0,0,0,0,0,0,0,0,0,0,0,0,0,0,0,0,0,0,0,0,0,0,0,0,0,0,0,0,0,0,0,0,0,0,0,0,0,0,0,0,0,0,0,0,0,0,0,0,0,0,0,0,0,0,0],"sum_hessian":[9.603E3,3.764E3,5.839E3,1.753E3,2.011E3,2.092E3,3.747E3,3.57E2,1.396E3,1.133E3,8.78E2,4.82E2,1.61E3,7.15E2,3.032E3,2.75E2,8.2E1,1.097E3,2.99E2,1.87E2,9.46E2,4.51E2,4.27E2,1.21E2,3.61E2,6.97E2,9.13E2,1.15E2,6E2,9.33E2,2.099E3,3.6E1,2.39E2,8.23E2,2.74E2,1.54E2,1.45E2,3.3E1,1.54E2,5.58E2,3.88E2,8.2E1,3.69E2,7.4E1,3.53E2,7.4E1,4.7E1,2.45E2,1.16E2,2.5E2,4.47E2,4.66E2,4.47E2,7.5E1,4E1,5.6E2,4E1,2.31E2,7.02E2,5.27E2,1.572E3],"tree_param":{"num_deleted":"0","num_feature":"4","num_nodes":"61","size_leaf_vector":"1"}},{"base_weights":[6.0795345E-3,1.5827118E0,-1.0018835E0,5.801778E-1,1.8455529E0,-3.8456786E-2,-1.2450624E0,2.966207E-2,8.550434E-2,1.4507859E0,2.0025468E0,-2.353817E-2,5.6701727E-2,-6.9778514E-1,-1.619106E0,1.3442722E-1,1.5548599E-1,2.1725345E0,1.3380283E-1,2.9431533E-3,8.085019E-3,-4.1290995E-1,-8.96724E-1,-1.7272283E0,-1.03033565E-1,1.8782787E-1,2.2629336E-1,-3.0156825E-2,-5.220622E-2,-8.129535E-2,-1.07016765E-1,-1.338137E-1,-1.9090398E-1],"categories":[],"categories_nodes":[],"categories_segments":[],"categories_sizes":[],"default_left":[0,0,0,0,0,0,0,0,0,0,0,0,0,0,0,0,0,0,0,0,0,0,0,0,0,0,0,0,0,0,0,0,0],"id":6,"left_children":[1,3,5,7,9,11,13,-1,-1,15,17,-1,19,21,23,-1,-1,25,-1,-1,-1,27,29,31,-1,-1,-1,-1,-1,-1,-1,-1,-1],"loss_changes":[1.51751455E4,9.802295E2,1.3646621E3,6.0149933E1,1.7992383E2,2.2031769E1,9.5095557E2,0E0,0E0,7.2547607E0,2.3521289E2,0E0,5.1983714E-1,1.0674121E2,1.7404688E2,0E0,0E0,4.03584E1,0E0,0E0,0E0,9.309906E0,1.5286743E1,1.6241357E2,0E0,0E0,0E0,0E0,0E0,0E0,0E0,0E0,0E0],"parents":[2147483647,0,0,1,1,2,2,3,3,4,4,5,5,6,6,9,9,10,10,12,12,13,13,14,14,17,17,21,21,22,22,23,23],"right_children":[2,4,6,8,10,12,14,-1,-1,16,18,-1,20,22,24,-1,-1,26,-1,-1,-1,28,30,32,-1,-1,-1,-1,-1,-1,-1,-1,-1],"split_conditions":[-2.5881904E-1,-5E-1,6.123234E-17,-7.0710677E-1,0E0,-9.659258E-1,0E0,2.966207E-2,8.550434E-2,-2.5881904E-1,8.660254E-1,-2.353817E-2,-8.660254E-1,-7.0710677E-1,1E0,1.3442722E-1,1.5548599E-1,2.5881904E-1,1.3380283E-1,2.9431533E-3,8.085019E-3,-8.660254E-1,-2.5881904E-1,5E-1,-1.03033565E-1,1.8782787E-1,2.2629336E-1,-3.0156825E-2,-5.220622E-2,-8.129535E-2,-1.07016765E-1,-1.338137E-1,-1.9090398E-1],"split_indices":[3,2,3,2,2,2,2,0,0,2,2,0,2,2,2,0,0,2,0,0,0,2,2,2,0,0,0,0,0,0,0,0,0],"split_type":[0,0,0,0,0,0,0,0,0,0,0,0,0,0,0,0,0,0,0,0,0,0,0,0,0,0,0,0,0,0,0,0,0],"sum_hessian":[9.547E3,3.723E3,5.824E3,7.74E2,2.949E3,1.174E3,4.65E3,3.82E2,3.92E2,8.42E2,2.107E3,3.82E2,7.92E2,1.889E3,2.761E3,4.23E2,4.19E2,1.676E3,4.31E2,3.73E2,4.19E2,7.78E2,1.111E3,2.331E3,4.3E2,3.99E2,1.277E3,3.87E2,3.91E2,7.53E2,3.58E2,7.45E2,1.586E3],"tree_param":{"num_deleted":"0","num_feature":"4","num_nodes":"33","size_leaf_vector":"1"}},{"base_weights":[1.1325329E-2,1.4218256E0,-8.997457E-1,5.3644925E-1,1.6532197E0,-4.507483E-2,-1.1237148E0,2.9645948E-2,7.625678E-2,1.2861329E0,1.8018348E0,-2.8164616E-2,6.750967E-2,-7.10445E-1,-1.509528E0,1.17579855E-1,1.3932423E-1,1.9530843E0,1.1727561E-1,3.1930842E-3,9.893513E-3,-4.860311E-1,-9.3064046E-1,-1.6355983E0,-9.247594E-2,1.6772732E-1,2.0435707E-1,-3.1706505E-2,-5.699708E-2,-7.909735E-2,-9.984987E-2,-1.4413223E-1,-1.7588802E-1],"categories":[],"categories_nodes":[],"categories_segments":[],"categories_sizes":[],"default_left":[0,0,0,0,0,0,0,0,0,0,0,0,0,0,0,0,0,0,0,0,0,0,0,0,0,0,0,0,0,0,0,0,0],"id":7,"left_children":[1,3,5,7,9,11,13,-1,-1,15,17,-1,19,21,23,-1,-1,25,-1,-1,-1,27,29,31,-1,-1,-1,-1,-1,-1,-1,-1,-1],"loss_changes":[1.2335343E4,7.708613E2,1.1163105E3,4.2210052E1,1.6058203E2,3.2299744E1,7.3572314E2,0E0,0E0,8.572388E0,1.9970898E2,0E0,9.1590357E-1,1.0989111E2,1.7460889E2,0E0,0E0,3.9249023E1,0E0,0E0,0E0,1.5534027E1,9.881958E0,4.4503906E1,0E0,0E0,0E0,0E0,0E0,0E0,0E0,0E0,0E0],"parents":[2147483647,0,0,1,1,2,2,3,3,4,4,5,5,6,6,9,9,10,10,12,12,13,13,14,14,17,17,21,21,22,22,23,23],"right_children":[2,4,6,8,10,12,14,-1,-1,16,18,-1,20,22,24,-1,-1,26,-1,-1,-1,28,30,32,-1,-1,-1,-1,-1,-1,-1,-1,-1],"split_conditions":[-2.5881904E-1,-5E-1,6.123234E-17,-7.0710677E-1,0E0,-9.659258E-1,1.2246469E-16,2.9645948E-2,7.625678E-2,-2.5881904E-1,8.660254E-1,-2.8164616E-2,-8.660254E-1,-5E-1,1E0,1.17579855E-1,1.3932423E-1,2.5881904E-1,1.1727561E-1,3.1930842E-3,9.893513E-3,-8.660254E-1,-2.5881904E-1,7.0710677E-1,-9.247594E-2,1.6772732E-1,2.0435707E-1,-3.1706505E-2,-5.699708E-2,-7.909735E-2,-9.984987E-2,-1.4413223E-1,-1.7588802E-1],"split_indices":[3,2,3,2,2,2,2,0,0,2,2,0,2,2,2,0,0,2,0,0,0,2,2,2,0,0,0,0,0,0,0,0,0],"split_type":[0,0,0,0,0,0,0,0,0,0,0,0,0,0,0,0,0,0,0,0,0,0,0,0,0,0,0,0,0,0,0,0,0],"sum_hessian":[9.597E3,3.766E3,5.831E3,7.81E2,2.985E3,1.211E3,4.62E3,3.8E2,4.01E2,8.63E2,2.122E3,3.9E2,8.21E2,2.232E3,2.388E3,4.31E2,4.32E2,1.709E3,4.13E2,3.86E2,4.35E2,1.107E3,1.125E3,1.963E3,4.25E2,4.27E2,1.282E3,3.69E2,7.38E2,3.72E2,7.53E2,7.67E2,1.196E3],"tree_param":{"num_deleted":"0","num_feature":"4","num_nodes":"33","size_leaf_vector":"1"}},{"base_weights":[-4.0087462E-3,1.2709837E0,-8.2210463E-1,4.8685715E-1,1.9420204E0,-1.6859089E0,-3.4672573E-1,-7.640669E-1,7.7964E-1,1.0137724E0,2.1590128E0,-1.1177619E0,-2.2707517E0,4.2861548E-1,-5.324901E-1,-6.033479E-1,-1.2567629E0,3.7281713E-1,1.0863253E0,7.1585214E-1,1.2886332E0,2.2940328E0,1.4814626E0,-2.2477446E0,-7.243013E-1,-1.1536793E0,-2.4571013E0,2.254416E-1,7.659215E-1,-1.5292129E-1,-8.524576E-1,-7.964154E-2,-1.0538314E-2,-9.745421E-2,-1.4769402E-1,1.0859857E-2,6.222437E-2,1.20028056E-1,5.5437516E-2,9.560028E-2,5.60622E-2,1.0488067E-1,1.98234E-1,1.4936039E-1,2.4829791E-1,1.5587562E-1,1.0023054E-1,-9.364192E-2,-2.4502237E-1,-4.582378E-2,-1.079538E-1,-2.1712513E-1,-8.311468E-2,-3.06969E-1,-2.065808E-1,-7.7777016E-3,3.6377933E-2,9.469793E-2,-3.4934968E-2,8.1448E-3,-3.7496578E-2,-1.0001325E-1,-1.4363266E-2],"categories":[],"categories_nodes":[],"categories_segments":[],"categories_sizes":[],"default_left":[0,0,0,0,0,0,0,0,0,0,0,0,0,0,0,0,0,0,0,0,0,0,0,0,0,0,0,0,0,0,0,0,0,0,0,0,0,0,0,0,0,0,0,0,0,0,0,0,0,0,0,0,0,0,0,0,0,0,0,0,0,0,0],"id":8,"left_children":[1,3,5,7,9,11,13,15,17,19,21,23,25,27,29,31,33,35,37,39,41,43,45,47,49,51,53,55,57,59,61,-1,-1,-1,-1,-1,-1,-1,-1,-1,-1,-1,-1,-1,-1,-1,-1,-1,-1,-1,-1,-1,-1,-1,-1,-1,-1,-1,-1,-1,-1,-1,-1],"loss_changes":[1.0015522E4,1.9737993E3,2.4012156E3,6.349392E2,4.0508838E2,6.8726855E2,5.438003E2,2.5293793E1,1.7476727E2,3.0603882E1,1.4645068E2,4.6742883E2,2.0991064E2,4.9855515E1,3.696839E2,2.3951279E1,3.531746E0,3.9803802E1,4.7829407E1,6.435158E0,3.1028381E1,2.0258008E2,8.622498E0,6.9926025E1,7.36055E1,4.6768982E1,2.0339795E2,1.9197878E1,5.5659256E1,7.257486E1,1.7278052E2,0E0,0E0,0E0,0E0,0E0,0E0,0E0,0E0,0E0,0E0,0E0,0E0,0E0,0E0,0E0,0E0,0E0,0E0,0E0,0E0,0E0,0E0,0E0,0E0,0E0,0E0,0E0,0E0,0E0,0E0,0E0,0E0],"parents":[2147483647,0,0,1,1,2,2,3,3,4,4,5,5,6,6,7,7,8,8,9,9,10,10,11,11,12,12,13,13,14,14,15,15,16,16,17,17,18,18,19,19,20,20,21,21,22,22,23,23,24,24,25,25,26,26,27,27,28,28,29,29,30,30],"right_children":[2,4,6,8,10,12,14,16,18,20,22,24,26,28,30,32,34,36,38,40,42,44,46,48,50,52,54,56,58,60,62,-1,-1,-1,-1,-1,-1,-1,-1,-1,-1,-1,-1,-1,-1,-1,-1,-1,-1,-1,-1,-1,-1,-1,-1,-1,-1,-1,-1,-1,-1,-1,-1],"split_conditions":[-2.5881904E-1,8.5E1,8.4E1,8.1E1,-5E-1,0E0,6.123234E-17,-5E-1,0E0,-7.0710677E-1,9E1,8.1E1,-1.8369701E-16,-8.660254E-1,1.2246469E-16,5E-1,-7.0710677E-1,8.3E1,8.660254E-1,8.7E1,8.9E1,8.6E1,8.660254E-1,-1.8369701E-16,-7.0710677E-1,8.1E1,8.2E1,8.6E1,9E1,-5E-1,1E0,-7.964154E-2,-1.0538314E-2,-9.745421E-2,-1.4769402E-1,1.0859857E-2,6.222437E-2,1.20028056E-1,5.5437516E-2,9.560028E-2,5.60622E-2,1.0488067E-1,1.98234E-1,1.4936039E-1,2.4829791E-1,1.5587562E-1,1.0023054E-1,-9.364192E-2,-2.4502237E-1,-4.582378E-2,-1.079538E-1,-2.1712513E-1,-8.311468E-2,-3.06969E-1,-2.065808E-1,-7.7777016E-3,3.6377933E-2,9.469793E-2,-3.4934968E-2,8.1448E-3,-3.7496578E-2,-1.0001325E-1,-1.4363266E-2],"split_indices":[3,1,1,1,2,2,3,3,2,2,1,1,3,2,2,2,2,1,2,1,1,1,2,3,2,1,1,1,1,2,2,0,0,0,0,0,0,0,0,0,0,0,0,0,0,0,0,0,0,0,0,0,0,0,0,0,0,0,0,0,0,0,0],"split_type":[0,0,0,0,0,0,0,0,0,0,0,0,0,0,0,0,0,0,0,0,0,0,0,0,0,0,0,0,0,0,0,0,0,0,0,0,0,0,0,0,0,0,0,0,0,0,0,0,0,0,0,0,0,0,0,0,0,0,0,0,0,0,0],"sum_hessian":[9.6E3,3.752E3,5.848E3,1.731E3,2.021E3,2.075E3,3.773E3,3.28E2,1.403E3,3.84E2,1.637E3,1.054E3,1.021E3,7.29E2,3.044E3,2.49E2,7.9E1,6.04E2,7.99E2,1.86E2,1.98E2,1.363E3,2.74E2,2.71E2,7.83E2,1.47E2,8.74E2,4.56E2,2.73E2,1.393E3,1.651E3,1.79E2,7E1,3.7E1,4.2E1,2.94E2,3.1E2,6.57E2,1.42E2,7.1E1,1.15E2,1.49E2,4.9E1,2.62E2,1.101E3,2.34E2,4E1,3.7E1,2.34E2,4.49E2,3.34E2,3.4E1,1.13E2,3.38E2,5.36E2,1.43E2,3.13E2,2.35E2,3.8E1,6.78E2,7.15E2,1.366E3,2.85E2],"tree_param":{"num_deleted":"0","num_feature":"4","num_nodes":"63","size_leaf_vector":"1"}},{"base_weights":[5.784049E-3,1.1530968E0,-7.306903E-1,3.8985118E-1,1.3467246E0,-4.2285454E-2,-9.0160066E-1,2.0026391E-2,5.744606E-2,1.4180002E0,9.267892E-2,-2.0083932E-2,3.5719525E-2,-5.092823E-1,-1.1738983E0,1.1606443E0,1.6676674E0,4.9150223E-3,2.3197741E-3,-2.9441485E-1,-6.530838E-1,-1.2586125E0,-7.201701E-2,1.0734286E-1,1.326862E-1,1.8099067E-1,1.3881384E-1,-2.0048216E-2,-3.90297E-2,-6.083363E-2,-7.390412E-2,-9.839069E-2,-1.388E-1],"categories":[],"categories_nodes":[],"categories_segments":[],"categories_sizes":[],"default_left":[0,0,0,0,0,0,0,0,0,0,0,0,0,0,0,0,0,0,0,0,0,0,0,0,0,0,0,0,0,0,0,0,0],"id":9,"left_children":[1,3,5,7,9,11,13,-1,-1,15,-1,-1,17,19,21,23,25,-1,-1,27,29,31,-1,-1,-1,-1,-1,-1,-1,-1,-1,-1,-1],"loss_changes":[8.0702715E3,5.5130615E2,6.843638E2,2.6379654E1,8.78208E1,1.43293085E1,4.9721826E2,0E0,0E0,1.6152539E2,0E0,0E0,1.2953287E-1,5.885431E1,1.047959E2,1.6783691E1,4.8738037E1,0E0,0E0,6.8387146E0,3.950653E0,8.095288E1,0E0,0E0,0E0,0E0,0E0,0E0,0E0,0E0,0E0,0E0,0E0],"parents":[2147483647,0,0,1,1,2,2,3,3,4,4,5,5,6,6,9,9,12,12,13,13,14,14,15,15,16,16,19,19,20,20,21,21],"right_children":[2,4,6,8,10,12,14,-1,-1,16,-1,-1,18,20,22,24,26,-1,-1,28,30,32,-1,-1,-1,-1,-1,-1,-1,-1,-1,-1,-1],"split_conditions":[-2.5881904E-1,-5E-1,6.123234E-17,-7.0710677E-1,8.660254E-1,-9.659258E-1,0E0,2.0026391E-2,5.744606E-2,2.5881904E-1,9.267892E-2,-2.0083932E-2,-8.660254E-1,-7.0710677E-1,1E0,0E0,7.0710677E-1,4.9150223E-3,2.3197741E-3,-8.660254E-1,-2.5881904E-1,5E-1,-7.201701E-2,1.0734286E-1,1.326862E-1,1.8099067E-1,1.3881384E-1,-2.0048216E-2,-3.90297E-2,-6.083363E-2,-7.390412E-2,-9.839069E-2,-1.388E-1],"split_indices":[3,2,3,2,2,2,2,0,0,2,0,0,2,2,2,2,2,0,0,2,2,2,0,0,0,0,0,0,0,0,0,0,0],"split_type":[0,0,0,0,0,0,0,0,0,0,0,0,0,0,0,0,0,0,0,0,0,0,0,0,0,0,0,0,0,0,0,0,0],"sum_hessian":[9.549E3,3.733E3,5.816E3,7.56E2,2.977E3,1.157E3,4.659E3,3.74E2,3.82E2,2.543E3,4.34E2,3.81E2,7.76E2,1.91E3,2.749E3,1.255E3,1.288E3,3.73E2,4.03E2,7.67E2,1.143E3,2.315E3,4.34E2,8.28E2,4.27E2,8.5E2,4.38E2,3.89E2,3.78E2,7.57E2,3.86E2,7.44E2,1.571E3],"tree_param":{"num_deleted":"0","num_feature":"4","num_nodes":"33","size_leaf_vector":"1"}},{"base_weights":[-5.131821E-4,1.0195801E0,-6.6952837E-1,3.0920267E-1,1.6307234E0,-1.6314484E0,-3.3378133E-1,-7.8305197E-1,5.873371E-1,8.922271E-1,1.8103857E0,-1.183961E0,-2.1314323E0,2.9571846E-1,-4.826711E-1,-6.924222E-1,-1.4079027E-1,3.112912E-2,7.380329E-1,6.222504E-1,1.132243E0,1.9350379E0,1.1994013E0,-1.9563609E0,-7.843696E-1,-1.3064659E0,-2.2792265E0,-1.5486561E-1,4.7040102E-1,-6.654829E-2,-7.3870057E-1,-8.683135E-2,-1.1498364E-2,-9.002513E-3,1.7225018E-2,6.1737783E-2,1.101277E-1,8.413377E-2,4.988544E-2,9.164563E-2,1.7237066E-1,1.2189197E-1,2.1099778E-1,1.24860466E-1,8.645959E-2,-1.2686914E-1,-2.2580253E-1,-2.6851743E-2,-9.883311E-2,-1.8833767E-1,-1.031184E-1,-3.481196E-1,-2.1300642E-1,-2.4667779E-2,-1.0486668E-2,2.9575128E-2,7.662694E-2,-2.5447413E-2,1.93202E-2,-1.20766275E-1,-4.55504E-2],"categories":[],"categories_nodes":[],"categories_segments":[],"categories_sizes":[],"default_left":[0,0,0,0,0,0,0,0,0,0,0,0,0,0,0,0,0,0,0,0,0,0,0,0,0,0,0,0,0,0,0,0,0,0,0,0,0,0,0,0,0,0,0,0,0,0,0,0,0,0,0,0,0,0,0,0,0,0,0,0,0],"id":10,"left_children":[1,3,5,7,9,11,13,15,17,19,21,23,25,27,29,31,-1,33,35,37,39,41,43,45,47,49,51,53,55,57,59,-1,-1,-1,-1,-1,-1,-1,-1,-1,-1,-1,-1,-1,-1,-1,-1,-1,-1,-1,-1,-1,-1,-1,-1,-1,-1,-1,-1,-1,-1],"loss_changes":[6.5045063E3,1.6383833E3,1.8584236E3,5.3118726E2,2.6759277E2,3.3061963E2,4.0016568E2,1.9128815E1,1.1673581E2,2.5150146E1,1.2189697E2,2.4167725E2,8.261426E1,6.437826E1,3.6772595E2,3.1588913E1,0E0,5.110536E0,4.7354736E1,4.7168503E0,2.5222595E1,1.6692871E2,3.5166016E0,5.273047E1,5.4551086E1,1.5368515E1,9.9082275E1,1.0253592E0,3.020897E1,6.428812E1,2.832616E2,0E0,0E0,0E0,0E0,0E0,0E0,0E0,0E0,0E0,0E0,0E0,0E0,0E0,0E0,0E0,0E0,0E0,0E0,0E0,0E0,0E0,0E0,0E0,0E0,0E0,0E0,0E0,0E0,0E0,0E0],"parents":[2147483647,0,0,1,1,2,2,3,3,4,4,5,5,6,6,7,7,8,8,9,9,10,10,11,11,12,12,13,13,14,14,15,15,17,17,18,18,19,19,20,20,21,21,22,22,23,23,24,24,25,25,26,26,27,27,28,28,29,29,30,30],"right_children":[2,4,6,8,10,12,14,16,18,20,22,24,26,28,30,32,-1,34,36,38,40,42,44,46,48,50,52,54,56,58,60,-1,-1,-1,-1,-1,-1,-1,-1,-1,-1,-1,-1,-1,-1,-1,-1,-1,-1,-1,-1,-1,-1,-1,-1,-1,-1,-1,-1,-1,-1],"split_conditions":[-2.5881904E-1,8.5E1,8.3E1,8.1E1,-5E-1,0E0,6.123234E-17,8.660254E-1,-5E-1,-7.0710677E-1,9E1,8.1E1,-1.8369701E-16,8.5E1,0E0,5E-1,-1.4079027E-1,-7.0710677E-1,8.4E1,8.7E1,8.9E1,8.6E1,8.660254E-1,6.123234E-17,6.123234E-17,8.1E1,8.1E1,-9.659258E-1,-8.660254E-1,8.7E1,8.6E1,-8.683135E-2,-1.1498364E-2,-9.002513E-3,1.7225018E-2,6.1737783E-2,1.101277E-1,8.413377E-2,4.988544E-2,9.164563E-2,1.7237066E-1,1.2189197E-1,2.1099778E-1,1.24860466E-1,8.645959E-2,-1.2686914E-1,-2.2580253E-1,-2.6851743E-2,-9.883311E-2,-1.8833767E-1,-1.031184E-1,-3.481196E-1,-2.1300642E-1,-2.4667779E-2,-1.0486668E-2,2.9575128E-2,7.662694E-2,-2.5447413E-2,1.93202E-2,-1.20766275E-1,-4.55504E-2],"split_indices":[3,1,1,1,2,2,3,2,2,2,1,1,3,1,2,2,0,2,1,1,1,1,2,3,3,1,1,2,2,1,1,0,0,0,0,0,0,0,0,0,0,0,0,0,0,0,0,0,0,0,0,0,0,0,0,0,0,0,0,0,0],"split_type":[0,0,0,0,0,0,0,0,0,0,0,0,0,0,0,0,0,0,0,0,0,0,0,0,0,0,0,0,0,0,0,0,0,0,0,0,0,0,0,0,0,0,0,0,0,0,0,0,0,0,0,0,0,0,0,0,0,0,0,0,0],"sum_hessian":[9.529E3,3.774E3,5.755E3,1.746E3,2.028E3,1.488E3,4.267E3,3.54E2,1.392E3,3.98E2,1.63E3,7.87E2,7.01E2,8.16E2,3.451E3,3.11E2,4.3E1,2.97E2,1.095E3,1.89E2,2.09E2,1.352E3,2.78E2,2.67E2,5.2E2,1.08E2,5.93E2,2.28E2,5.88E2,1.315E3,2.136E3,2.38E2,7.3E1,1.6E2,1.37E2,8.24E2,2.71E2,6.6E1,1.23E2,1.55E2,5.4E1,2.67E2,1.085E3,2.4E2,3.8E1,8.3E1,1.84E2,1.48E2,3.72E2,3.3E1,7.5E1,6.3E1,5.3E2,7.9E1,1.49E2,3.71E2,2.17E2,7.63E2,5.52E2,8.03E2,1.333E3],"tree_param":{"num_deleted":"0","num_feature":"4","num_nodes":"61","size_leaf_vector":"1"}},{"base_weights":[-4.865826E-4,9.323698E-1,-5.969424E-1,2.9185587E-1,1.4778117E0,-1.2888607E0,-2.1215673E-1,-6.5657157E-1,5.359013E-1,9.8539776E-1,1.6987206E0,-8.4527624E-1,-1.7607632E0,2.6093933E-1,-3.81953E-1,-5.489256E-1,-1.0072856E0,2.717887E-1,8.4380984E-1,5.9378433E-1,1.1456695E0,1.9093909E0,1.2736951E0,-1.7538424E0,-5.3985965E-1,-9.126554E-1,-1.8892196E0,-1.0453414E-1,4.1337013E-1,-7.201157E-2,-7.080558E-1,-7.3328875E-2,-5.9804204E-3,-8.153687E-2,-1.16608076E-1,5.509535E-3,4.103104E-2,9.901737E-2,3.8389724E-2,7.687869E-2,4.785723E-2,9.647685E-2,1.552922E-1,1.6630042E-1,2.606542E-1,1.4864855E-1,1.0497186E-1,-7.1691334E-2,-1.9371633E-1,-2.6466046E-2,-7.562424E-2,-1.671411E-1,-6.680648E-2,-2.3989795E-1,-1.5783916E-1,1.2512646E-2,-3.5313327E-2,4.9455103E-2,-2.0052752E-2,-4.680595E-2,1.2990976E-3,-8.855077E-2,-4.674092E-2],"categories":[],"categories_nodes":[],"categories_segments":[],"categories_sizes":[],"default_left":[0,0,0,0,0,0,0,0,0,0,0,0,0,0,0,0,0,0,0,0,0,0,0,0,0,0,0,0,0,0,0,0,0,0,0,0,0,0,0,0,0,0,0,0,0,0,0,0,0,0,0,0,0,0,0,0,0,0,0,0,0,0,0],"id":11,"left_children":[1,3,5,7,9,11,13,15,17,19,21,23,25,27,29,31,33,35,37,39,41,43,45,47,49,51,53,55,57,59,61,-1,-1,-1,-1,-1,-1,-1,-1,-1,-1,-1,-1,-1,-1,-1,-1,-1,-1,-1,-1,-1,-1,-1,-1,-1,-1,-1,-1,-1,-1,-1,-1],"loss_changes":[5.2942188E3,1.2960552E3,1.5449851E3,3.9568445E2,2.1631836E2,4.3265918E2,2.998107E2,1.2660629E1,1.10287994E2,3.8421997E1,1.2131299E2,2.9624628E2,1.07656494E2,5.4972694E1,2.7749475E2,2.4303658E1,1.5177231E0,2.1979656E1,4.182611E1,3.3217926E0,3.0991333E1,1.5403613E2,2.0410889E1,4.9745667E1,4.7617172E1,2.3751701E1,1.3422144E2,1.6658371E1,3.4785553E1,4.744018E1,5.6723022E1,0E0,0E0,0E0,0E0,0E0,0E0,0E0,0E0,0E0,0E0,0E0,0E0,0E0,0E0,0E0,0E0,0E0,0E0,0E0,0E0,0E0,0E0,0E0,0E0,0E0,0E0,0E0,0E0,0E0,0E0,0E0,0E0],"parents":[2147483647,0,0,1,1,2,2,3,3,4,4,5,5,6,6,7,7,8,8,9,9,10,10,11,11,12,12,13,13,14,14,15,15,16,16,17,17,18,18,19,19,20,20,21,21,22,22,23,23,24,24,25,25,26,26,27,27,28,28,29,29,30,30],"right_children":[2,4,6,8,10,12,14,16,18,20,22,24,26,28,30,32,34,36,38,40,42,44,46,48,50,52,54,56,58,60,62,-1,-1,-1,-1,-1,-1,-1,-1,-1,-1,-1,-1,-1,-1,-1,-1,-1,-1,-1,-1,-1,-1,-1,-1,-1,-1,-1,-1,-1,-1,-1,-1],"split_conditions":[-2.5881904E-1,8.5E1,8.4E1,8.1E1,-2.5881904E-1,0E0,2.5881904E-1,-5E-1,2.5881904E-1,-7.0710677E-1,8.9E1,8.1E1,-1.8369701E-16,8.6E1,1.2246469E-16,5E-1,-7.0710677E-1,-5E-1,8.660254E-1,8.7E1,8.9E1,8.8E1,9E1,-1.8369701E-16,-8.660254E-1,8.1E1,8.2E1,-1.8369701E-16,9E1,8.5E1,8.8E1,-7.3328875E-2,-5.9804204E-3,-8.153687E-2,-1.16608076E-1,5.509535E-3,4.103104E-2,9.901737E-2,3.8389724E-2,7.687869E-2,4.785723E-2,9.647685E-2,1.552922E-1,1.6630042E-1,2.606542E-1,1.4864855E-1,1.0497186E-1,-7.1691334E-2,-1.9371633E-1,-2.6466046E-2,-7.562424E-2,-1.671411E-1,-6.680648E-2,-2.3989795E-1,-1.5783916E-1,1.2512646E-2,-3.5313327E-2,4.9455103E-2,-2.0052752E-2,-4.680595E-2,1.2990976E-3,-8.855077E-2,-4.674092E-2],"split_indices":[3,1,1,1,2,2,3,3,2,2,1,1,3,1,2,2,2,2,2,1,1,1,1,3,2,1,1,3,1,1,1,0,0,0,0,0,0,0,0,0,0,0,0,0,0,0,0,0,0,0,0,0,0,0,0,0,0,0,0,0,0,0,0],"split_type":[0,0,0,0,0,0,0,0,0,0,0,0,0,0,0,0,0,0,0,0,0,0,0,0,0,0,0,0,0,0,0,0,0,0,0,0,0,0,0,0,0,0,0,0,0,0,0,0,0,0,0,0,0,0,0,0,0,0,0,0,0,0,0],"sum_hessian":[9.513E3,3.71E3,5.803E3,1.707E3,2.003E3,2.073E3,3.73E3,3.49E2,1.358E3,6.22E2,1.381E3,1.07E3,1.003E3,9.85E2,2.745E3,2.69E2,8E1,7.32E2,6.26E2,1.82E2,4.4E2,9.21E2,4.6E2,2.68E2,8.02E2,1.33E2,8.7E2,2.9E2,6.95E2,1.408E3,1.337E3,1.95E2,7.4E1,3.9E1,4.1E1,2.86E2,4.46E2,4.74E2,1.52E2,7E1,1.12E2,3.07E2,1.33E2,6.83E2,2.38E2,2.33E2,2.27E2,4.1E1,2.27E2,3.54E2,4.48E2,3.1E1,1.02E2,3.27E2,5.43E2,1.51E2,1.39E2,6.14E2,8.1E1,2.48E2,1.16E3,7.68E2,5.69E2],"tree_param":{"num_deleted":"0","num_feature":"4","num_nodes":"63","size_leaf_vector":"1"}},{"base_weights":[9.4917655E-4,8.394476E-1,-5.3368527E-1,1.24675564E-1,1.2550799E0,-1.1660374E0,-1.8503608E-1,-6.124473E-1,3.554366E-1,7.984063E-1,1.4582411E0,-7.7308697E-1,-1.578823E0,2.4249893E-1,-3.4527463E-1,-5.404892E-1,-1.11523464E-1,4.1912366E-2,5.1012033E-1,4.3112406E-1,9.62166E-1,9.959014E-1,1.6378256E0,-1.59207E0,-4.887758E-1,-7.6949817E-1,-1.7037357E0,-8.712083E-2,3.7419608E-1,-6.99419E-2,-6.339407E-1,-6.97748E-2,-8.457108E-3,-7.947258E-3,2.8327454E-2,5.8158994E-2,1.459104E-2,3.0147566E-2,6.4670265E-2,5.518945E-2,1.1321329E-1,6.0059197E-2,1.1826924E-1,1.9630839E-1,1.1571038E-1,-9.842792E-2,-1.8420534E-1,-6.525188E-2,-1.6618682E-2,-1.0586053E-1,4.048337E-3,-2.1837746E-1,-1.410482E-1,4.16656E-3,-4.3814298E-2,4.4021334E-2,-1.8666977E-2,-2.5178853E-2,1.0892137E-2,-9.2485756E-2,-5.1228542E-2],"categories":[],"categories_nodes":[],"categories_segments":[],"categories_sizes":[],"default_left":[0,0,0,0,0,0,0,0,0,0,0,0,0,0,0,0,0,0,0,0,0,0,0,0,0,0,0,0,0,0,0,0,0,0,0,0,0,0,0,0,0,0,0,0,0,0,0,0,0,0,0,0,0,0,0,0,0,0,0,0,0],"id":12,"left_children":[1,3,5,7,9,11,13,15,17,19,21,23,25,27,29,31,-1,33,35,37,39,41,43,45,47,49,51,53,55,57,59,-1,-1,-1,-1,-1,-1,-1,-1,-1,-1,-1,-1,-1,-1,-1,-1,-1,-1,-1,-1,-1,-1,-1,-1,-1,-1,-1,-1,-1,-1],"loss_changes":[4.2865503E3,1.1058809E3,1.2871034E3,2.3325365E2,2.172356E2,3.3535303E2,2.5801483E2,1.1227966E1,5.0609604E1,4.331137E1,1.3354028E2,2.4720282E2,1.0089624E2,4.461465E1,2.176492E2,2.0589767E1,0E0,1.0159529E1,1.8110062E1,6.121605E0,3.438098E1,3.310855E1,1.808247E2,3.981781E1,4.172635E1,3.212433E1,1.20096436E2,1.3309081E1,2.7259872E1,4.5660954E1,4.6844788E1,0E0,0E0,0E0,0E0,0E0,0E0,0E0,0E0,0E0,0E0,0E0,0E0,0E0,0E0,0E0,0E0,0E0,0E0,0E0,0E0,0E0,0E0,0E0,0E0,0E0,0E0,0E0,0E0,0E0,0E0],"parents":[2147483647,0,0,1,1,2,2,3,3,4,4,5,5,6,6,7,7,8,8,9,9,10,10,11,11,12,12,13,13,14,14,15,15,17,17,18,18,19,19,20,20,21,21,22,22,23,23,24,24,25,25,26,26,27,27,28,28,29,29,30,30],"right_children":[2,4,6,8,10,12,14,16,18,20,22,24,26,28,30,32,-1,34,36,38,40,42,44,46,48,50,52,54,56,58,60,-1,-1,-1,-1,-1,-1,-1,-1,-1,-1,-1,-1,-1,-1,-1,-1,-1,-1,-1,-1,-1,-1,-1,-1,-1,-1,-1,-1,-1,-1],"split_conditions":[-2.5881904E-1,8.4E1,8.4E1,8.1E1,-2.5881904E-1,0E0,2.5881904E-1,8.660254E-1,-2.5881904E-1,8.6E1,8.6E1,8.1E1,-1.8369701E-16,8.6E1,1.2246469E-16,5E-1,-1.11523464E-1,8.3E1,8.660254E-1,-5E-1,-7.0710677E-1,2.5881904E-1,8.9E1,6.123234E-17,8.3E1,8.3E1,8.2E1,1E0,9E1,8.7E1,8.6E1,-6.97748E-2,-8.457108E-3,-7.947258E-3,2.8327454E-2,5.8158994E-2,1.459104E-2,3.0147566E-2,6.4670265E-2,5.518945E-2,1.1321329E-1,6.0059197E-2,1.1826924E-1,1.9630839E-1,1.1571038E-1,-9.842792E-2,-1.8420534E-1,-6.525188E-2,-1.6618682E-2,-1.0586053E-1,4.048337E-3,-2.1837746E-1,-1.410482E-1,4.16656E-3,-4.3814298E-2,4.4021334E-2,-1.8666977E-2,-2.5178853E-2,1.0892137E-2,-9.2485756E-2,-5.1228542E-2],"split_indices":[3,1,1,1,2,2,3,2,2,1,1,1,3,1,2,2,0,1,2,2,2,2,1,3,1,1,1,2,1,1,1,0,0,0,0,0,0,0,0,0,0,0,0,0,0,0,0,0,0,0,0,0,0,0,0,0,0,0,0,0,0],"split_type":[0,0,0,0,0,0,0,0,0,0,0,0,0,0,0,0,0,0,0,0,0,0,0,0,0,0,0,0,0,0,0,0,0,0,0,0,0,0,0,0,0,0,0,0,0,0,0,0,0,0,0,0,0,0,0,0,0,0,0,0,0],"sum_hessian":[9.56E3,3.722E3,5.838E3,1.369E3,2.353E3,2.074E3,3.764E3,3.26E2,1.043E3,7.26E2,1.627E3,1.064E3,1.01E3,1.026E3,2.738E3,2.87E2,3.9E1,3.45E2,6.98E2,2.25E2,5.01E2,4.57E2,1.17E3,2.73E2,7.91E2,1.36E2,8.74E2,2.93E2,7.33E2,1.402E3,1.336E3,2.13E2,7.4E1,2.3E2,1.15E2,5.83E2,1.15E2,1.42E2,8.3E1,1.48E2,3.53E2,1.48E2,3.09E2,6.96E2,4.74E2,8.1E1,1.92E2,5.24E2,2.67E2,1E2,3.6E1,3.29E2,5.45E2,2.15E2,7.8E1,6.56E2,7.7E1,6.95E2,7.07E2,3.92E2,9.44E2],"tree_param":{"num_deleted":"0","num_feature":"4","num_nodes":"61","size_leaf_vector":"1"}},{"base_weights":[8.506124E-3,7.528807E-1,-4.7690672E-1,1.0883707E-1,1.1185689E0,-1.1887643E0,-2.2940913E-1,-5.6543034E-1,3.3480114E-1,5.30951E-1,1.259227E0,-6.189325E-1,-1.4306785E0,2.4180047E-1,-3.4577838E-1,-4.955247E-1,-1.0075251E-1,1.4435853E-1,5.5890155E-1,4.2775327E-1,9.705442E-1,8.516621E-1,1.4219917E0,-1.2147027E0,-3.2591867E-1,-1.9284297E0,-1.2983795E0,-1.0903522E-1,3.732568E-1,2.620938E-2,-5.118108E-1,-6.1663575E-2,-7.503518E-3,4.3668117E-2,-2.585861E-4,6.903138E-2,1.1613523E-2,5.497742E-3,5.1772203E-2,5.5360723E-2,1.291094E-1,5.7101693E-2,1.0547074E-1,1.6713637E-1,1.0731703E-1,-8.206969E-2,-1.6482066E-1,-1.221275E-2,-5.2755147E-2,-1.6534255E-1,-2.2544308E-1,-8.149957E-2,-1.4045207E-1,-1.954293E-2,-6.4298655E-3,2.0475265E-2,6.338383E-2,-2.6683155E-2,1.5698856E-2,-7.002072E-2,-1.8610748E-2],"categories":[],"categories_nodes":[],"categories_segments":[],"categories_sizes":[],"default_left":[0,0,0,0,0,0,0,0,0,0,0,0,0,0,0,0,0,0,0,0,0,0,0,0,0,0,0,0,0,0,0,0,0,0,0,0,0,0,0,0,0,0,0,0,0,0,0,0,0,0,0,0,0,0,0,0,0,0,0,0,0],"id":13,"left_children":[1,3,5,7,9,11,13,15,17,19,21,23,25,27,29,31,-1,33,35,37,39,41,43,45,47,49,51,53,55,57,59,-1,-1,-1,-1,-1,-1,-1,-1,-1,-1,-1,-1,-1,-1,-1,-1,-1,-1,-1,-1,-1,-1,-1,-1,-1,-1,-1,-1,-1,-1],"loss_changes":[3.4575547E3,8.894341E2,1.02017957E3,2.0877045E2,1.9844336E2,2.0506274E2,2.3581627E2,1.0132034E1,4.370723E1,2.077031E1,1.27681885E2,7.76364E1,6.650928E1,3.933457E1,2.1296881E2,1.518058E1,0E0,2.3884207E1,2.7324905E1,1.2716049E1,1.1046356E1,3.1137665E1,1.188562E2,2.3755386E1,1.2303957E1,1.5816528E1,4.1491333E1,8.879733E-1,2.7093842E1,4.085658E1,1.4615515E2,0E0,0E0,0E0,0E0,0E0,0E0,0E0,0E0,0E0,0E0,0E0,0E0,0E0,0E0,0E0,0E0,0E0,0E0,0E0,0E0,0E0,0E0,0E0,0E0,0E0,0E0,0E0,0E0,0E0,0E0],"parents":[2147483647,0,0,1,1,2,2,3,3,4,4,5,5,6,6,7,7,8,8,9,9,10,10,11,11,12,12,13,13,14,14,15,15,17,17,18,18,19,19,20,20,21,21,22,22,23,23,24,24,25,25,26,26,27,27,28,28,29,29,30,30],"right_children":[2,4,6,8,10,12,14,16,18,20,22,24,26,28,30,32,-1,34,36,38,40,42,44,46,48,50,52,54,56,58,60,-1,-1,-1,-1,-1,-1,-1,-1,-1,-1,-1,-1,-1,-1,-1,-1,-1,-1,-1,-1,-1,-1,-1,-1,-1,-1,-1,-1,-1,-1],"split_conditions":[-2.5881904E-1,8.4E1,8.3E1,8.1E1,-5E-1,-7.0710677E-1,6.123234E-17,8.660254E-1,2.5881904E-1,8.9E1,8.6E1,8.1E1,8.1E1,8.5E1,-2.5881904E-1,5E-1,-1.0075251E-1,8.2E1,8.660254E-1,8.5E1,-7.0710677E-1,2.5881904E-1,8.9E1,6.123234E-17,6.123234E-17,0E0,2.5881904E-1,-9.659258E-1,-8.660254E-1,8.5E1,8.8E1,-6.1663575E-2,-7.503518E-3,4.3668117E-2,-2.585861E-4,6.903138E-2,1.1613523E-2,5.497742E-3,5.1772203E-2,5.5360723E-2,1.291094E-1,5.7101693E-2,1.0547074E-1,1.6713637E-1,1.0731703E-1,-8.206969E-2,-1.6482066E-1,-1.221275E-2,-5.2755147E-2,-1.6534255E-1,-2.2544308E-1,-8.149957E-2,-1.4045207E-1,-1.954293E-2,-6.4298655E-3,2.0475265E-2,6.338383E-2,-2.6683155E-2,1.5698856E-2,-7.002072E-2,-1.8610748E-2],"split_indices":[3,1,1,1,2,2,3,2,2,1,1,1,1,1,2,2,0,1,2,1,2,2,1,3,3,2,3,2,2,1,1,0,0,0,0,0,0,0,0,0,0,0,0,0,0,0,0,0,0,0,0,0,0,0,0,0,0,0,0,0,0],"split_type":[0,0,0,0,0,0,0,0,0,0,0,0,0,0,0,0,0,0,0,0,0,0,0,0,0,0,0,0,0,0,0,0,0,0,0,0,0,0,0,0,0,0,0,0,0,0,0,0,0,0,0,0,0,0,0,0,0,0,0,0,0],"sum_hessian":[9.567E3,3.776E3,5.791E3,1.368E3,2.408E3,1.493E3,4.298E3,3.43E2,1.025E3,4.66E2,1.942E3,4.46E2,1.047E3,8.51E2,3.447E3,2.98E2,4.5E1,5.55E2,4.7E2,3.79E2,8.7E1,5.56E2,1.386E3,1.46E2,3E2,2.17E2,8.3E2,2.32E2,6.19E2,1.064E3,2.383E3,2.31E2,6.7E1,1.85E2,3.7E2,3.62E2,1.08E2,7.4E1,3.05E2,3.9E1,4.8E1,2.35E2,3.21E2,8.06E2,5.8E2,7.8E1,6.8E1,1.5E2,1.5E2,1.21E2,9.6E1,1.51E2,6.79E2,7.8E1,1.54E2,3.77E2,2.42E2,3.28E2,7.36E2,1.509E3,8.74E2],"tree_param":{"num_deleted":"0","num_feature":"4","num_nodes":"61","size_leaf_vector":"1"}},{"base_weights":[-5.0300458E-3,5.6084913E-1,-5.102424E-1,7.720819E-1,1.7460284E-1,-3.0215418E-1,-7.413642E-1,4.975113E-1,9.693185E-1,2.7180424E-1,7.9228126E-2,-1.4645612E-1,-4.1723257E-1,-8.2472485E-1,-3.6096733E-2,3.461227E-2,5.67359E-1,1.0378497E0,7.743053E-2,9.152588E-3,4.2569205E-2,6.4538415E-3,9.183505E-3,-1.1015682E-1,-2.1857252E-2,-3.634718E-1,-4.7058906E-2,-5.804777E-2,-8.826526E-1,4.983197E-2,6.3652866E-2,7.8960836E-2,1.1599936E-1,-1.5054596E-2,-7.053263E-3,-3.37506E-2,-3.8803235E-2,-7.73822E-2,-9.1962636E-2],"categories":[],"categories_nodes":[],"categories_segments":[],"categories_sizes":[],"default_left":[0,0,0,0,0,0,0,0,0,0,0,0,0,0,0,0,0,0,0,0,0,0,0,0,0,0,0,0,0,0,0,0,0,0,0,0,0,0,0],"id":14,"left_children":[1,3,5,7,9,11,13,15,17,19,21,23,25,27,-1,-1,29,31,-1,-1,-1,-1,-1,33,-1,35,-1,-1,37,-1,-1,-1,-1,-1,-1,-1,-1,-1,-1],"loss_changes":[2.74082E3,3.688053E2,2.4337073E2,1.5781409E2,1.4811359E1,4.7724808E1,7.57749E1,1.2746368E1,2.1915894E1,2.1933212E1,1.4389324E-1,2.9470978E0,4.226349E0,2.7318115E1,0E0,0E0,3.6750793E0,3.7137207E1,0E0,0E0,0E0,0E0,0E0,1.2008743E0,0E0,3.5881042E-1,0E0,0E0,5.6783447E0,0E0,0E0,0E0,0E0,0E0,0E0,0E0,0E0,0E0,0E0],"parents":[2147483647,0,0,1,1,2,2,3,3,4,4,5,5,6,6,7,7,8,8,9,9,10,10,11,11,12,12,13,13,16,16,17,17,23,23,25,25,28,28],"right_children":[2,4,6,8,10,12,14,16,18,20,22,24,26,28,-1,-1,30,32,-1,-1,-1,-1,-1,34,-1,36,-1,-1,38,-1,-1,-1,-1,-1,-1,-1,-1,-1,-1],"split_conditions":[-1.8369701E-16,-5E-1,1.2246469E-16,0E0,-2.5881904E-1,-7.0710677E-1,1E0,-5E-1,7.0710677E-1,-7.0710677E-1,-8.660254E-1,-8.660254E-1,-2.5881904E-1,5E-1,-3.6096733E-2,3.461227E-2,-2.5881904E-1,2.5881904E-1,7.743053E-2,9.152588E-3,4.2569205E-2,6.4538415E-3,9.183505E-3,-9.659258E-1,-2.1857252E-2,-5E-1,-4.7058906E-2,-5.804777E-2,7.0710677E-1,4.983197E-2,6.3652866E-2,7.8960836E-2,1.1599936E-1,-1.5054596E-2,-7.053263E-3,-3.37506E-2,-3.8803235E-2,-7.73822E-2,-9.1962636E-2],"split_indices":[3,3,2,2,3,2,2,2,2,2,2,2,2,2,0,0,2,2,0,0,0,0,0,2,0,2,0,0,2,0,0,0,0,0,0,0,0,0,0],"split_type":[0,0,0,0,0,0,0,0,0,0,0,0,0,0,0,0,0,0,0,0,0,0,0,0,0,0,0,0,0,0,0,0,0,0,0,0,0,0,0],"sum_hessian":[9.585E3,4.521E3,5.064E3,2.922E3,1.599E3,2.666E3,2.398E3,1.223E3,1.699E3,7.91E2,8.08E2,1.134E3,1.532E3,1.966E3,4.32E2,3.88E2,8.35E2,1.254E3,4.45E2,3.65E2,4.26E2,3.76E2,4.32E2,7.56E2,3.78E2,7.67E2,7.65E2,3.79E2,1.587E3,4.22E2,4.13E2,4.16E2,8.38E2,3.73E2,3.83E2,3.8E2,3.87E2,4.08E2,1.179E3],"tree_param":{"num_deleted":"0","num_feature":"4","num_nodes":"39","size_leaf_vector":"1"}},{"base_weights":[5.1695914E-3,6.181961E-1,-3.8713452E-1,3.0029204E-1,7.6594895E-1,7.6126307E-3,-4.866094E-1,9.168255E-3,3.9673793E-1,8.38062E-1,4.093135E-2,-1.2229534E-2,6.94484E-2,-2.9937288E-1,-6.623803E-1,3.1507228E-2,4.6779502E-2,6.664352E-1,9.5007265E-1,4.4480693E-3,9.237385E-3,-1.436977E-1,-3.7994972E-1,-7.3265535E-1,-3.350761E-2,5.8273125E-2,7.501467E-2,1.07212044E-1,7.034547E-2,-9.708348E-3,-1.8898388E-2,-2.9456457E-2,-4.0738516E-2,-5.9607327E-2,-8.209231E-2],"categories":[],"categories_nodes":[],"categories_segments":[],"categories_sizes":[],"default_left":[0,0,0,0,0,0,0,0,0,0,0,0,0,0,0,0,0,0,0,0,0,0,0,0,0,0,0,0,0,0,0,0,0,0,0],"id":15,"left_children":[1,3,5,7,9,11,13,-1,15,17,-1,-1,19,21,23,-1,-1,25,27,-1,-1,29,31,33,-1,-1,-1,-1,-1,-1,-1,-1,-1,-1,-1],"loss_changes":[2.2926172E3,1.7450293E2,2.2826514E2,2.3744904E1,6.49552E1,9.415088E0,1.526062E2,0E0,4.541374E0,3.994873E1,0E0,0E0,4.503734E-1,2.8168976E1,5.4819702E1,0E0,0E0,5.4277344E0,3.7622314E1,0E0,0E0,1.6049976E0,3.3516998E0,2.326062E1,0E0,0E0,0E0,0E0,0E0,0E0,0E0,0E0,0E0,0E0,0E0],"parents":[2147483647,0,0,1,1,2,2,3,3,4,4,5,5,6,6,8,8,9,9,12,12,13,13,14,14,17,17,18,18,21,21,22,22,23,23],"right_children":[2,4,6,8,10,12,14,-1,16,18,-1,-1,20,22,24,-1,-1,26,28,-1,-1,30,32,34,-1,-1,-1,-1,-1,-1,-1,-1,-1,-1,-1],"split_conditions":[-2.5881904E-1,-2.5881904E-1,6.123234E-17,-7.0710677E-1,8.660254E-1,-9.659258E-1,1.2246469E-16,9.168255E-3,-5E-1,2.5881904E-1,4.093135E-2,-1.2229534E-2,-8.660254E-1,-7.0710677E-1,1E0,3.1507228E-2,4.6779502E-2,0E0,7.0710677E-1,4.4480693E-3,9.237385E-3,-8.660254E-1,-5E-1,7.0710677E-1,-3.350761E-2,5.8273125E-2,7.501467E-2,1.07212044E-1,7.034547E-2,-9.708348E-3,-1.8898388E-2,-2.9456457E-2,-4.0738516E-2,-5.9607327E-2,-8.209231E-2],"split_indices":[3,2,3,2,2,2,2,0,2,2,0,0,2,2,2,0,0,2,2,0,0,2,2,2,0,0,0,0,0,0,0,0,0,0,0],"split_type":[0,0,0,0,0,0,0,0,0,0,0,0,0,0,0,0,0,0,0,0,0,0,0,0,0,0,0,0,0,0,0,0,0,0,0],"sum_hessian":[9.531E3,3.719E3,5.812E3,1.181E3,2.538E3,1.17E3,4.642E3,3.74E2,8.07E2,2.11E3,4.28E2,3.77E2,7.93E2,2.249E3,2.393E3,3.78E2,4.29E2,8.36E2,1.274E3,3.81E2,4.12E2,7.68E2,1.481E3,1.969E3,4.24E2,4.22E2,4.14E2,8.5E2,4.24E2,3.8E2,3.88E2,3.63E2,1.118E3,7.76E2,1.193E3],"tree_param":{"num_deleted":"0","num_feature":"4","num_nodes":"35","size_leaf_vector":"1"}},{"base_weights":[-4.0619755E-3,5.465897E-1,-3.5736135E-1,-2.1573959E-2,8.731489E-1,-8.7507063E-1,-6.685325E-2,-6.20118E-1,1.8208171E-1,5.265598E-1,1.0162293E0,-5.614727E-1,-1.2088957E0,1.5205413E-1,-2.1000765E-1,-5.7023025E-1,-1.0094656E-1,7.336034E-2,3.8996857E-1,3.124334E-1,7.715397E-1,1.2353101E0,7.2178763E-1,-1.242934E0,-3.2797793E-1,-1.4995981E0,-1.002292E0,-1.084337E-1,2.609667E-1,-6.3214734E-2,-4.6335325E-1,-6.4737976E-2,-3.2518797E-2,2.3642985E-2,-1.7825805E-3,5.636828E-2,3.159634E-3,1.7873015E-2,3.951445E-2,9.170481E-2,6.283959E-2,1.3842493E-1,6.211963E-2,4.3628678E-2,7.997527E-2,-4.887107E-2,-1.3655017E-1,-4.605788E-2,-7.495188E-3,-7.5854905E-2,-1.6516125E-1,-7.7528425E-2,-1.0745418E-1,9.651992E-3,-2.0913538E-2,3.254552E-2,-2.8111273E-2,-1.8234435E-2,1.3634535E-2,-6.890999E-2,-3.6697287E-2],"categories":[],"categories_nodes":[],"categories_segments":[],"categories_sizes":[],"default_left":[0,0,0,0,0,0,0,0,0,0,0,0,0,0,0,0,0,0,0,0,0,0,0,0,0,0,0,0,0,0,0,0,0,0,0,0,0,0,0,0,0,0,0,0,0,0,0,0,0,0,0,0,0,0,0,0,0,0,0,0,0],"id":16,"left_children":[1,3,5,7,9,11,13,15,17,19,21,23,25,27,29,31,-1,33,35,37,39,41,43,45,47,49,51,53,55,57,59,-1,-1,-1,-1,-1,-1,-1,-1,-1,-1,-1,-1,-1,-1,-1,-1,-1,-1,-1,-1,-1,-1,-1,-1,-1,-1,-1,-1,-1,-1],"loss_changes":[1.8561534E3,6.9189404E2,8.7405914E2,1.6613647E2,1.16894165E2,2.1801184E2,1.1673298E2,6.1449738E0,2.2957367E1,3.6163864E1,1.0715674E2,1.712803E2,5.9217773E1,4.1817886E1,8.372111E1,5.6310883E0,0E0,9.95203E0,2.1708954E1,4.043228E0,6.1513824E0,8.6855835E1,1.561084E1,2.4754639E1,2.6974419E1,4.5835022E1,8.909241E0,8.998224E0,3.6412766E1,3.394967E1,1.7718857E1,0E0,0E0,0E0,0E0,0E0,0E0,0E0,0E0,0E0,0E0,0E0,0E0,0E0,0E0,0E0,0E0,0E0,0E0,0E0,0E0,0E0,0E0,0E0,0E0,0E0,0E0,0E0,0E0,0E0,0E0],"parents":[2147483647,0,0,1,1,2,2,3,3,4,4,5,5,6,6,7,7,8,8,9,9,10,10,11,11,12,12,13,13,14,14,15,15,17,17,18,18,19,19,20,20,21,21,22,22,23,23,24,24,25,25,26,26,27,27,28,28,29,29,30,30],"right_children":[2,4,6,8,10,12,14,16,18,20,22,24,26,28,30,32,-1,34,36,38,40,42,44,46,48,50,52,54,56,58,60,-1,-1,-1,-1,-1,-1,-1,-1,-1,-1,-1,-1,-1,-1,-1,-1,-1,-1,-1,-1,-1,-1,-1,-1,-1,-1,-1,-1,-1,-1],"split_conditions":[-2.5881904E-1,8.4E1,8.4E1,8.1E1,8.6E1,0E0,5E-1,8.660254E-1,5E-1,2.5881904E-1,-7.0710677E-1,8.1E1,8.2E1,8.6E1,5E-1,5E-1,-1.0094656E-1,8.2E1,8.660254E-1,-5E-1,7.0710677E-1,9E1,-7.0710677E-1,-1.8369701E-16,8.3E1,-1.8369701E-16,5E-1,-1.8369701E-16,9E1,8.8E1,8.6E1,-6.4737976E-2,-3.2518797E-2,2.3642985E-2,-1.7825805E-3,5.636828E-2,3.159634E-3,1.7873015E-2,3.951445E-2,9.170481E-2,6.283959E-2,1.3842493E-1,6.211963E-2,4.3628678E-2,7.997527E-2,-4.887107E-2,-1.3655017E-1,-4.605788E-2,-7.495188E-3,-7.5854905E-2,-1.6516125E-1,-7.7528425E-2,-1.0745418E-1,9.651992E-3,-2.0913538E-2,3.254552E-2,-2.8111273E-2,-1.8234435E-2,1.3634535E-2,-6.890999E-2,-3.6697287E-2],"split_indices":[3,1,1,1,1,2,3,2,2,2,3,1,1,1,2,2,0,1,2,2,2,1,2,3,1,3,2,3,1,1,1,0,0,0,0,0,0,0,0,0,0,0,0,0,0,0,0,0,0,0,0,0,0,0,0,0,0,0,0,0,0],"split_type":[0,0,0,0,0,0,0,0,0,0,0,0,0,0,0,0,0,0,0,0,0,0,0,0,0,0,0,0,0,0,0,0,0,0,0,0,0,0,0,0,0,0,0,0,0,0,0,0,0,0,0,0,0,0,0,0,0,0,0,0,0],"sum_hessian":[9.539E3,3.728E3,5.811E3,1.361E3,2.367E3,2.088E3,3.723E3,3.45E2,1.016E3,6.93E2,1.674E3,1.078E3,1.01E3,1.472E3,2.251E3,3.08E2,3.7E1,6.68E2,3.48E2,3.71E2,3.22E2,9.58E2,7.16E2,2.74E2,8.04E2,4.17E2,5.93E2,4.34E2,1.038E3,1.426E3,8.25E2,2.33E2,7.5E1,2.39E2,4.29E2,2.34E2,1.14E2,1.43E2,2.28E2,1.57E2,1.65E2,7.7E2,1.88E2,1.55E2,5.61E2,3.9E1,2.35E2,5.27E2,2.77E2,7.2E1,3.45E2,1.46E2,4.47E2,1.43E2,2.91E2,9.28E2,1.1E2,8.93E2,5.33E2,2.45E2,5.8E2],"tree_param":{"num_deleted":"0","num_feature":"4","num_nodes":"61","size_leaf_vector":"1"}},{"base_weights":[-3.0908033E-3,4.1262963E-1,-3.7307808E-1,-9.183314E-2,7.0348656E-1,-8.4539706E-1,-1.1438512E-1,-6.088175E-1,7.93116E-2,9.5810264E-1,4.8342577E-1,-1.1321919E0,-6.215234E-1,-3.151716E-1,-2.7753945E-2,-5.1784897E-1,-7.586208E-2,2.0434286E-1,-1.4255126E-1,5.481688E-1,1.1249974E0,6.7580986E-1,3.8628545E-1,-4.3015504E-1,-1.2140498E0,-1.475615E-1,-6.624436E-1,-1.8281054E-1,-3.7405446E-1,1.51076615E-2,-3.3072662E-1,-4.831797E-2,-5.859458E-2,3.694205E-2,1.2204232E-2,-2.1630457E-2,-3.7956237E-5,1.814595E-2,6.368758E-2,1.3618362E-1,7.7395715E-2,2.6230872E-2,7.430303E-2,4.295346E-2,-8.097024E-3,-8.308969E-2,-1.9171443E-3,-1.5252315E-1,-1.0517899E-1,-2.1482162E-2,-8.611957E-3,-7.417556E-2,-5.813506E-2,-3.1834085E-2,-3.780334E-3,-4.7558438E-2,-2.9270083E-2,-1.0988983E-2,1.4122285E-2,1.9812604E-2,-4.1641954E-2],"categories":[],"categories_nodes":[],"categories_segments":[],"categories_sizes":[],"default_left":[0,0,0,0,0,0,0,0,0,0,0,0,0,0,0,0,0,0,0,0,0,0,0,0,0,0,0,0,0,0,0,0,0,0,0,0,0,0,0,0,0,0,0,0,0,0,0,0,0,0,0,0,0,0,0,0,0,0,0,0,0],"id":17,"left_children":[1,3,5,7,9,11,13,15,17,19,21,23,25,27,29,31,-1,33,35,37,39,41,43,45,47,49,51,53,55,57,59,-1,-1,-1,-1,-1,-1,-1,-1,-1,-1,-1,-1,-1,-1,-1,-1,-1,-1,-1,-1,-1,-1,-1,-1,-1,-1,-1,-1,-1,-1],"loss_changes":[1.4639757E3,6.576928E2,6.152299E2,1.451541E2,1.5883289E2,1.1371118E2,5.6609924E1,5.1671143E0,3.423229E1,8.948694E1,2.827591E1,4.430237E1,1.9355072E1,7.5773315E0,2.954791E1,3.236313E-1,0E0,1.0674255E1,4.666024E0,1.2343292E1,7.6681885E1,1.4008728E1,2.0586746E1,1.365403E1,3.3639404E1,3.1623948E-1,5.505188E0,5.9624376E0,5.4609604E0,3.1449099E1,1.286244E1,0E0,0E0,0E0,0E0,0E0,0E0,0E0,0E0,0E0,0E0,0E0,0E0,0E0,0E0,0E0,0E0,0E0,0E0,0E0,0E0,0E0,0E0,0E0,0E0,0E0,0E0,0E0,0E0,0E0,0E0],"parents":[2147483647,0,0,1,1,2,2,3,3,4,4,5,5,6,6,7,7,8,8,9,9,10,10,11,11,12,12,13,13,14,14,15,15,17,17,18,18,19,19,20,20,21,21,22,22,23,23,24,24,25,25,26,26,27,27,28,28,29,29,30,30],"right_children":[2,4,6,8,10,12,14,16,18,20,22,24,26,28,30,32,-1,34,36,38,40,42,44,46,48,50,52,54,56,58,60,-1,-1,-1,-1,-1,-1,-1,-1,-1,-1,-1,-1,-1,-1,-1,-1,-1,-1,-1,-1,-1,-1,-1,-1,-1,-1,-1,-1,-1,-1],"split_conditions":[-1.8369701E-16,8.4E1,8.4E1,8.1E1,-7.0710677E-1,8.2E1,8.6E1,-5E-1,-5E-1,8.6E1,-5E-1,6.123234E-17,6.123234E-17,5E-1,9E1,-7.0710677E-1,-7.586208E-2,8.2E1,8.3E1,-9.659258E-1,8.9E1,8.5E1,9E1,8.1E1,8.1E1,8.3E1,8.3E1,8.5E1,8.660254E-1,8.8E1,2.5881904E-1,-4.831797E-2,-5.859458E-2,3.694205E-2,1.2204232E-2,-2.1630457E-2,-3.7956237E-5,1.814595E-2,6.368758E-2,1.3618362E-1,7.7395715E-2,2.6230872E-2,7.430303E-2,4.295346E-2,-8.097024E-3,-8.308969E-2,-1.9171443E-3,-1.5252315E-1,-1.0517899E-1,-2.1482162E-2,-8.611957E-3,-7.417556E-2,-5.813506E-2,-3.1834085E-2,-3.780334E-3,-4.7558438E-2,-2.9270083E-2,-1.0988983E-2,1.4122285E-2,1.9812604E-2,-4.1641954E-2],"split_indices":[3,1,1,1,3,1,1,3,3,1,3,3,3,3,1,3,0,1,1,3,1,1,1,1,1,1,1,1,3,1,3,0,0,0,0,0,0,0,0,0,0,0,0,0,0,0,0,0,0,0,0,0,0,0,0,0,0,0,0,0,0],"split_type":[0,0,0,0,0,0,0,0,0,0,0,0,0,0,0,0,0,0,0,0,0,0,0,0,0,0,0,0,0,0,0,0,0,0,0,0,0,0,0,0,0,0,0,0,0,0,0,0,0,0,0,0,0,0,0,0,0,0,0,0,0],"sum_hessian":[9.516E3,4.481E3,5.035E3,1.639E3,2.842E3,1.781E3,3.254E3,4.07E2,1.232E3,1.316E3,1.526E3,7.79E2,1.002E3,9.8E2,2.274E3,2.56E2,1.51E2,7.88E2,4.44E2,3.82E2,9.34E2,5.1E2,1.016E3,8.2E1,6.97E2,8E1,9.22E2,3.03E2,6.77E2,1.993E3,2.81E2,1.75E2,8.1E1,2.61E2,5.27E2,2.92E2,1.52E2,7.5E1,3.07E2,5.56E2,3.78E2,7.2E1,4.38E2,9.3E2,8.6E1,4.1E1,4.1E1,2.36E2,4.61E2,3.7E1,4.3E1,4.62E2,4.6E2,1.56E2,1.47E2,2.99E2,3.78E2,1.001E3,9.92E2,3.9E1,2.42E2],"tree_param":{"num_deleted":"0","num_feature":"4","num_nodes":"61","size_leaf_vector":"1"}},{"base_weights":[2.1495777E-3,3.7930828E-1,-3.3755377E-1,5.2576846E-1,1.14476144E-1,-1.7743927E-1,-5.143964E-1,3.0150095E-1,6.900273E-1,2.6754037E-2,1.9003695E-1,-5.3905044E-2,-2.708891E-1,-5.7399833E-1,-2.4003023E-2,2.4295272E-1,4.120414E-2,7.4480456E-1,5.2420076E-2,2.537552E-3,2.8090503E-3,2.8948491E-2,8.549787E-3,-3.2195754E-2,-9.827475E-3,-2.2390509E-1,-3.1653982E-1,-4.530719E-1,-6.5139663E-1,2.04957E-2,2.7873104E-2,5.6343146E-2,8.339783E-2,-7.6338584E-3,1.1350504E-3,-1.9149864E-2,-2.5729084E-2,-3.0406201E-2,-3.2877248E-2,-3.8966212E-2,-5.1231623E-2,-6.884239E-2,-5.7951458E-2],"categories":[],"categories_nodes":[],"categories_segments":[],"categories_sizes":[],"default_left":[0,0,0,0,0,0,0,0,0,0,0,0,0,0,0,0,0,0,0,0,0,0,0,0,0,0,0,0,0,0,0,0,0,0,0,0,0,0,0,0,0,0,0],"id":18,"left_children":[1,3,5,7,9,11,13,15,17,19,21,23,25,27,-1,29,-1,31,-1,-1,-1,-1,-1,33,-1,35,37,39,41,-1,-1,-1,-1,-1,-1,-1,-1,-1,-1,-1,-1,-1,-1],"loss_changes":[1.2358655E3,1.7723688E2,1.4360779E2,1.0820593E2,1.0792505E1,3.0750824E1,3.9288635E1,7.9639435E0,1.5033386E1,6.7812204E-4,9.071924E0,1.1035926E0,3.182869E0,1.8236755E1,0E0,1.0535202E0,0E0,2.0135437E1,0E0,0E0,0E0,0E0,0E0,1.4867697E0,0E0,7.632446E-1,1.7105103E-2,2.715561E0,2.808258E0,0E0,0E0,0E0,0E0,0E0,0E0,0E0,0E0,0E0,0E0,0E0,0E0,0E0,0E0],"parents":[2147483647,0,0,1,1,2,2,3,3,4,4,5,5,6,6,7,7,8,8,9,9,10,10,11,11,12,12,13,13,15,15,17,17,23,23,25,25,26,26,27,27,28,28],"right_children":[2,4,6,8,10,12,14,16,18,20,22,24,26,28,-1,30,-1,32,-1,-1,-1,-1,-1,34,-1,36,38,40,42,-1,-1,-1,-1,-1,-1,-1,-1,-1,-1,-1,-1,-1,-1],"split_conditions":[-1.8369701E-16,-5E-1,1.2246469E-16,0E0,-7.0710677E-1,-7.0710677E-1,1E0,-2.5881904E-1,7.0710677E-1,-8.660254E-1,9.659258E-1,-8.660254E-1,-2.5881904E-1,7.0710677E-1,-2.4003023E-2,-5E-1,4.120414E-2,2.5881904E-1,5.2420076E-2,2.537552E-3,2.8090503E-3,2.8948491E-2,8.549787E-3,-9.659258E-1,-9.827475E-3,-5E-1,0E0,5E-1,9.659258E-1,2.04957E-2,2.7873104E-2,5.6343146E-2,8.339783E-2,-7.6338584E-3,1.1350504E-3,-1.9149864E-2,-2.5729084E-2,-3.0406201E-2,-3.2877248E-2,-3.8966212E-2,-5.1231623E-2,-6.884239E-2,-5.7951458E-2],"split_indices":[3,3,2,2,2,2,2,2,2,2,2,2,2,2,0,2,0,2,0,0,0,0,0,2,0,2,2,2,2,0,0,0,0,0,0,0,0,0,0,0,0,0,0],"split_type":[0,0,0,0,0,0,0,0,0,0,0,0,0,0,0,0,0,0,0,0,0,0,0,0,0,0,0,0,0,0,0,0,0,0,0,0,0,0,0,0,0,0,0],"sum_hessian":[9.644E3,4.57E3,5.074E3,2.942E3,1.628E3,2.664E3,2.41E3,1.245E3,1.697E3,7.54E2,8.74E2,1.148E3,1.516E3,1.979E3,4.31E2,8.16E2,4.29E2,1.273E3,4.24E2,3.81E2,3.73E2,4.47E2,4.27E2,7.72E2,3.76E2,7.5E2,7.66E2,7.75E2,1.204E3,3.99E2,4.17E2,4.22E2,8.51E2,3.83E2,3.89E2,3.84E2,3.66E2,3.92E2,3.74E2,3.78E2,3.97E2,7.89E2,4.15E2],"tree_param":{"num_deleted":"0","num_feature":"4","num_nodes":"43","size_leaf_vector":"1"}},{"base_weights":[-4.9811124E-4,-4.399547E-1,2.5156134E-1,-1.2418093E-1,-7.91506E-1,6.7982507E-1,-1.586994E-2,-6.067943E-1,3.9125767E-2,-1.0725955E0,-5.7256633E-1,3.800323E-1,8.016466E-1,1.5085204E-1,-1.2935969E-1,-5.095621E-1,-7.371447E-1,1.4490448E-1,-1.14976205E-1,-1.3427514E0,-9.16052E-1,-6.427684E-1,-5.0097907E-1,9.836407E-2,4.1607586E-1,9.749907E-1,5.676749E-1,-2.2924544E-1,2.1946605E-1,-2.9935434E-1,-5.3341694E-2,-6.2652364E-2,-4.8880186E-2,-6.816626E-2,-9.1870494E-2,2.7902965E-2,7.633167E-3,-1.773707E-2,5.2120787E-4,-1.7343274E-1,-1.0942831E-1,-6.3409485E-2,-1.1093135E-1,-9.2474274E-2,-6.1405372E-2,-5.6070436E-2,-4.095106E-2,-3.5504866E-3,2.331434E-2,5.0061416E-2,3.2900658E-2,1.10576026E-1,4.488622E-2,6.867342E-2,4.7481224E-2,-1.2914645E-2,-3.248568E-2,2.6027495E-2,-1.6751446E-2,-3.9109133E-2,-2.3014108E-2,-2.169028E-3,-2.8758202E-2],"categories":[],"categories_nodes":[],"categories_segments":[],"categories_sizes":[],"default_left":[0,0,0,0,0,0,0,0,0,0,0,0,0,0,0,0,0,0,0,0,0,0,0,0,0,0,0,0,0,0,0,0,0,0,0,0,0,0,0,0,0,0,0,0,0,0,0,0,0,0,0,0,0,0,0,0,0,0,0,0,0,0,0],"id":19,"left_children":[1,3,5,7,9,11,13,15,17,19,21,23,25,27,29,31,33,35,37,39,41,43,45,47,49,51,53,55,57,59,61,-1,-1,-1,-1,-1,-1,-1,-1,-1,-1,-1,-1,-1,-1,-1,-1,-1,-1,-1,-1,-1,-1,-1,-1,-1,-1,-1,-1,-1,-1,-1,-1],"loss_changes":[1.0578458E3,3.8632977E2,6.9510004E2,1.4464743E2,1.00744995E2,8.4899414E1,7.072817E1,5.505234E0,2.2381233E1,2.9219604E1,4.341736E0,6.8220444E0,6.669104E1,3.9535435E1,2.872401E1,3.4693146E-1,1.3481293E0,7.465336E0,4.1929135E0,2.3593262E1,2.4308197E1,3.1971436E0,2.3052063E0,1.4156134E0,4.2443542E0,6.493396E1,7.5016937E0,2.1784248E0,2.0305058E1,4.2720375E0,1.1396552E1,0E0,0E0,0E0,0E0,0E0,0E0,0E0,0E0,0E0,0E0,0E0,0E0,0E0,0E0,0E0,0E0,0E0,0E0,0E0,0E0,0E0,0E0,0E0,0E0,0E0,0E0,0E0,0E0,0E0,0E0,0E0,0E0],"parents":[2147483647,0,0,1,1,2,2,3,3,4,4,5,5,6,6,7,7,8,8,9,9,10,10,11,11,12,12,13,13,14,14,15,15,16,16,17,17,18,18,19,19,20,20,21,21,22,22,23,23,24,24,25,25,26,26,27,27,28,28,29,29,30,30],"right_children":[2,4,6,8,10,12,14,16,18,20,22,24,26,28,30,32,34,36,38,40,42,44,46,48,50,52,54,56,58,60,62,-1,-1,-1,-1,-1,-1,-1,-1,-1,-1,-1,-1,-1,-1,-1,-1,-1,-1,-1,-1,-1,-1,-1,-1,-1,-1,-1,-1,-1,-1,-1,-1],"split_conditions":[8.4E1,6.123234E-17,-2.5881904E-1,8.1E1,8.2E1,8.6E1,5E-1,-5E-1,-5E-1,8.1E1,8.3E1,-9.659258E-1,-7.0710677E-1,8.5E1,8.6E1,-9.659258E-1,-1.8369701E-16,8.2E1,8.3E1,5E-1,7.0710677E-1,2.5881904E-1,8.660254E-1,8.5E1,-7.0710677E-1,9E1,8.8E1,6.123234E-17,9E1,8.660254E-1,9E1,-6.2652364E-2,-4.8880186E-2,-6.816626E-2,-9.1870494E-2,2.7902965E-2,7.633167E-3,-1.773707E-2,5.2120787E-4,-1.7343274E-1,-1.0942831E-1,-6.3409485E-2,-1.1093135E-1,-9.2474274E-2,-6.1405372E-2,-5.6070436E-2,-4.095106E-2,-3.5504866E-3,2.331434E-2,5.0061416E-2,3.2900658E-2,1.10576026E-1,4.488622E-2,6.867342E-2,4.7481224E-2,-1.2914645E-2,-3.248568E-2,2.6027495E-2,-1.6751446E-2,-3.9109133E-2,-2.3014108E-2,-2.169028E-3,-2.8758202E-2],"split_indices":[1,3,3,1,1,1,3,3,3,1,1,3,3,1,1,3,3,1,1,3,3,3,3,1,3,1,1,3,1,3,1,0,0,0,0,0,0,0,0,0,0,0,0,0,0,0,0,0,0,0,0,0,0,0,0,0,0,0,0,0,0,0,0],"split_type":[0,0,0,0,0,0,0,0,0,0,0,0,0,0,0,0,0,0,0,0,0,0,0,0,0,0,0,0,0,0,0,0,0,0,0,0,0,0,0,0,0,0,0,0,0,0,0,0,0,0,0,0,0,0,0,0,0,0,0,0,0,0,0],"sum_hessian":[9.548E3,3.48E3,6.068E3,1.834E3,1.646E3,2.332E3,3.736E3,4.63E2,1.371E3,7.19E2,9.27E2,6.75E2,1.657E3,1.513E3,2.223E3,2.68E2,1.95E2,8.13E2,5.58E2,2.61E2,4.58E2,4.64E2,4.63E2,7.7E1,5.98E2,9.5E2,7.07E2,2.31E2,1.282E3,6.86E2,1.537E3,3.6E1,2.32E2,1.53E2,4.2E1,2.74E2,5.39E2,3.67E2,1.91E2,9.9E1,1.62E2,1.88E2,2.7E2,4E1,4.24E2,2.77E2,1.86E2,3.9E1,3.8E1,3.01E2,2.97E2,7.6E2,1.9E2,3.07E2,4E2,1.14E2,1.17E2,1.16E3,1.22E2,2.93E2,3.93E2,1.355E3,1.82E2],"tree_param":{"num_deleted":"0","num_feature":"4","num_nodes":"63","size_leaf_vector":"1"}},{"base_weights":[5.4407836E-4,-3.882699E-1,2.1773826E-1,-1.1515532E-1,-6.9617486E-1,5.990208E-1,-1.8803444E-2,-5.541203E-1,3.635349E-2,-4.2261645E-1,-9.3416905E-1,3.8888744E-1,7.553133E-1,1.8410349E-1,-9.216208E-2,-4.866355E-1,-8.776963E-1,7.1149044E-2,-3.8053897E-1,-1.001531E-1,-2.2957982E-1,-1.8808662E0,-8.7325853E-1,2.9156998E-1,6.8319577E-1,4.6401656E-1,8.741596E-1,-5.1081136E-2,2.826406E-1,1.8800893E-1,-1.8447904E-1,-5.5330634E-2,-2.0190729E-2,-7.257067E-2,-1.0306114E-1,-9.5862616E-4,2.7927881E-2,-5.4821428E-2,-7.4886824E-3,-3.7362993E-2,4.205292E-3,-2.3036397E-1,-1.5804553E-1,-9.394477E-2,-4.821341E-2,3.449861E-2,8.29168E-3,3.4581512E-2,7.444974E-2,1.0673871E-2,5.5270966E-2,1.1483266E-1,4.8964478E-2,-1.5870309E-2,6.911553E-3,3.3123437E-2,-1.19246645E-2,-1.583012E-2,2.6368052E-2,-2.8108666E-2,-4.2714532E-3],"categories":[],"categories_nodes":[],"categories_segments":[],"categories_sizes":[],"default_left":[0,0,0,0,0,0,0,0,0,0,0,0,0,0,0,0,0,0,0,0,0,0,0,0,0,0,0,0,0,0,0,0,0,0,0,0,0,0,0,0,0,0,0,0,0,0,0,0,0,0,0,0,0,0,0,0,0,0,0,0,0],"id":20,"left_children":[1,3,5,7,9,11,13,15,17,19,21,23,25,27,29,31,33,35,37,-1,39,41,43,45,47,49,51,53,55,57,59,-1,-1,-1,-1,-1,-1,-1,-1,-1,-1,-1,-1,-1,-1,-1,-1,-1,-1,-1,-1,-1,-1,-1,-1,-1,-1,-1,-1,-1,-1],"loss_changes":[8.051286E2,2.8726678E2,5.516987E2,1.20530945E2,1.04164246E2,7.662286E1,5.6222637E1,9.726837E0,1.958117E1,8.347211E1,4.783313E1,2.847081E1,4.6053833E1,2.325837E1,7.1782906E1,7.2347336E0,1.0881577E0,2.0922935E1,5.2889776E0,0E0,2.2045181E1,2.8364868E0,2.0464722E1,8.375061E0,4.871666E0,1.2331047E1,9.979883E1,3.8529012E0,1.3846668E1,1.807136E1,2.8570572E1,0E0,0E0,0E0,0E0,0E0,0E0,0E0,0E0,0E0,0E0,0E0,0E0,0E0,0E0,0E0,0E0,0E0,0E0,0E0,0E0,0E0,0E0,0E0,0E0,0E0,0E0,0E0,0E0,0E0,0E0],"parents":[2147483647,0,0,1,1,2,2,3,3,4,4,5,5,6,6,7,7,8,8,9,9,10,10,11,11,12,12,13,13,14,14,15,15,16,16,17,17,18,18,20,20,21,21,22,22,23,23,24,24,25,25,26,26,27,27,28,28,29,29,30,30],"right_children":[2,4,6,8,10,12,14,16,18,20,22,24,26,28,30,32,34,36,38,-1,40,42,44,46,48,50,52,54,56,58,60,-1,-1,-1,-1,-1,-1,-1,-1,-1,-1,-1,-1,-1,-1,-1,-1,-1,-1,-1,-1,-1,-1,-1,-1,-1,-1,-1,-1,-1,-1],"split_conditions":[8.4E1,6.123234E-17,-2.5881904E-1,8.1E1,0E0,0E0,2.5881904E-1,8.660254E-1,9.659258E-1,8.1E1,8.1E1,8.9E1,8.6E1,8.6E1,-5E-1,5E-1,9.659258E-1,5E-1,8.3E1,-1.001531E-1,8.3E1,1E0,1E0,8.8E1,-7.0710677E-1,2.5881904E-1,8.9E1,8.5E1,9E1,8.5E1,8.8E1,-5.5330634E-2,-2.0190729E-2,-7.257067E-2,-1.0306114E-1,-9.5862616E-4,2.7927881E-2,-5.4821428E-2,-7.4886824E-3,-3.7362993E-2,4.205292E-3,-2.3036397E-1,-1.5804553E-1,-9.394477E-2,-4.821341E-2,3.449861E-2,8.29168E-3,3.4581512E-2,7.444974E-2,1.0673871E-2,5.5270966E-2,1.1483266E-1,4.8964478E-2,-1.5870309E-2,6.911553E-3,3.3123437E-2,-1.19246645E-2,-1.583012E-2,2.6368052E-2,-2.8108666E-2,-4.2714532E-3],"split_indices":[1,3,3,1,2,2,3,2,2,1,1,1,1,1,2,2,2,2,1,0,1,2,2,1,2,2,1,1,1,1,1,0,0,0,0,0,0,0,0,0,0,0,0,0,0,0,0,0,0,0,0,0,0,0,0,0,0,0,0,0,0],"split_type":[0,0,0,0,0,0,0,0,0,0,0,0,0,0,0,0,0,0,0,0,0,0,0,0,0,0,0,0,0,0,0,0,0,0,0,0,0,0,0,0,0,0,0,0,0,0,0,0,0,0,0,0,0,0,0,0,0,0,0,0,0],"sum_hessian":[9.532E3,3.416E3,6.116E3,1.811E3,1.605E3,2.341E3,3.775E3,4.64E2,1.347E3,7.48E2,8.57E2,1E3,1.341E3,1.002E3,2.773E3,3.86E2,7.8E1,1.244E3,1.03E2,1.86E2,5.62E2,5E1,8.07E2,7.53E2,2.47E2,3.9E2,9.51E2,2.96E2,7.06E2,6.87E2,2.086E3,3.12E2,7.4E1,4.2E1,3.6E1,8.97E2,3.47E2,6.6E1,3.7E1,3.67E2,1.95E2,1.8E1,3.2E1,6.89E2,1.18E2,5.99E2,1.54E2,3.9E1,2.08E2,7.8E1,3.12E2,5.54E2,3.97E2,1.56E2,1.4E2,6.3E2,7.6E1,1.23E2,5.64E2,1.24E3,8.46E2],"tree_param":{"num_deleted":"0","num_feature":"4","num_nodes":"61","size_leaf_vector":"1"}},{"base_weights":[-5.8298497E-3,-3.5893202E-1,1.906197E-1,-7.11946E-1,-2.6605198E-1,-9.195954E-3,2.782808E-1,-6.0379577E-1,-1.4433472E-1,-1.782219E-1,-4.7739333E-1,2.731959E-2,-1.5640824E-1,3.175508E-1,3.0101998E-2,-6.9056205E-2,-4.8960912E-1,-2.5308388E-1,-2.8570369E-2,-3.9261517E-1,-5.1269764E-1,-2.7848493E-2,5.9063178E-2,-2.2104248E-1,-9.432573E-2,2.2681911E-1,4.091478E-1,2.8160658E-1,-1.4443906E-1,-4.47701E-2,-7.148063E-2,-8.845526E-3,-2.867027E-2,8.359584E-3,-2.3725225E-2,-3.3191558E-2,-5.176338E-2,-4.1291997E-2,-5.5950623E-2,-1.2843057E-2,8.32052E-3,7.7964175E-3,-3.1905007E-3,-1.2989476E-2,-2.7817396E-2,-1.4668866E-2,-5.5613928E-3,2.5111035E-2,-4.912551E-3,6.596984E-2,2.4189439E-2,4.4464372E-2,1.7543588E-2,-1.8471334E-2,2.1870418E-2],"categories":[],"categories_nodes":[],"categories_segments":[],"categories_sizes":[],"default_left":[0,0,0,0,0,0,0,0,0,0,0,0,0,0,0,0,0,0,0,0,0,0,0,0,0,0,0,0,0,0,0,0,0,0,0,0,0,0,0,0,0,0,0,0,0,0,0,0,0,0,0,0,0,0,0],"id":21,"left_children":[1,3,5,7,9,11,13,15,-1,17,19,21,23,25,27,-1,29,31,33,35,37,39,41,43,45,47,49,51,53,-1,-1,-1,-1,-1,-1,-1,-1,-1,-1,-1,-1,-1,-1,-1,-1,-1,-1,-1,-1,-1,-1,-1,-1,-1,-1],"loss_changes":[6.63839E2,1.1197815E2,1.07708786E2,5.5448578E1,5.0218277E1,1.0088779E1,4.1644806E1,5.8243866E0,0E0,2.1458118E1,2.1781769E0,2.6354992E0,1.4758711E0,3.0573853E1,2.5720932E1,0E0,2.2470016E0,7.042343E0,1.5000348E1,1.6342697E0,2.3750916E0,6.1541915E0,1.6445038E0,9.116144E-1,3.810383E-1,1.24531555E1,7.673691E1,4.076338E0,5.100762E0,0E0,0E0,0E0,0E0,0E0,0E0,0E0,0E0,0E0,0E0,0E0,0E0,0E0,0E0,0E0,0E0,0E0,0E0,0E0,0E0,0E0,0E0,0E0,0E0,0E0,0E0],"parents":[2147483647,0,0,1,1,2,2,3,3,4,4,5,5,6,6,7,7,9,9,10,10,11,11,12,12,13,13,14,14,16,16,17,17,18,18,19,19,20,20,21,21,22,22,23,23,24,24,25,25,26,26,27,27,28,28],"right_children":[2,4,6,8,10,12,14,16,-1,18,20,22,24,26,28,-1,30,32,34,36,38,40,42,44,46,48,50,52,54,-1,-1,-1,-1,-1,-1,-1,-1,-1,-1,-1,-1,-1,-1,-1,-1,-1,-1,-1,-1,-1,-1,-1,-1,-1,-1],"split_conditions":[8.4E1,8.1E1,8.6E1,9.659258E-1,7.0710677E-1,8.660254E-1,9E1,-2.5881904E-1,-1.4433472E-1,8.3E1,8.660254E-1,-5E-1,8.5E1,1.2246469E-16,5E-1,-6.9056205E-2,8.660254E-1,-8.660254E-1,0E0,8.3E1,8.2E1,8.5E1,7.0710677E-1,9.659258E-1,9.659258E-1,0E0,7.0710677E-1,0E0,1E0,-4.47701E-2,-7.148063E-2,-8.845526E-3,-2.867027E-2,8.359584E-3,-2.3725225E-2,-3.3191558E-2,-5.176338E-2,-4.1291997E-2,-5.5950623E-2,-1.2843057E-2,8.32052E-3,7.7964175E-3,-3.1905007E-3,-1.2989476E-2,-2.7817396E-2,-1.4668866E-2,-5.5613928E-3,2.5111035E-2,-4.912551E-3,6.596984E-2,2.4189439E-2,4.4464372E-2,1.7543588E-2,-1.8471334E-2,2.1870418E-2],"split_indices":[1,1,1,2,2,2,1,2,0,1,2,2,1,2,2,0,2,2,2,1,1,1,2,2,2,2,2,2,2,0,0,0,0,0,0,0,0,0,0,0,0,0,0,0,0,0,0,0,0,0,0,0,0,0,0],"split_type":[0,0,0,0,0,0,0,0,0,0,0,0,0,0,0,0,0,0,0,0,0,0,0,0,0,0,0,0,0,0,0,0,0,0,0,0,0,0,0,0,0,0,0,0,0,0,0,0,0,0,0,0,0,0,0],"sum_hessian":[9.568E3,3.42E3,6.148E3,7.11E2,2.709E3,1.875E3,4.273E3,6.21E2,9E1,1.915E3,7.94E2,1.503E3,3.72E2,3.689E3,5.84E2,3.5E2,2.71E2,1.276E3,6.39E2,2.37E2,5.57E2,5.49E2,9.54E2,1.81E2,1.91E2,1.855E3,1.834E3,2.39E2,3.45E2,2.31E2,4E1,2.17E2,1.059E3,4.16E2,2.23E2,1.62E2,7.5E1,1.81E2,3.76E2,2.88E2,2.61E2,7.9E2,1.64E2,7.1E1,1.1E2,8E1,1.11E2,1.705E3,1.5E2,7.33E2,1.101E3,9.3E1,1.46E2,3.11E2,3.4E1],"tree_param":{"num_deleted":"0","num_feature":"4","num_nodes":"55","size_leaf_vector":"1"}},{"base_weights":[-1.050602E-3,2.723323E-1,-2.4598193E-1,-3.3072804E-4,5.079268E-1,-6.52495E-1,-1.09117664E-1,-3.9647043E-1,9.882271E-2,3.0337238E-1,6.6474444E-1,-4.617701E-1,-8.7579656E-1,6.048566E-2,-2.35269E-1,-3.1127563E-1,-7.37605E-1,1.7877717E-1,-4.53408E-2,1.1634022E-1,4.1293374E-1,7.608383E-1,1.510993E-1,-8.301614E-2,-2.7535486E-1,-1.0908463E0,-6.1541456E-1,-1.4756957E-2,1.5835446E-1,-3.785161E-1,-1.4655584E-3,-3.6647014E-2,-1.135766E-2,-6.2100768E-2,-8.593384E-2,5.0198543E-3,3.4224283E-2,-1.2754685E-2,3.6742357E-3,3.0393392E-2,1.6068589E-4,3.0831922E-2,6.387072E-2,9.94777E-2,5.3120505E-2,2.7119173E-2,-3.710338E-2,-1.6503474E-2,-3.8640592E-2,-1.5505631E-1,-9.9305175E-2,-3.5519406E-2,-7.176333E-2,3.4172204E-3,-1.0683953E-2,2.2596626E-2,8.629977E-3,-6.6529095E-2,-3.078689E-2,3.6645256E-2,-1.8109743E-2],"categories":[],"categories_nodes":[],"categories_segments":[],"categories_sizes":[],"default_left":[0,0,0,0,0,0,0,0,0,0,0,0,0,0,0,0,0,0,0,0,0,0,0,0,0,0,0,0,0,0,0,0,0,0,0,0,0,0,0,0,0,0,0,0,0,0,0,0,0,0,0,0,0,0,0,0,0,0,0,0,0],"id":22,"left_children":[1,3,5,7,9,11,13,15,17,19,21,23,25,27,29,31,33,35,37,39,41,43,45,-1,47,49,51,53,55,57,59,-1,-1,-1,-1,-1,-1,-1,-1,-1,-1,-1,-1,-1,-1,-1,-1,-1,-1,-1,-1,-1,-1,-1,-1,-1,-1,-1,-1,-1,-1],"loss_changes":[6.392005E2,2.897774E2,2.8006174E2,8.221004E1,7.742651E1,5.3598633E1,8.063316E1,1.1947754E1,1.9303493E1,2.150901E1,6.745636E1,4.688159E1,3.1973785E1,1.1843494E1,7.237495E1,3.635685E0,6.4442825E-1,2.2619411E1,4.03983E0,8.393581E0,1.5462601E1,6.1410828E1,1.37074375E1,0E0,5.5350113E0,1.2756836E1,6.8205566E0,4.103677E0,3.385851E0,2.694339E1,5.4392193E1,0E0,0E0,0E0,0E0,0E0,0E0,0E0,0E0,0E0,0E0,0E0,0E0,0E0,0E0,0E0,0E0,0E0,0E0,0E0,0E0,0E0,0E0,0E0,0E0,0E0,0E0,0E0,0E0,0E0,0E0],"parents":[2147483647,0,0,1,1,2,2,3,3,4,4,5,5,6,6,7,7,8,8,9,9,10,10,11,11,12,12,13,13,14,14,15,15,16,16,17,17,18,18,19,19,20,20,21,21,22,22,24,24,25,25,26,26,27,27,28,28,29,29,30,30],"right_children":[2,4,6,8,10,12,14,16,18,20,22,24,26,28,30,32,34,36,38,40,42,44,46,-1,48,50,52,54,56,58,60,-1,-1,-1,-1,-1,-1,-1,-1,-1,-1,-1,-1,-1,-1,-1,-1,-1,-1,-1,-1,-1,-1,-1,-1,-1,-1,-1,-1,-1,-1],"split_conditions":[-1.8369701E-16,8.5E1,8.3E1,8.1E1,0E0,0E0,0E0,8.660254E-1,-5E-1,-7.0710677E-1,9E1,8.1E1,8.2E1,8.7E1,8.8E1,5E-1,9.659258E-1,2.5881904E-1,8.3E1,8.7E1,8.9E1,7.0710677E-1,9.659258E-1,-8.301614E-2,-7.0710677E-1,8.1E1,5E-1,-5E-1,-7.0710677E-1,8.4E1,8.9E1,-3.6647014E-2,-1.135766E-2,-6.2100768E-2,-8.593384E-2,5.0198543E-3,3.4224283E-2,-1.2754685E-2,3.6742357E-3,3.0393392E-2,1.6068589E-4,3.0831922E-2,6.387072E-2,9.94777E-2,5.3120505E-2,2.7119173E-2,-3.710338E-2,-1.6503474E-2,-3.8640592E-2,-1.5505631E-1,-9.9305175E-2,-3.5519406E-2,-7.176333E-2,3.4172204E-3,-1.0683953E-2,2.2596626E-2,8.629977E-3,-6.6529095E-2,-3.078689E-2,3.6645256E-2,-1.8109743E-2],"split_indices":[3,1,1,1,2,2,2,2,3,2,1,1,1,1,1,2,2,2,1,1,1,2,2,0,2,1,2,2,2,1,1,0,0,0,0,0,0,0,0,0,0,0,0,0,0,0,0,0,0,0,0,0,0,0,0,0,0,0,0,0,0],"split_type":[0,0,0,0,0,0,0,0,0,0,0,0,0,0,0,0,0,0,0,0,0,0,0,0,0,0,0,0,0,0,0,0,0,0,0,0,0,0,0,0,0,0,0,0,0,0,0,0,0,0,0,0,0,0,0,0,0,0,0,0,0],"sum_hessian":[9.544E3,4.51E3,5.034E3,2.091E3,2.419E3,1.267E3,3.767E3,4.18E2,1.673E3,1.051E3,1.368E3,6.85E2,5.82E2,1.607E3,2.16E3,3.36E2,8.2E1,1.076E3,5.97E2,3.89E2,6.62E2,1.152E3,2.16E2,2.29E2,4.56E2,3.17E2,2.65E2,9.09E2,6.98E2,1.339E3,8.21E2,2.62E2,7.4E1,4.5E1,3.7E1,6.03E2,4.73E2,2.98E2,2.99E2,1.47E2,2.42E2,4.54E2,2.08E2,5.69E2,5.83E2,1.76E2,4E1,2.3E2,2.26E2,5.3E1,2.64E2,7.6E1,1.89E2,5.94E2,3.15E2,3.59E2,3.39E2,2.63E2,1.076E3,2.69E2,5.52E2],"tree_param":{"num_deleted":"0","num_feature":"4","num_nodes":"61","size_leaf_vector":"1"}},{"base_weights":[4.698559E-4,2.4721654E-1,-2.226371E-1,3.635673E-2,5.135532E-1,-5.0813544E-1,-6.616365E-2,-3.686563E-1,1.16540186E-1,3.1026936E-1,6.613358E-1,-3.0102867E-1,-7.2465646E-1,1.1778038E-1,-1.3555288E-1,-3.1603706E-1,-6.10416E-1,2.366191E-2,2.2672497E-1,6.3761574E-1,2.1284117E-1,7.8527015E-1,1.3540065E-1,-7.3466814E-1,-1.5793763E-1,-9.694105E-1,-5.7547784E-1,-1.2221448E-1,1.7007737E-1,-2.3510788E-1,2.0740551E-3,-3.50394E-2,-1.82281E-2,-4.9437493E-2,-7.191712E-2,-9.496634E-3,1.023709E-2,3.048156E-2,-9.129232E-3,4.970062E-2,6.743654E-2,-2.9195528E-4,3.335714E-2,1.0283754E-1,5.5360187E-2,2.3804009E-2,-3.4012582E-2,-5.9465438E-2,-7.615816E-2,-2.4237515E-2,1.1995807E-3,-1.09809995E-1,-4.7044434E-2,-3.804991E-2,-6.496138E-2,-5.1620207E-3,-1.9576719E-2,5.8851796E-3,2.073158E-2,-1.12816E-2,-2.9539732E-2,2.4735646E-2,-1.3085395E-2],"categories":[],"categories_nodes":[],"categories_segments":[],"categories_sizes":[],"default_left":[0,0,0,0,0,0,0,0,0,0,0,0,0,0,0,0,0,0,0,0,0,0,0,0,0,0,0,0,0,0,0,0,0,0,0,0,0,0,0,0,0,0,0,0,0,0,0,0,0,0,0,0,0,0,0,0,0,0,0,0,0,0,0],"id":23,"left_children":[1,3,5,7,9,11,13,15,17,19,21,23,25,27,29,31,33,35,37,39,41,43,45,47,49,51,53,55,57,59,61,-1,-1,-1,-1,-1,-1,-1,-1,-1,-1,-1,-1,-1,-1,-1,-1,-1,-1,-1,-1,-1,-1,-1,-1,-1,-1,-1,-1,-1,-1,-1,-1],"loss_changes":[5.2738763E2,2.5545187E2,2.2471582E2,8.253034E1,6.0178772E1,7.9647125E1,4.1510864E1,5.1499977E0,2.1700464E1,2.6909348E1,7.5699646E1,5.6473503E1,3.1207642E1,1.1203735E1,3.2349606E1,1.5307503E0,5.7834435E-1,1.0766071E1,2.411697E1,6.6729736E-1,1.7062958E1,5.2427612E1,1.0965096E1,3.987503E-1,9.860502E0,2.054483E1,7.6018677E0,8.206785E-1,3.0196438E0,1.0067558E1,3.2376427E1,0E0,0E0,0E0,0E0,0E0,0E0,0E0,0E0,0E0,0E0,0E0,0E0,0E0,0E0,0E0,0E0,0E0,0E0,0E0,0E0,0E0,0E0,0E0,0E0,0E0,0E0,0E0,0E0,0E0,0E0,0E0,0E0],"parents":[2147483647,0,0,1,1,2,2,3,3,4,4,5,5,6,6,7,7,8,8,9,9,10,10,11,11,12,12,13,13,14,14,15,15,16,16,17,17,18,18,19,19,20,20,21,21,22,22,23,23,24,24,25,25,26,26,27,27,28,28,29,29,30,30],"right_children":[2,4,6,8,10,12,14,16,18,20,22,24,26,28,30,32,34,36,38,40,42,44,46,48,50,52,54,56,58,60,62,-1,-1,-1,-1,-1,-1,-1,-1,-1,-1,-1,-1,-1,-1,-1,-1,-1,-1,-1,-1,-1,-1,-1,-1,-1,-1,-1,-1,-1,-1,-1,-1],"split_conditions":[-1.8369701E-16,8.6E1,8.4E1,8.1E1,0E0,0E0,-5E-1,8.660254E-1,2.5881904E-1,8.7E1,9E1,8.1E1,8.2E1,8.5E1,8.8E1,5E-1,9.659258E-1,8.3E1,9.659258E-1,-8.660254E-1,-7.0710677E-1,7.0710677E-1,9.659258E-1,-9.659258E-1,8.3E1,1E0,5E-1,-8.660254E-1,-9.659258E-1,1.2246469E-16,8.9E1,-3.50394E-2,-1.82281E-2,-4.9437493E-2,-7.191712E-2,-9.496634E-3,1.023709E-2,3.048156E-2,-9.129232E-3,4.970062E-2,6.743654E-2,-2.9195528E-4,3.335714E-2,1.0283754E-1,5.5360187E-2,2.3804009E-2,-3.4012582E-2,-5.9465438E-2,-7.615816E-2,-2.4237515E-2,1.1995807E-3,-1.09809995E-1,-4.7044434E-2,-3.804991E-2,-6.496138E-2,-5.1620207E-3,-1.9576719E-2,5.8851796E-3,2.073158E-2,-1.12816E-2,-2.9539732E-2,2.4735646E-2,-1.3085395E-2],"split_indices":[3,1,1,1,2,2,2,2,2,1,1,1,1,1,1,2,2,1,2,2,2,2,2,2,1,2,2,2,2,2,1,0,0,0,0,0,0,0,0,0,0,0,0,0,0,0,0,0,0,0,0,0,0,0,0,0,0,0,0,0,0,0,0],"split_type":[0,0,0,0,0,0,0,0,0,0,0,0,0,0,0,0,0,0,0,0,0,0,0,0,0,0,0,0,0,0,0,0,0,0,0,0,0,0,0,0,0,0,0,0,0,0,0,0,0,0,0,0,0,0,0,0,0,0,0,0,0,0,0],"sum_hessian":[9.578E3,4.548E3,5.03E3,2.539E3,2.009E3,1.78E3,3.25E3,4.19E2,2.12E3,8.47E2,1.162E3,9.11E2,8.69E2,8.9E2,2.36E3,3.46E2,7.3E1,1.151E3,9.69E2,1.93E2,6.54E2,9.4E2,2.22E2,2.25E2,6.86E2,3.27E2,5.42E2,1.59E2,7.31E2,1.369E3,9.91E2,2.74E2,7.2E1,3.8E1,3.5E1,4.59E2,6.92E2,7.78E2,1.91E2,4.3E1,1.5E2,2.35E2,4.19E2,4.57E2,4.83E2,1.83E2,3.9E1,4E1,1.85E2,4.58E2,2.28E2,2.59E2,6.8E1,1.51E2,3.91E2,8.2E1,7.7E1,1.84E2,5.47E2,4.53E2,9.16E2,3.48E2,6.43E2],"tree_param":{"num_deleted":"0","num_feature":"4","num_nodes":"63","size_leaf_vector":"1"}},{"base_weights":[6.271232E-4,2.1976061E-1,-1.9592752E-1,2.9941353E-1,7.174522E-2,-9.3048126E-2,-3.1305256E-1,1.9944763E-1,4.2496678E-1,8.428823E-3,1.2968561E-1,-1.5943332E-2,-1.5132044E-1,-3.707733E-1,-5.081309E-3,1.3007048E-1,2.6592717E-1,4.6910655E-1,3.3841815E-2,4.0663933E-4,1.2932773E-3,1.4885648E-2,1.0977581E-2,-6.880446E-3,1.1479355E-2,-1.20734155E-1,-1.8143093E-2,-2.3610283E-2,-3.9942223E-1,1.0393769E-2,1.5353552E-2,2.4027377E-2,2.9283036E-2,3.7102904E-2,5.665478E-2,6.109293E-3,-3.934908E-3,-1.0104589E-2,-1.4062494E-2,-3.5336293E-2,-4.1502193E-2],"categories":[],"categories_nodes":[],"categories_segments":[],"categories_sizes":[],"default_left":[0,0,0,0,0,0,0,0,0,0,0,0,0,0,0,0,0,0,0,0,0,0,0,0,0,0,0,0,0,0,0,0,0,0,0,0,0,0,0,0,0],"id":24,"left_children":[1,3,5,7,9,11,13,15,17,19,21,23,25,27,-1,29,31,33,-1,-1,-1,-1,-1,-1,35,37,-1,-1,39,-1,-1,-1,-1,-1,-1,-1,-1,-1,-1,-1,-1],"loss_changes":[4.1155014E2,5.3245102E1,6.0665497E1,3.677768E1,5.802595E0,1.20525055E1,3.5627945E1,7.515518E0,4.811386E0,1.4821075E-2,2.9893398E-1,1.6765206E0,1.3853378E0,7.351959E0,0E0,4.7644806E-1,5.059204E-1,7.9990845E0,0E0,0E0,0E0,0E0,0E0,0E0,1.9240006E0,2.8380966E-1,0E0,0E0,9.957733E-1,0E0,0E0,0E0,0E0,0E0,0E0,0E0,0E0,0E0,0E0,0E0,0E0],"parents":[2147483647,0,0,1,1,2,2,3,3,4,4,5,5,6,6,7,7,8,8,9,9,10,10,11,11,12,12,13,13,15,15,16,16,17,17,24,24,25,25,28,28],"right_children":[2,4,6,8,10,12,14,16,18,20,22,24,26,28,-1,30,32,34,-1,-1,-1,-1,-1,-1,36,38,-1,-1,40,-1,-1,-1,-1,-1,-1,-1,-1,-1,-1,-1,-1],"split_conditions":[-1.8369701E-16,-5E-1,1.2246469E-16,2.5881904E-1,-7.0710677E-1,-7.0710677E-1,1E0,-2.5881904E-1,7.0710677E-1,-8.660254E-1,9.659258E-1,-9.659258E-1,-2.5881904E-1,5E-1,-5.081309E-3,-5E-1,0E0,5E-1,3.3841815E-2,4.0663933E-4,1.2932773E-3,1.4885648E-2,1.0977581E-2,-6.880446E-3,-8.660254E-1,-5E-1,-1.8143093E-2,-2.3610283E-2,7.0710677E-1,1.0393769E-2,1.5353552E-2,2.4027377E-2,2.9283036E-2,3.7102904E-2,5.665478E-2,6.109293E-3,-3.934908E-3,-1.0104589E-2,-1.4062494E-2,-3.5336293E-2,-4.1502193E-2],"split_indices":[3,3,2,2,2,2,2,2,2,2,2,2,2,2,0,2,2,2,0,0,0,0,0,0,2,2,0,0,2,0,0,0,0,0,0,0,0,0,0,0,0],"split_type":[0,0,0,0,0,0,0,0,0,0,0,0,0,0,0,0,0,0,0,0,0,0,0,0,0,0,0,0,0,0,0,0,0,0,0,0,0,0,0,0,0],"sum_hessian":[9.553E3,4.517E3,5.036E3,2.936E3,1.581E3,2.682E3,2.354E3,1.636E3,1.3E3,7.56E2,8.25E2,1.155E3,1.527E3,1.929E3,4.25E2,8.02E2,8.34E2,8.58E2,4.42E2,3.85E2,3.71E2,4.17E2,4.08E2,3.94E2,7.61E2,7.6E2,7.67E2,3.4E2,1.589E3,3.82E2,4.2E2,4.32E2,4.02E2,4.3E2,4.28E2,3.85E2,3.76E2,3.85E2,3.75E2,4.08E2,1.181E3],"tree_param":{"num_deleted":"0","num_feature":"4","num_nodes":"41","size_leaf_vector":"1"}},{"base_weights":[-1.7920955E-3,-2.6787755E-1,1.4947656E-1,-5.345368E-1,-2.0116417E-1,2.4293666E-3,2.128715E-1,-4.4707662E-1,-1.1000695E-1,-8.708423E-2,-2.9519644E-1,2.9924886E-2,-1.03985466E-1,2.4478988E-1,9.451509E-3,-4.8495132E-1,-2.755131E-1,-1.715285E-1,7.436526E-2,-2.2294661E-1,-3.580729E-1,-3.0477067E-2,6.401053E-2,-1.6857888E-1,-3.6749326E-2,1.745294E-1,3.1430918E-1,2.0542233E-1,-1.1155129E-1,-4.696761E-2,-6.649665E-2,-1.2418798E-2,-5.211618E-2,-6.4276806E-3,-2.8046278E-2,-1.762156E-3,1.5188246E-2,-4.43388E-2,-1.0632063E-2,-3.744052E-2,-2.5402E-2,-1.1342741E-2,5.51428E-3,3.4176726E-3,9.448207E-3,-1.0495453E-2,-2.102669E-2,-8.40467E-3,-5.4506114E-4,1.9156853E-2,-7.103655E-4,5.8817696E-2,2.2618843E-2,2.981481E-2,1.5069745E-2,-1.5569008E-2,2.2424739E-2],"categories":[],"categories_nodes":[],"categories_segments":[],"categories_sizes":[],"default_left":[0,0,0,0,0,0,0,0,0,0,0,0,0,0,0,0,0,0,0,0,0,0,0,0,0,0,0,0,0,0,0,0,0,0,0,0,0,0,0,0,0,0,0,0,0,0,0,0,0,0,0,0,0,0,0,0,0],"id":25,"left_children":[1,3,5,7,9,11,13,15,-1,17,19,21,23,25,27,29,31,33,35,37,39,41,43,45,47,49,51,53,55,-1,-1,-1,-1,-1,-1,-1,-1,-1,-1,-1,-1,-1,-1,-1,-1,-1,-1,-1,-1,-1,-1,-1,-1,-1,-1,-1,-1],"loss_changes":[3.8435074E2,6.146277E1,5.675212E1,3.3735596E1,2.9688637E1,5.3721952E0,2.761821E1,3.771637E0,0E0,1.7095512E1,6.816162E0,3.0057974E0,1.6311202E0,1.7905304E1,1.3729039E1,1.0378113E0,4.0614605E0,9.597401E0,3.075948E0,1.8180668E1,1.2814331E0,3.7491121E0,8.44944E-1,4.871869E-1,2.7488646E-1,5.668064E0,4.444142E1,1.0765142E0,5.3410974E0,0E0,0E0,0E0,0E0,0E0,0E0,0E0,0E0,0E0,0E0,0E0,0E0,0E0,0E0,0E0,0E0,0E0,0E0,0E0,0E0,0E0,0E0,0E0,0E0,0E0,0E0,0E0,0E0],"parents":[2147483647,0,0,1,1,2,2,3,3,4,4,5,5,6,6,7,7,9,9,10,10,11,11,12,12,13,13,14,14,15,15,16,16,17,17,18,18,19,19,20,20,21,21,22,22,23,23,24,24,25,25,26,26,27,27,28,28],"right_children":[2,4,6,8,10,12,14,16,-1,18,20,22,24,26,28,30,32,34,36,38,40,42,44,46,48,50,52,54,56,-1,-1,-1,-1,-1,-1,-1,-1,-1,-1,-1,-1,-1,-1,-1,-1,-1,-1,-1,-1,-1,-1,-1,-1,-1,-1,-1,-1],"split_conditions":[8.4E1,8.1E1,8.6E1,9.659258E-1,0E0,8.660254E-1,9E1,5E-1,-1.1000695E-1,8.3E1,7.0710677E-1,-5E-1,8.5E1,1.2246469E-16,5E-1,2.5881904E-1,8.660254E-1,8.2E1,-7.0710677E-1,8.2E1,1E0,8.5E1,2.5881904E-1,9.659258E-1,9.659258E-1,0E0,5E-1,0E0,1E0,-4.696761E-2,-6.649665E-2,-1.2418798E-2,-5.211618E-2,-6.4276806E-3,-2.8046278E-2,-1.762156E-3,1.5188246E-2,-4.43388E-2,-1.0632063E-2,-3.744052E-2,-2.5402E-2,-1.1342741E-2,5.51428E-3,3.4176726E-3,9.448207E-3,-1.0495453E-2,-2.102669E-2,-8.40467E-3,-5.4506114E-4,1.9156853E-2,-7.103655E-4,5.8817696E-2,2.2618843E-2,2.981481E-2,1.5069745E-2,-1.5569008E-2,2.2424739E-2],"split_indices":[1,1,1,2,2,2,1,2,0,1,2,2,1,2,2,2,2,1,2,1,2,1,2,2,2,2,2,2,2,0,0,0,0,0,0,0,0,0,0,0,0,0,0,0,0,0,0,0,0,0,0,0,0,0,0,0,0],"split_type":[0,0,0,0,0,0,0,0,0,0,0,0,0,0,0,0,0,0,0,0,0,0,0,0,0,0,0,0,0,0,0,0,0,0,0,0,0,0,0,0,0,0,0,0,0,0,0,0,0,0,0,0,0,0,0,0,0],"sum_hessian":[9.547E3,3.46E3,6.087E3,6.91E2,2.769E3,1.834E3,4.253E3,6E2,9.1E1,1.252E3,1.517E3,1.458E3,3.76E2,3.676E3,5.77E2,4.9E2,1.1E2,8.22E2,4.3E2,7.08E2,8.09E2,5.26E2,9.32E2,1.91E2,1.85E2,1.83E3,1.846E3,2.2E2,3.57E2,4.55E2,3.5E1,6.9E1,4.1E1,4.15E2,4.07E2,1.97E2,2.33E2,2.44E2,4.64E2,6.97E2,1.12E2,2.67E2,2.59E2,4.72E2,4.6E2,7.7E1,1.14E2,7.3E1,1.12E2,1.673E3,1.57E2,4.48E2,1.398E3,8E1,1.4E2,3.16E2,4.1E1],"tree_param":{"num_deleted":"0","num_feature":"4","num_nodes":"57","size_leaf_vector":"1"}},{"base_weights":[1.6986124E-3,2.0720169E-1,-1.8345068E-1,2.8558543E-1,6.770444E-2,-7.972581E-2,-2.979053E-1,1.8351139E-1,4.1644934E-1,1.1627798E-2,1.198519E-1,-1.7363302E-2,-1.2641387E-1,-3.496173E-1,-6.138164E-3,1.18371025E-1,2.4337171E-1,4.6498746E-1,3.2447066E-2,-5.419632E-4,2.8732398E-3,1.5678702E-2,8.192556E-3,-5.3486377E-3,1.4246077E-3,-9.050676E-3,-1.3820809E-1,-2.8961113E-1,-3.8751143E-1,7.27788E-3,1.5883178E-2,2.0855835E-2,2.7745033E-2,4.0182583E-2,5.270287E-2,3.7080352E-3,-3.4619407E-3,-1.2285505E-2,-1.4560175E-2,-2.6082352E-2,-3.148139E-2,-4.164012E-2,-3.3048157E-2],"categories":[],"categories_nodes":[],"categories_segments":[],"categories_sizes":[],"default_left":[0,0,0,0,0,0,0,0,0,0,0,0,0,0,0,0,0,0,0,0,0,0,0,0,0,0,0,0,0,0,0,0,0,0,0,0,0,0,0,0,0,0,0],"id":26,"left_children":[1,3,5,7,9,11,13,15,17,19,21,23,25,27,-1,29,31,33,-1,-1,-1,-1,-1,-1,35,-1,37,39,41,-1,-1,-1,-1,-1,-1,-1,-1,-1,-1,-1,-1,-1,-1],"loss_changes":[3.6366992E2,4.9513123E1,5.9667587E1,3.8661194E1,4.7680655E0,7.6814766E0,2.9210907E1,6.33099E0,5.5190125E0,2.2963662E-1,1.1708422E0,7.676599E-1,6.2654686E-1,4.346863E0,0E0,1.4328375E0,9.4937515E-1,3.0367584E0,0E0,0E0,0E0,0E0,0E0,0E0,9.5873994E-1,0E0,1.1083794E-1,4.714737E-1,1.8378143E0,0E0,0E0,0E0,0E0,0E0,0E0,0E0,0E0,0E0,0E0,0E0,0E0,0E0,0E0],"parents":[2147483647,0,0,1,1,2,2,3,3,4,4,5,5,6,6,7,7,8,8,9,9,10,10,11,11,12,12,13,13,15,15,16,16,17,17,24,24,26,26,27,27,28,28],"right_children":[2,4,6,8,10,12,14,16,18,20,22,24,26,28,-1,30,32,34,-1,-1,-1,-1,-1,-1,36,-1,38,40,42,-1,-1,-1,-1,-1,-1,-1,-1,-1,-1,-1,-1,-1,-1],"split_conditions":[-1.8369701E-16,-5E-1,1.2246469E-16,2.5881904E-1,-7.0710677E-1,-7.0710677E-1,1E0,-2.5881904E-1,7.0710677E-1,-8.660254E-1,9.659258E-1,-9.659258E-1,-5E-1,7.0710677E-1,-6.138164E-3,-5E-1,0E0,5E-1,3.2447066E-2,-5.419632E-4,2.8732398E-3,1.5678702E-2,8.192556E-3,-5.3486377E-3,-8.660254E-1,-9.050676E-3,-2.5881904E-1,5E-1,9.659258E-1,7.27788E-3,1.5883178E-2,2.0855835E-2,2.7745033E-2,4.0182583E-2,5.270287E-2,3.7080352E-3,-3.4619407E-3,-1.2285505E-2,-1.4560175E-2,-2.6082352E-2,-3.148139E-2,-4.164012E-2,-3.3048157E-2],"split_indices":[3,3,2,2,2,2,2,2,2,2,2,2,2,2,0,2,2,2,0,0,0,0,0,0,2,0,2,2,2,0,0,0,0,0,0,0,0,0,0,0,0,0,0],"split_type":[0,0,0,0,0,0,0,0,0,0,0,0,0,0,0,0,0,0,0,0,0,0,0,0,0,0,0,0,0,0,0,0,0,0,0,0,0,0,0,0,0,0,0],"sum_hessian":[9.556E3,4.529E3,5.027E3,2.899E3,1.63E3,2.638E3,2.389E3,1.63E3,1.269E3,7.86E2,8.44E2,1.13E3,1.508E3,1.96E3,4.29E2,7.82E2,8.48E2,8.28E2,4.41E2,3.94E2,3.92E2,4.26E2,4.18E2,3.86E2,7.44E2,3.75E2,1.133E3,7.62E2,1.198E3,3.69E2,4.13E2,4.23E2,4.25E2,4.14E2,4.14E2,3.74E2,3.7E2,3.74E2,7.59E2,3.61E2,4.01E2,7.91E2,4.07E2],"tree_param":{"num_deleted":"0","num_feature":"4","num_nodes":"43","size_leaf_vector":"1"}},{"base_weights":[-2.9889122E-4,-2.3710445E-1,1.3380098E-1,-4.793706E-1,-1.7575432E-1,-3.4094646E-3,1.9347662E-1,-4.126035E-1,-9.2312984E-2,-9.67509E-2,-2.686856E-1,1.6923144E-2,-7.6829925E-2,2.2252885E-1,8.179489E-3,-4.5859978E-1,-3.5064384E-1,-1.6761054E-1,4.774054E-2,-3.5556245E-1,-2.2498253E-1,-8.1121735E-3,6.8320125E-2,-1.3366291E-1,-2.045611E-2,1.6559623E-1,2.7983516E-1,2.1936038E-1,-7.540091E-2,-5.5700164E-2,-4.432734E-2,-3.1205991E-2,-5.662313E-2,-8.011626E-3,-2.5529344E-2,6.886791E-3,-7.73392E-3,-4.5758165E-2,-7.6575205E-3,-5.233944E-3,-3.2331165E-2,-5.6605814E-3,4.1698026E-3,1.1943235E-2,1.3608752E-3,-4.6229754E-3,-1.8758325E-2,-6.1931494E-3,7.9284265E-4,2.5354609E-2,1.3503459E-2,5.1005077E-2,2.0149903E-2,-5.4044886E-3,2.3924029E-2,-1.0632429E-2,2.1078235E-2],"categories":[],"categories_nodes":[],"categories_segments":[],"categories_sizes":[],"default_left":[0,0,0,0,0,0,0,0,0,0,0,0,0,0,0,0,0,0,0,0,0,0,0,0,0,0,0,0,0,0,0,0,0,0,0,0,0,0,0,0,0,0,0,0,0,0,0,0,0,0,0,0,0,0,0,0,0],"id":27,"left_children":[1,3,5,7,9,11,13,15,-1,17,19,21,23,25,27,29,31,33,35,37,39,41,43,45,47,49,51,53,55,-1,-1,-1,-1,-1,-1,-1,-1,-1,-1,-1,-1,-1,-1,-1,-1,-1,-1,-1,-1,-1,-1,-1,-1,-1,-1,-1,-1],"loss_changes":[3.0539355E2,5.1594604E1,5.0275734E1,2.041832E1,2.0355095E1,2.7809486E0,2.303328E1,1.5833359E0,0E0,1.5386394E1,4.76091E0,1.8779075E0,1.2916381E0,1.2022018E1,1.0271529E1,2.779312E-1,2.0276299E0,7.7126713E0,1.3134156E0,1.20613365E1,1.442952E1,2.3743594E0,1.3350632E0,9.3892765E-1,2.4065197E-1,4.9598656E0,3.311621E1,9.0974903E-1,3.712758E0,0E0,0E0,0E0,0E0,0E0,0E0,0E0,0E0,0E0,0E0,0E0,0E0,0E0,0E0,0E0,0E0,0E0,0E0,0E0,0E0,0E0,0E0,0E0,0E0,0E0,0E0,0E0,0E0],"parents":[2147483647,0,0,1,1,2,2,3,3,4,4,5,5,6,6,7,7,9,9,10,10,11,11,12,12,13,13,14,14,15,15,16,16,17,17,18,18,19,19,20,20,21,21,22,22,23,23,24,24,25,25,26,26,27,27,28,28],"right_children":[2,4,6,8,10,12,14,16,-1,18,20,22,24,26,28,30,32,34,36,38,40,42,44,46,48,50,52,54,56,-1,-1,-1,-1,-1,-1,-1,-1,-1,-1,-1,-1,-1,-1,-1,-1,-1,-1,-1,-1,-1,-1,-1,-1,-1,-1,-1,-1],"split_conditions":[8.4E1,8.1E1,8.6E1,9.659258E-1,2.5881904E-1,8.660254E-1,9E1,-2.5881904E-1,-9.2312984E-2,8.3E1,8.2E1,2.5881904E-1,8.5E1,1.2246469E-16,2.5881904E-1,-9.659258E-1,8.660254E-1,8.2E1,0E0,9.659258E-1,7.0710677E-1,8.5E1,8.5E1,9.659258E-1,9.659258E-1,8.7E1,5E-1,-5E-1,1E0,-5.5700164E-2,-4.432734E-2,-3.1205991E-2,-5.662313E-2,-8.011626E-3,-2.5529344E-2,6.886791E-3,-7.73392E-3,-4.5758165E-2,-7.6575205E-3,-5.233944E-3,-3.2331165E-2,-5.6605814E-3,4.1698026E-3,1.1943235E-2,1.3608752E-3,-4.6229754E-3,-1.8758325E-2,-6.1931494E-3,7.9284265E-4,2.5354609E-2,1.3503459E-2,5.1005077E-2,2.0149903E-2,-5.4044886E-3,2.3924029E-2,-1.0632429E-2,2.1078235E-2],"split_indices":[1,1,1,2,2,2,1,2,0,1,1,2,1,2,2,2,2,1,2,2,2,1,1,2,2,1,2,2,2,0,0,0,0,0,0,0,0,0,0,0,0,0,0,0,0,0,0,0,0,0,0,0,0,0,0,0,0],"split_type":[0,0,0,0,0,0,0,0,0,0,0,0,0,0,0,0,0,0,0,0,0,0,0,0,0,0,0,0,0,0,0,0,0,0,0,0,0,0,0,0,0,0,0,0,0,0,0,0,0,0,0,0,0,0,0,0,0],"sum_hessian":[9.615E3,3.476E3,6.139E3,7.01E2,2.775E3,1.861E3,4.278E3,6.11E2,9E1,1.501E3,1.274E3,1.458E3,4.03E2,3.698E3,5.8E2,3.47E2,2.64E2,1.007E3,4.94E2,4.24E2,8.5E2,9.81E2,4.77E2,2E2,2.03E2,1.857E3,1.841E3,1.64E2,4.16E2,4.2E1,3.05E2,2.26E2,3.8E1,5.05E2,5.02E2,4.23E2,7.1E1,3.1E2,1.14E2,3.09E2,5.41E2,4.97E2,4.84E2,2.46E2,2.31E2,7.7E1,1.23E2,8.2E1,1.21E2,4.77E2,1.38E3,4.66E2,1.375E3,1.1E1,1.53E2,3.76E2,4E1],"tree_param":{"num_deleted":"0","num_feature":"4","num_nodes":"57","size_leaf_vector":"1"}},{"base_weights":[1.5384527E-3,1.7929107E-1,-1.6032398E-1,2.3734834E-2,3.7548608E-1,-5.2783984E-1,-9.146953E-2,-2.676034E-1,8.02356E-2,5.024527E-1,2.6042774E-1,-2.3811297E-1,-5.9909064E-1,-1.9095176E-1,-5.7747797E-3,-3.8451668E-2,-2.5640908E-1,1.2997171E-1,-9.015789E-3,6.685715E-1,2.62587E-1,2.8572816E-1,6.439243E-2,-6.768498E-1,1.9263181E-1,-5.8187586E-1,-8.266536E-2,-2.4625595E-1,-1.3567862E-1,9.255975E-2,-5.0445568E-2,-2.1511376E-2,-2.8079806E-2,7.769571E-3,2.0534227E-2,-1.0313956E-2,5.046072E-3,4.6075433E-2,1.0907018E-1,3.6168188E-2,1.5532992E-2,3.6103204E-2,2.4869844E-2,2.1530505E-2,-3.0210173E-2,-4.025967E-2,-9.856284E-2,1.0426889E-2,2.8285263E-2,-6.7835316E-2,-5.263744E-2,-6.798172E-3,-2.6153464E-2,-6.618657E-3,-1.6676394E-2,-5.240198E-4,1.6913354E-2,-1.1503715E-3,-1.2459556E-2],"categories":[],"categories_nodes":[],"categories_segments":[],"categories_sizes":[],"default_left":[0,0,0,0,0,0,0,0,0,0,0,0,0,0,0,0,0,0,0,0,0,0,0,0,0,0,0,0,0,0,0,0,0,0,0,0,0,0,0,0,0,0,0,0,0,0,0,0,0,0,0,0,0,0,0,0,0,0,0],"id":28,"left_children":[1,3,5,7,9,11,13,15,17,19,21,23,25,27,29,-1,31,33,35,37,39,41,43,45,47,49,-1,51,53,55,57,-1,-1,-1,-1,-1,-1,-1,-1,-1,-1,-1,-1,-1,-1,-1,-1,-1,-1,-1,-1,-1,-1,-1,-1,-1,-1,-1,-1],"loss_changes":[2.7424966E2,1.3864053E2,1.2619887E2,4.1749683E1,2.9217743E1,1.6103622E1,3.5829914E1,4.4061852E-1,9.429645E0,3.7837692E1,5.219124E0,2.9800806E1,1.9908905E0,5.91214E0,9.927735E0,0E0,3.2130623E-1,5.358303E0,4.2653985E0,4.8887146E1,4.110239E0,2.5174408E0,6.812692E0,6.2085E0,6.0828114E-1,2.8021545E0,0E0,2.627018E0,2.0951405E0,5.288059E0,4.4858E0,0E0,0E0,0E0,0E0,0E0,0E0,0E0,0E0,0E0,0E0,0E0,0E0,0E0,0E0,0E0,0E0,0E0,0E0,0E0,0E0,0E0,0E0,0E0,0E0,0E0,0E0,0E0,0E0],"parents":[2147483647,0,0,1,1,2,2,3,3,4,4,5,5,6,6,7,7,8,8,9,9,10,10,11,11,12,12,13,13,14,14,16,16,17,17,18,18,19,19,20,20,21,21,22,22,23,23,24,24,25,25,27,27,28,28,29,29,30,30],"right_children":[2,4,6,8,10,12,14,16,18,20,22,24,26,28,30,-1,32,34,36,38,40,42,44,46,48,50,-1,52,54,56,58,-1,-1,-1,-1,-1,-1,-1,-1,-1,-1,-1,-1,-1,-1,-1,-1,-1,-1,-1,-1,-1,-1,-1,-1,-1,-1,-1,-1],"split_conditions":[-1.8369701E-16,8.6E1,8.2E1,8.1E1,-7.0710677E-1,2.5881904E-1,8.6E1,-9.659258E-1,-5E-1,8.9E1,9E1,8.1E1,1E0,8.4E1,5E-1,-3.8451668E-2,-7.0710677E-1,8.4E1,8.3E1,8.8E1,9E1,-5E-1,-2.5881904E-1,6.123234E-17,6.123234E-17,8.1E1,-8.266536E-2,6.123234E-17,5E-1,8.8E1,8.9E1,-2.1511376E-2,-2.8079806E-2,7.769571E-3,2.0534227E-2,-1.0313956E-2,5.046072E-3,4.6075433E-2,1.0907018E-1,3.6168188E-2,1.5532992E-2,3.6103204E-2,2.4869844E-2,2.1530505E-2,-3.0210173E-2,-4.025967E-2,-9.856284E-2,1.0426889E-2,2.8285263E-2,-6.7835316E-2,-5.263744E-2,-6.798172E-3,-2.6153464E-2,-6.618657E-3,-1.6676394E-2,-5.240198E-4,1.6913354E-2,-1.1503715E-3,-1.2459556E-2],"split_indices":[3,1,1,1,3,3,1,3,3,1,1,1,3,1,3,0,3,1,1,1,1,3,3,3,3,1,0,3,3,1,1,0,0,0,0,0,0,0,0,0,0,0,0,0,0,0,0,0,0,0,0,0,0,0,0,0,0,0,0],"split_type":[0,0,0,0,0,0,0,0,0,0,0,0,0,0,0,0,0,0,0,0,0,0,0,0,0,0,0,0,0,0,0,0,0,0,0,0,0,0,0,0,0,0,0,0,0,0,0,0,0,0,0,0,0,0,0,0,0,0,0],"sum_hessian":[9.53E3,4.542E3,4.988E3,2.534E3,2.008E3,7.86E2,4.202E3,4.11E2,2.123E3,9.53E2,1.055E3,1.56E2,6.3E2,1.944E3,2.258E3,3.3E1,3.78E2,1.363E3,7.6E2,5.62E2,3.91E2,9.34E2,1.21E2,7.7E1,7.9E1,5.89E2,4.1E1,9.7E2,9.74E2,7.05E2,1.553E3,1.44E2,2.34E2,8.06E2,5.57E2,2.94E2,4.66E2,3.78E2,1.84E2,2.02E2,1.89E2,3.05E2,6.29E2,8.6E1,3.5E1,4.2E1,3.5E1,4.1E1,3.8E1,2.11E2,3.78E2,7.7E1,8.93E2,3.02E2,6.72E2,3.1E2,3.95E2,1.019E3,5.34E2],"tree_param":{"num_deleted":"0","num_feature":"4","num_nodes":"59","size_leaf_vector":"1"}},{"base_weights":[2.547128E-4,-1.8762998E-1,1.06784366E-1,-3.876983E-1,-1.353348E-1,-2.4494382E-3,1.5451996E-1,-3.19993E-1,-8.2092315E-2,-6.1118636E-2,-1.9596733E-1,1.7606694E-2,-5.011939E-2,1.771969E-1,1.5378314E-2,-3.4379587E-1,-2.1015355E-1,-1.248443E-1,7.092333E-2,-3.690951E-1,-1.8139924E-1,-9.791808E-3,1.0670604E-1,-1.1857863E-1,1.51188895E-2,1.2285959E-1,2.3017104E-1,1.3599555E-1,-6.7696385E-2,-3.2400366E-2,-5.8006782E-2,1.8990359E-3,-3.13218E-2,2.3779688E-4,-1.746309E-2,2.0038474E-3,1.6395167E-2,-7.444427E-2,-1.6174842E-2,6.8484517E-3,-2.0374293E-2,-4.8497226E-3,3.1824787E-3,2.2904862E-2,-2.4563603E-3,-9.06407E-3,-1.5850056E-2,8.960008E-3,-1.8018772E-3,2.1984229E-2,2.465738E-3,1.0904377E-2,3.46291E-2,-6.9719725E-3,1.4792608E-2,-9.329079E-3,1.6026793E-2],"categories":[],"categories_nodes":[],"categories_segments":[],"categories_sizes":[],"default_left":[0,0,0,0,0,0,0,0,0,0,0,0,0,0,0,0,0,0,0,0,0,0,0,0,0,0,0,0,0,0,0,0,0,0,0,0,0,0,0,0,0,0,0,0,0,0,0,0,0,0,0,0,0,0,0,0,0],"id":29,"left_children":[1,3,5,7,9,11,13,15,-1,17,19,21,23,25,27,29,31,33,35,37,39,41,43,45,47,49,51,53,55,-1,-1,-1,-1,-1,-1,-1,-1,-1,-1,-1,-1,-1,-1,-1,-1,-1,-1,-1,-1,-1,-1,-1,-1,-1,-1,-1,-1],"loss_changes":[1.9100594E2,3.607492E1,3.1755722E1,2.070942E1,1.2313282E1,1.7724891E0,1.3369461E1,1.5487404E0,0E0,1.0383886E1,3.7339134E0,3.186796E0,2.4537163E0,1.0460876E1,5.97125E0,2.1876373E0,2.6746235E0,5.270275E0,1.8996756E0,8.907531E0,7.785942E0,1.6107203E0,4.9360046E0,2.845435E-1,6.976277E-1,1.7147146E1,2.5898643E1,6.0670567E-1,2.074569E0,0E0,0E0,0E0,0E0,0E0,0E0,0E0,0E0,0E0,0E0,0E0,0E0,0E0,0E0,0E0,0E0,0E0,0E0,0E0,0E0,0E0,0E0,0E0,0E0,0E0,0E0,0E0,0E0],"parents":[2147483647,0,0,1,1,2,2,3,3,4,4,5,5,6,6,7,7,9,9,10,10,11,11,12,12,13,13,14,14,15,15,16,16,17,17,18,18,19,19,20,20,21,21,22,22,23,23,24,24,25,25,26,26,27,27,28,28],"right_children":[2,4,6,8,10,12,14,16,-1,18,20,22,24,26,28,30,32,34,36,38,40,42,44,46,48,50,52,54,56,-1,-1,-1,-1,-1,-1,-1,-1,-1,-1,-1,-1,-1,-1,-1,-1,-1,-1,-1,-1,-1,-1,-1,-1,-1,-1,-1,-1],"split_conditions":[8.4E1,8.1E1,8.6E1,9.659258E-1,0E0,7.0710677E-1,9E1,5E-1,-8.2092315E-2,8.3E1,1.2246469E-16,2.5881904E-1,8.5E1,8.8E1,5E-1,2.5881904E-1,7.0710677E-1,-8.660254E-1,-5E-1,8.2E1,2.5881904E-1,8.5E1,8.5E1,9.659258E-1,8.660254E-1,8.7E1,1.2246469E-16,-5E-1,1E0,-3.2400366E-2,-5.8006782E-2,1.8990359E-3,-3.13218E-2,2.3779688E-4,-1.746309E-2,2.0038474E-3,1.6395167E-2,-7.444427E-2,-1.6174842E-2,6.8484517E-3,-2.0374293E-2,-4.8497226E-3,3.1824787E-3,2.2904862E-2,-2.4563603E-3,-9.06407E-3,-1.5850056E-2,8.960008E-3,-1.8018772E-3,2.1984229E-2,2.465738E-3,1.0904377E-2,3.46291E-2,-6.9719725E-3,1.4792608E-2,-9.329079E-3,1.6026793E-2],"split_indices":[1,1,1,2,2,2,1,2,0,1,2,2,1,1,2,2,2,2,2,1,2,1,1,2,2,1,2,2,2,0,0,0,0,0,0,0,0,0,0,0,0,0,0,0,0,0,0,0,0,0,0,0,0,0,0,0,0],"split_type":[0,0,0,0,0,0,0,0,0,0,0,0,0,0,0,0,0,0,0,0,0,0,0,0,0,0,0,0,0,0,0,0,0,0,0,0,0,0,0,0,0,0,0,0,0,0,0,0,0,0,0,0,0,0,0,0,0],"sum_hessian":[9.541E3,3.452E3,6.089E3,7.14E2,2.738E3,1.852E3,4.237E3,6.19E2,9.5E1,1.232E3,1.506E3,1.304E3,5.48E2,3.643E3,5.94E2,5.07E2,1.12E2,8.31E2,4.01E2,1.15E2,1.391E3,9.98E2,3.06E2,2.67E2,2.81E2,1.8E3,1.843E3,2.42E2,3.52E2,4.7E2,3.7E1,3.5E1,7.7E1,2.34E2,5.97E2,2.6E2,1.41E2,4E1,7.5E1,1.14E2,1.277E3,5.17E2,4.81E2,1.58E2,1.48E2,1.59E2,1.08E2,8.6E1,1.95E2,9.05E2,8.95E2,9.03E2,9.4E2,1.3E1,2.29E2,3.17E2,3.5E1],"tree_param":{"num_deleted":"0","num_feature":"4","num_nodes":"57","size_leaf_vector":"1"}},{"base_weights":[-3.4850836E-4,1.5887405E-1,-1.456676E-1,6.106197E-2,2.3473251E-1,-5.452881E-2,-2.4602342E-1,-4.6791285E-3,1.0359464E-1,2.996085E-1,1.029537E-1,-1.3910368E-2,-1.07115075E-1,-2.981468E-1,-6.752661E-4,-7.2094373E-4,-2.1625625E-4,6.3933427E-3,1.2122442E-1,1.9826898E-2,3.3263874E-1,1.2311932E-2,8.191879E-3,-1.5625132E-3,-5.2493075E-3,-9.413542E-3,-1.1343118E-1,-2.1832595E-2,-3.1597006E-1,1.03059495E-2,1.3781977E-2,3.6345568E-2,2.7531568E-2,-4.9968953E-3,2.296637E-3,-1.2729009E-2,-9.833264E-3,-3.3069845E-2,-2.7393807E-2],"categories":[],"categories_nodes":[],"categories_segments":[],"categories_sizes":[],"default_left":[0,0,0,0,0,0,0,0,0,0,0,0,0,0,0,0,0,0,0,0,0,0,0,0,0,0,0,0,0,0,0,0,0,0,0,0,0,0,0],"id":30,"left_children":[1,3,5,7,9,11,13,15,17,19,21,23,25,27,-1,-1,-1,-1,29,-1,31,-1,-1,33,-1,-1,35,-1,37,-1,-1,-1,-1,-1,-1,-1,-1,-1,-1],"loss_changes":[2.2198672E2,3.3953857E1,4.5864464E1,5.5955696E0,2.2009186E1,5.616117E0,2.97677E1,4.995782E-3,8.4179974E-1,5.7147827E0,3.513174E-1,7.073922E-1,8.327198E-2,2.719452E0,0E0,0E0,0E0,0E0,2.3901749E-1,0E0,2.1981812E0,0E0,0E0,1.3381103E0,0E0,0E0,1.4776802E-1,0E0,8.999176E-1,0E0,0E0,0E0,0E0,0E0,0E0,0E0,0E0,0E0,0E0],"parents":[2147483647,0,0,1,1,2,2,3,3,4,4,5,5,6,6,7,7,8,8,9,9,10,10,11,11,12,12,13,13,18,18,20,20,23,23,26,26,28,28],"right_children":[2,4,6,8,10,12,14,16,18,20,22,24,26,28,-1,-1,-1,-1,30,-1,32,-1,-1,34,-1,-1,36,-1,38,-1,-1,-1,-1,-1,-1,-1,-1,-1,-1],"split_conditions":[-1.8369701E-16,0E0,1.2246469E-16,-7.0710677E-1,8.660254E-1,-5E-1,1E0,-8.660254E-1,-5E-1,2.5881904E-1,9.659258E-1,-7.0710677E-1,-2.5881904E-1,5E-1,-6.752661E-4,-7.2094373E-4,-2.1625625E-4,6.3933427E-3,-2.5881904E-1,1.9826898E-2,7.0710677E-1,1.2311932E-2,8.191879E-3,-9.659258E-1,-5.2493075E-3,-9.413542E-3,0E0,-2.1832595E-2,9.659258E-1,1.03059495E-2,1.3781977E-2,3.6345568E-2,2.7531568E-2,-4.9968953E-3,2.296637E-3,-1.2729009E-2,-9.833264E-3,-3.3069845E-2,-2.7393807E-2],"split_indices":[3,2,2,2,2,2,2,2,2,2,2,2,2,2,0,0,0,0,2,0,2,0,0,2,0,0,2,0,2,0,0,0,0,0,0,0,0,0,0],"split_type":[0,0,0,0,0,0,0,0,0,0,0,0,0,0,0,0,0,0,0,0,0,0,0,0,0,0,0,0,0,0,0,0,0,0,0,0,0,0,0],"sum_hessian":[9.592E3,4.577E3,5.015E3,2E3,2.577E3,2.629E3,2.386E3,7.86E2,1.214E3,1.726E3,8.51E2,1.484E3,1.145E3,1.959E3,4.27E2,3.91E2,3.95E2,3.75E2,8.39E2,4.26E2,1.3E3,4.32E2,4.19E2,1.125E3,3.59E2,3.8E2,7.65E2,3.6E2,1.599E3,4.04E2,4.35E2,8.42E2,4.58E2,3.78E2,7.47E2,3.95E2,3.7E2,1.179E3,4.2E2],"tree_param":{"num_deleted":"0","num_feature":"4","num_nodes":"39","size_leaf_vector":"1"}},{"base_weights":[3.0500612E-3,1.4921927E-1,-1.2861884E-1,6.340023E-2,2.1628682E-1,-4.269649E-2,-2.2432649E-1,-1.7219009E-3,1.02611005E-1,2.7167523E-1,1.0313966E-1,8.311123E-3,-8.0681354E-2,-2.6698402E-1,-3.0412131E-3,-5.03607E-4,1.65926E-4,8.6577095E-2,1.3161021E-2,1.6244784E-2,3.0677605E-1,1.3545902E-2,7.223071E-3,-2.941279E-3,2.6815627E-2,-6.038182E-2,-1.0029878E-1,-2.2367197E-1,-2.9454353E-1,8.106514E-3,9.11827E-3,3.4210995E-2,2.3936706E-2,5.749658E-3,-5.335544E-4,-4.835712E-3,-7.2765253E-3,-1.0954506E-2,-9.0889735E-3,-1.984007E-2,-2.4677755E-2,